tree
version=v2
num_class=1
num_tree_per_iteration=1
label_index=0
max_feature_idx=17
objective=regression
feature_names=age area floor structure max_floor room_num L D K S north min_time avg_time bicycle_parking car_parking bike_parking 23ku_mean_std direction_countall
feature_infos=[0:12235] [4.8600000000000003:430.10000000000002] [1:53] [0:8] [1:58] [1:6] [0:1] [0:1] [0:1] [0:1] [0:1] [1:45] [1:109.33333333333331] [0:2] [0:2] [0:1] [-1.2807574098213284:2.6514876487406509] [2667:17697]
tree_sizes=27018 31980 26098 30249 29180 30521 34242 34900 31072 31551 24381 26856 35343 26510 21802 22734 25447 20705 23878 22178 15751 26555 18335 16553 15562 10443 28191 31138 19100 24865 13063 23600 15963 15593 29096 9731 28650 29655 13568 16351 28694 19835 21226 17466 10316 8622 19425 21955 8785 7926 32174 7988 22013 11754 33284 24805 10965 15821 25840 21729 6002 30276 21286 20413 24056 21950 7343 18758 29312 17795 24227 5898 24384 16469 8970 6296 24012 40183 16628 23973 22216 18324 11031 28547 26049 21749 17109 14773 23192 19813 20216 23870 22204 26556 26056 13967 26779 15767 13810 11667

Tree=0
num_leaves=352
num_cat=0
split_feature=6 3 16 0 5 16 7 7 0 16 5 16 7 16 16 16 0 5 5 16 7 0 0 0 5 0 16 3 0 16 4 5 5 16 0 0 16 0 0 2 5 16 16 3 4 3 4 3 16 0 5 8 5 4 0 0 5 16 4 16 16 16 16 16 5 16 0 5 5 0 4 4 5 0 3 8 9 0 0 0 16 16 16 8 0 4 16 0 5 4 16 3 5 2 0 0 8 16 8 0 16 4 5 4 16 0 4 16 5 0 4 4 16 5 8 16 16 0 0 0 4 4 5 12 0 12 0 12 4 16 0 12 4 3 4 0 0 14 12 0 5 0 16 16 16 2 4 0 4 0 4 12 16 5 4 5 16 3 16 16 0 0 4 0 16 5 13 12 2 0 12 5 13 5 0 3 0 16 4 12 16 12 4 4 16 5 0 0 4 0 12 12 16 16 0 5 2 16 0 12 5 0 12 4 16 5 5 4 0 16 13 0 12 12 12 16 4 12 0 0 0 12 2 12 0 0 12 13 16 0 16 0 4 0 0 12 0 12 3 9 0 0 17 16 0 0 0 16 12 12 16 0 4 12 12 3 12 5 4 12 12 12 2 12 0 17 8 12 0 16 2 4 4 0 3 0 0 0 5 0 12 4 0 3 12 0 12 0 16 12 16 12 8 12 0 16 12 16 0 4 0 0 0 4 2 0 0 16 3 0 12 12 0 4 12 16 12 2 16 12 16 12 14 16 14 16 0 2 2 3 0 12 0 12 2 16 0 12 0 0 0 0 12 12 12 0 12 0 0 12 0
split_gain=2764.48 647.335 425.87 221.181 124.01 121.941 115.94 96.9211 96.6271 89.0226 63.3645 37.8301 33.6965 29.0891 25.7794 24.2712 22.5282 21.5623 21.5288 17.2058 16.1568 14.8259 14.6873 14.2568 12.821 11.4629 11.1888 11.0368 10.8179 10.7206 10.7153 10.4741 10.2561 13.6826 9.49237 9.45676 8.44204 8.00877 7.97969 7.27523 7.23017 7.12182 6.70924 6.69706 6.64554 6.0102 5.88723 5.74788 5.43367 5.24185 5.03217 4.58857 4.54274 4.48216 4.4798 4.44973 4.09758 3.69459 3.62418 3.42228 3.33017 3.27601 3.26752 3.20085 3.18551 3.13237 3.09987 3.05369 3.00376 2.98263 2.90541 2.90152 2.67878 2.39034 2.38773 2.28424 2.23506 2.12899 2.10857 2.05712 2.04355 1.99979 1.895 1.77468 1.76243 1.75635 1.8939 1.71444 1.71402 1.70601 1.64998 1.64145 1.6326 1.59684 1.5962 1.5517 1.52226 1.49201 1.66365 1.49132 1.48341 1.46335 1.4442 1.43133 1.36275 1.32941 1.32602 1.26328 1.25894 1.25081 1.2459 1.22854 1.22202 1.14372 1.12665 1.1021 1.08711 1.08585 1.07574 1.07204 1.06764 1.0435 1.03876 1.03581 1.00507 1.00252 1.00037 0.988094 0.974339 0.963501 0.953025 0.897384 0.896285 0.841388 0.829777 0.808695 0.797199 0.787738 0.77208 0.771729 0.768144 0.766244 0.760385 0.757099 0.739545 0.727547 0.687395 0.673667 0.672171 0.642389 0.638062 0.633051 0.611573 0.606303 0.597178 0.596089 0.584928 0.584329 0.577468 0.57384 0.648008 0.561061 0.531498 0.529625 0.514041 0.501816 0.499746 0.492189 0.489037 0.488174 0.496816 0.485761 0.482151 0.47408 0.46566 0.595636 0.458559 0.492617 0.454553 0.451994 0.443566 0.423874 0.417558 0.397385 0.396804 0.388347 0.382889 0.373061 0.368223 0.364713 0.363706 0.356116 0.354429 0.339418 0.506805 0.338416 0.367043 0.336402 0.336217 0.331646 0.326342 0.319564 0.31201 0.30496 0.304066 0.30229 0.295853 0.29238 0.287586 0.286882 0.283863 0.283521 0.283459 0.277773 0.276635 0.2764 0.275902 0.266392 0.262428 0.26116 0.260746 0.258889 0.257834 0.249438 0.247847 0.237576 0.233773 0.232189 0.230671 0.255086 0.22094 0.218595 0.212853 0.203389 0.202745 0.197802 0.196967 0.195359 0.193278 0.192569 0.189692 0.186951 0.185691 0.181248 0.177127 0.172022 0.169241 0.166638 0.16569 0.164144 0.16233 0.178737 0.160832 0.160155 0.15815 0.158114 0.157408 0.156939 0.153395 0.152224 0.15181 0.14726 0.138349 0.132385 0.129921 0.127619 0.127353 0.126069 0.126018 0.135 0.256543 0.250216 0.124932 0.123003 0.122677 0.120126 0.11956 0.118687 0.113924 0.11094 0.106426 0.104078 0.102583 0.102185 0.0964888 0.0958069 0.095548 0.0946125 0.0879861 0.0869359 0.0867136 0.0865301 0.0849967 0.0848356 0.084053 0.0823594 0.0867658 0.0711511 0.0709201 0.070248 0.0697303 0.0696009 0.0671943 0.0653991 0.0627552 0.0626439 0.0611465 0.115004 0.0600623 0.0599998 0.0588559 0.0585719 0.0571954 0.0549943 0.053806 0.0923524 0.052783 0.0518784 0.0506289 0.0493479 0.0485981 0.0426923 0.0397745 0.0391019 0.0376332 0.03409 0.0331239 0.0323077 0.0317544 0.0263567 0.0261813 0.0258504 0.0220368 0.0215896 0.0205935 0.0202861 0.0202704 0.0186271 0.018485 0.0173671 0.0170471 0.0152265 0.0141278 0.00869409 0.00844371 0.00632488 0.00581674 0.00504107 0.00458336 0.00265148 0.000374828
threshold=1.0000000180025095e-35 4.5000000000000009 1.0000000180025095e-35 299.50000000000006 1.5000000000000002 -0.8115614912327529 1.0000000180025095e-35 1.0000000180025095e-35 268.50000000000006 0.18941112535659627 1.5000000000000002 0.18941112535659627 1.0000000180025095e-35 1.039956282021937 -0.411401519229532 -0.54745935287262149 292.50000000000006 1.5000000000000002 1.5000000000000002 1.039956282021937 1.0000000180025095e-35 220.50000000000003 307.50000000000006 188.50000000000003 1.5000000000000002 225.50000000000003 -0.8115614912327529 6.5000000000000009 259.50000000000006 -0.54745935287262149 13.500000000000002 1.5000000000000002 1.5000000000000002 -0.8115614912327529 72.500000000000014 45.500000000000007 -0.8115614912327529 256.50000000000006 433.50000000000006 2.5000000000000004 2.5000000000000004 -0.8115614912327529 -0.411401519229532 6.5000000000000009 3.5000000000000004 1.5000000000000002 6.5000000000000009 1.5000000000000002 -0.92380984718569514 263.50000000000006 2.5000000000000004 1.0000000180025095e-35 2.5000000000000004 16.500000000000004 9.5000000000000018 199.50000000000003 2.5000000000000004 2.1946510246663609 5.5000000000000009 0.43873043604406065 0.43873043604406065 -1.0131598561079593 1.7113214997370925 0.43873043604406065 2.5000000000000004 1.7113214997370925 54.500000000000007 1.5000000000000002 2.5000000000000004 173.50000000000003 14.500000000000002 5.5000000000000009 3.5000000000000004 196.50000000000003 1.5000000000000002 1.0000000180025095e-35 1.0000000180025095e-35 148.50000000000003 239.50000000000003 179.50000000000003 -1.0131598561079593 -1.0733517267765327 -0.8115614912327529 1.0000000180025095e-35 407.50000000000006 5.5000000000000009 -0.23534186443431446 14.500000000000002 1.5000000000000002 11.500000000000002 -0.8115614912327529 6.5000000000000009 2.5000000000000004 11.500000000000002 357.50000000000006 433.50000000000006 1.0000000180025095e-35 1.0000000180025095e-35 1.0000000180025095e-35 487.50000000000006 0.43873043604406065 10.500000000000002 1.5000000000000002 5.5000000000000009 2.1946510246663609 1.5000000000000002 6.5000000000000009 -0.8115614912327529 2.5000000000000004 448.50000000000006 2.5000000000000004 5.5000000000000009 -1.0131598561079593 2.5000000000000004 1.0000000180025095e-35 0.43873043604406065 -1.0733517267765327 34.500000000000007 143.50000000000003 202.50000000000003 10.500000000000002 4.5000000000000009 1.5000000000000002 11.29166666666667 163.50000000000003 12.29166666666667 158.50000000000003 8.8750000000000018 5.5000000000000009 -1.0733517267765327 174.50000000000003 13.29166666666667 10.500000000000002 7.5000000000000009 2.5000000000000004 1.5000000000000002 16.500000000000004 1.5000000000000002 12.900000000000002 10.500000000000002 1.5000000000000002 124.50000000000001 1.5530018824139424 0.14645980692288127 0.11229472375554059 1.5000000000000002 17.500000000000004 64.500000000000014 5.5000000000000009 389.50000000000006 9.5000000000000018 12.900000000000002 0.43873043604406065 3.5000000000000004 2.5000000000000004 1.5000000000000002 -0.92380984718569514 5.5000000000000009 -1.0131598561079593 -0.8115614912327529 376.50000000000006 149.50000000000003 5.5000000000000009 271.50000000000006 -0.23534186443431446 2.5000000000000004 1.0000000180025095e-35 11.29166666666667 6.5000000000000009 413.50000000000006 17.125000000000004 2.5000000000000004 1.0000000180025095e-35 1.5000000000000002 119.50000000000001 1.5000000000000002 59.500000000000007 -1.0733517267765327 11.500000000000002 9.5833333333333339 -0.411401519229532 17.583333333333339 2.5000000000000004 10.500000000000002 -1.0733517267765327 2.5000000000000004 487.50000000000006 122.50000000000001 6.5000000000000009 391.50000000000006 24.583333333333339 10.583333333333334 0.43873043604406065 -0.8115614912327529 529.50000000000011 1.5000000000000002 3.5000000000000004 0.068346005894514408 217.50000000000003 13.875000000000002 1.5000000000000002 4.5000000000000009 8.5833333333333339 5.5000000000000009 0.43873043604406065 2.5000000000000004 1.5000000000000002 10.500000000000002 271.50000000000006 0.11229472375554059 1.0000000180025095e-35 375.50000000000006 11.875000000000002 7.7083333333333348 22.833333333333339 0.43873043604406065 3.5000000000000004 12.900000000000002 382.50000000000006 369.50000000000006 207.50000000000003 11.583333333333334 9.5000000000000018 8.5833333333333339 468.50000000000006 2.5000000000000004 11.583333333333334 1.0000000180025095e-35 -0.8115614912327529 340.50000000000006 -0.411401519229532 113.50000000000001 3.5000000000000004 373.50000000000006 125.50000000000001 5.7083333333333348 53.500000000000007 8.1250000000000018 6.5000000000000009 1.0000000180025095e-35 161.50000000000003 268.50000000000006 4662.0000000000009 0.43873043604406065 19.500000000000004 181.50000000000003 367.50000000000006 -1.0733517267765327 6.5833333333333348 14.29166666666667 -0.411401519229532 21.500000000000004 13.500000000000002 15.125000000000002 17.125000000000004 1.5000000000000002 7.5833333333333348 1.5000000000000002 6.5000000000000009 12.900000000000002 11.29166666666667 12.900000000000002 6.5000000000000009 13.41666666666667 248.50000000000003 7118.5000000000009 1.0000000180025095e-35 13.875000000000002 341.50000000000006 -0.65636802231237745 4.5000000000000009 4.5000000000000009 5.5000000000000009 506.50000000000006 3.5000000000000004 125.50000000000001 437.50000000000006 484.50000000000006 1.5000000000000002 186.50000000000003 13.583333333333334 4.5000000000000009 263.50000000000006 3.5000000000000004 9.8750000000000018 65.500000000000014 7.7083333333333348 283.50000000000006 0.43873043604406065 18.833333333333339 -1.1822978817851213 14.708333333333334 1.0000000180025095e-35 15.875000000000002 181.50000000000003 -0.23534186443431446 9.8750000000000018 -0.411401519229532 339.50000000000006 5.5000000000000009 335.50000000000006 175.50000000000003 305.50000000000006 4.5000000000000009 1.5000000000000002 352.50000000000006 164.50000000000003 1.7113214997370925 3.5000000000000004 283.50000000000006 10.583333333333334 16.583333333333339 1.0000000180025095e-35 2.5000000000000004 12.900000000000002 -0.3123342647813962 17.416666666666668 4.5000000000000009 0.43873043604406065 17.833333333333339 -1.0733517267765327 14.583333333333334 1.5000000000000002 -1.1822978817851213 1.5000000000000002 -1.0733517267765327 4.5000000000000009 6.5000000000000009 2.5000000000000004 3.5000000000000004 484.50000000000006 18.583333333333339 343.50000000000006 12.583333333333334 9.5000000000000018 1.039956282021937 345.50000000000006 9.5833333333333339 475.50000000000006 139.50000000000003 4.5000000000000009 428.50000000000006 24.833333333333339 14.29166666666667 11.29166666666667 577.50000000000011 12.29166666666667 149.50000000000003 143.50000000000003 17.125000000000004 418.50000000000006
decision_type=2 2 2 2 2 2 2 2 2 2 2 2 2 2 2 2 2 2 2 2 2 2 2 2 2 2 2 2 2 2 2 2 2 2 2 2 2 2 2 2 2 2 2 2 2 2 2 2 2 2 2 2 2 2 2 2 2 2 2 2 2 2 2 2 2 2 2 2 2 2 2 2 2 2 2 2 2 2 2 2 2 2 2 2 2 2 2 2 2 2 2 2 2 2 2 2 2 2 2 2 2 2 2 2 2 2 2 2 2 2 2 2 2 2 2 2 2 2 2 2 2 2 2 2 2 2 2 2 2 2 2 2 2 2 2 2 2 2 2 2 2 2 2 2 2 2 2 2 2 2 2 2 2 2 2 2 2 2 2 2 2 2 2 2 2 2 2 2 2 2 2 2 2 2 2 2 2 2 2 2 2 2 2 2 2 2 2 2 2 2 2 2 2 2 2 2 2 2 2 2 2 2 2 2 2 2 2 2 2 2 2 2 2 2 2 2 2 2 2 2 2 2 2 2 2 2 2 2 2 2 2 2 2 2 2 2 2 2 2 2 2 2 2 2 2 2 2 2 2 2 2 2 2 2 2 2 2 2 2 2 2 2 2 2 2 2 2 2 2 2 2 2 2 2 2 2 2 2 2 2 2 2 2 2 2 2 2 2 2 2 2 2 2 2 2 2 2 2 2 2 2 2 2 2 2 2 2 2 2 2 2 2 2 2 2 2 2 2 2 2 2 2 2 2 2 2 2 2 2 2 2 2 2 2 2 2 2 2 2 2 2 2 2 2 2 2 2 2 2 2 2
left_child=1 7 5 9 13 18 19 8 15 12 22 37 14 28 34 45 36 29 25 31 23 56 27 57 63 43 64 145 44 74 35 42 154 52 61 85 156 146 62 51 181 102 162 81 152 75 50 94 113 342 73 134 182 143 110 101 -12 58 118 68 111 334 -13 159 128 93 150 79 99 82 95 197 -42 112 -10 -1 168 -69 -52 132 -77 139 122 -68 185 114 -87 105 117 135 136 233 144 115 -31 -15 137 133 127 191 141 -37 167 238 121 -63 193 -89 215 -106 201 124 216 211 -16 178 221 255 172 148 306 266 -36 222 223 186 -104 -99 158 290 -90 -39 147 164 318 203 -47 264 -100 308 -84 -56 -49 199 149 234 -6 -43 -22 212 -60 248 -4 300 302 -138 171 217 -26 -8 219 -92 -5 -117 -32 226 324 294 241 170 -118 231 -11 -82 175 244 280 -178 -25 -101 285 224 -34 -125 -105 272 189 254 260 -123 235 -28 -121 -33 286 196 -71 246 206 -46 -57 -53 -114 -45 -120 263 -158 -168 249 282 262 -19 -35 -141 -204 -86 247 277 -93 298 236 -75 245 -41 -23 -177 -128 344 -156 -230 -151 257 -153 -30 250 -131 -182 -190 -27 -112 275 -29 -215 -73 -83 -59 -44 -20 -66 -81 -7 -252 -185 -236 283 297 -108 -9 -205 281 -111 -212 -130 -51 -67 -135 -21 268 -159 271 -271 -270 -50 -188 -223 -113 -160 295 -233 -102 -137 -65 293 -147 -242 -119 -195 -79 -146 -234 332 -269 -199 -132 326 296 -24 -38 -161 -136 -54 -169 -18 -210 -162 -219 337 -308 323 -167 -222 -292 -170 -256 315 -189 329 -229 -17 -207 -240 -299 -91 -2 -98 -265 -14 -306 -287 -176 -258 -293 -80 340 -3 -40 -250 -62 -70 -208 -257 -302 -48 -94 -186 -279 -284 -255 -318 -310 -245
right_child=2 3 4 6 11 10 24 16 17 20 21 38 41 70 30 39 32 48 46 104 119 40 157 65 26 103 59 76 91 47 97 106 33 92 69 55 88 131 335 60 72 67 71 89 53 90 49 142 84 205 78 54 153 -55 100 200 -58 123 66 -61 120 87 -64 259 151 96 83 77 338 195 -72 243 -74 116 -76 80 -78 287 129 208 173 174 140 -85 108 86 -88 107 130 322 161 218 343 -95 -96 -97 166 98 138 179 279 -103 126 184 109 -107 256 -109 -110 188 239 240 202 -115 -116 163 169 180 204 192 -122 125 -124 183 -126 -127 165 -129 210 190 209 -133 -134 265 299 176 155 -139 -140 213 -142 -143 -144 -145 288 187 -148 -149 -150 230 -152 232 -154 -155 228 -157 198 267 276 160 304 -163 -164 -165 -166 309 207 301 312 -171 -172 -173 -174 -175 316 225 177 -179 -180 -181 220 -183 -184 252 227 -187 273 314 237 -191 -192 -193 -194 194 -196 -197 -198 292 -200 -201 -202 -203 214 258 -206 319 339 -209 303 -211 261 -213 -214 242 -216 -217 -218 305 -220 -221 310 274 -224 -225 -226 -227 -228 317 229 -231 -232 278 289 -235 253 -237 -238 -239 320 -241 284 -243 -244 350 -246 -247 -248 -249 336 -251 251 -253 -254 347 313 333 330 -259 -260 -261 -262 -263 -264 325 -266 -267 -268 291 269 270 -272 -273 -274 -275 -276 -277 -278 345 -280 -281 -282 -283 346 -285 -286 328 -288 -289 -290 -291 311 331 -294 -295 -296 -297 -298 321 -300 -301 341 -303 -304 -305 327 -307 307 -309 349 -311 -312 -313 -314 -315 -316 -317 348 -319 -320 -321 -322 -323 -324 -325 -326 -327 -328 -329 -330 -331 -332 -333 -334 -335 -336 -337 -338 -339 -340 -341 -342 -343 -344 -345 -346 -347 -348 -349 -350 -351 -352
leaf_value=11.371109090305366 11.556856799621045 11.489949597799665 11.63860329014836 11.354926917736041 11.82691535659645 11.60625512537051 11.443683001781729 11.504044553441334 11.298275773778363 11.581195575126225 11.783716269511476 11.941016765528154 11.577158575099538 11.808007258407125 11.52349384625288 11.407476142778576 11.500747947783811 11.422636866506629 11.584219911037062 11.415701367976158 11.668747207286339 11.701016105989828 11.605313537296778 11.495776457898597 11.459959450098058 11.458897136100591 11.607490525997388 11.689078809531482 11.575454468987918 11.379669707885025 11.609103393862659 11.438759117110806 11.420031372258288 11.569455786917768 11.478753270792222 11.53665396750162 11.577150883915566 11.749459273803685 11.676046653576506 11.533010346853851 11.751229628684236 11.63861321269232 11.414354216136235 11.613871355655048 11.73547933315977 11.467895327669344 11.710990948144923 11.396614840426919 11.488867366611856 11.618394213456147 11.713948802311187 11.558348122229203 11.539057549387133 11.835791688249129 11.479021032364454 11.49538950028237 11.855005513806887 11.663342958227966 11.631250219485031 11.691155102189349 11.589652039164962 11.531966123721487 12.022316172870603 11.567630439366564 11.564365817745161 11.614031482356367 11.64734287233316 11.760812034173716 11.657951191854192 11.453351314081996 11.865964587187049 11.445807844726037 11.875494903560208 11.581235165876254 11.338740170166107 11.388512264222248 11.772714415895299 11.658661813529166 11.563027716405584 11.592551901496099 11.432023511059207 11.56998643505772 11.516010791852736 11.60310284623133 11.419314264938674 11.623758996686972 11.577315562727932 11.500622671202372 11.677482250574995 11.621602379844742 11.491434960641213 11.667525844097693 11.643110812470727 11.648172695185742 11.321443287717338 11.696315060091091 11.593679338291484 11.680890079892619 11.608235282610391 11.572274475549115 11.53332674768555 11.562611413137926 11.651005913876327 11.503323423518911 11.631887994731274 11.566489126979778 11.580082043498942 11.538909136387987 11.552823676007325 11.584248951672455 11.50083865248631 11.553819963076622 11.58975816972815 11.494616512057579 11.567977842489061 11.557409050047179 11.609109961334049 11.55563704934589 11.524264658838263 11.581598036842617 11.691625171900212 11.539962874081734 11.588324777820361 11.659405537224474 11.447830879047233 11.613626340147739 11.580811702005617 11.605360422585813 11.510454186762267 11.586809724971634 11.606567116379651 11.622893873422017 11.658295667756581 11.508131378168041 11.452234075285544 11.64518310490217 11.416104785696888 11.694219430781457 11.542470049917483 11.560726312722425 11.610547449602256 11.442348389579919 11.513843079089618 11.767090936742676 11.571324707766575 11.664630952166783 11.907806177447481 11.59777839447278 11.72933711029375 11.481640026901276 11.667424306315352 11.521576698454973 11.699609105786696 11.593162338305424 11.413079654336718 11.522576464310713 11.529920949716626 11.620504589425504 11.525537947712348 11.54187543217099 11.522454582834071 11.446674753470752 11.395645399718864 11.502206255324836 11.554289432650563 11.610287341407375 11.545585275952403 11.531041651972217 11.628091702351446 11.528861844648411 11.566785168537205 11.571358045609461 11.615910229567692 11.540295071285492 11.567993205571408 11.619755911516974 11.552027121686191 11.60794873956632 11.569880442888509 11.520928888432927 11.533994626993895 11.634985613387881 11.453482865850219 11.60029965909785 11.556276972423165 11.564508818084471 11.580431990166703 11.599560766554596 11.553619389780096 11.472974605801744 11.570918381915625 11.580625860011207 11.659514242087134 11.547165902900041 11.456166883225674 11.539560617953335 11.4837795855377 11.407841757837136 11.507811759068037 11.679460055916689 11.560854956153991 11.61442351516278 11.66848254590607 11.518410105551729 11.567326034368525 11.646026304791308 11.602487089003347 11.584568630763819 11.526437421703967 11.648785835700396 11.589485525020182 11.358155258073802 11.537558478984465 11.553835911315177 11.59109119642957 11.524900097941904 11.632680425951941 11.554588591574303 11.619844989263806 11.581522832934128 11.559077189369161 11.516400440449347 11.700947966628165 11.49821907807158 11.640064115677296 11.583637509575349 11.538205395792769 11.569427741346066 11.518625743404884 11.452212655964566 11.528515606124873 11.454102845547375 11.571852037398642 11.512767255925777 11.604519140765438 11.66297779647339 11.584993008970294 11.487260364492773 11.477300193191589 11.553414912387874 11.513425471864119 11.622749532519078 11.49594910472182 11.540777181940349 11.539401005172635 11.603713512020736 11.370578997361743 11.607875309331611 11.581782976959042 11.551974590551106 11.658522750650716 11.610680092784706 11.644611127861332 11.563800354081469 11.573880118027427 11.556545726449601 11.553195403800158 11.549820434675244 11.563057286924238 11.549784653080849 11.534333110280885 11.544317759656566 11.557410717254632 11.574371130686474 11.562691252766459 11.560553812200306 11.508438805763429 11.540026410376871 11.591838664274089 11.575856984705457 11.625435365127842 11.520969710075416 11.548363142421504 11.532783157451236 11.547648682965969 11.593848718055757 11.483681489339151 11.538343204610086 11.493136626763 11.493442267068639 11.605501183396258 11.614237367126188 11.564784575352968 11.631017784439345 11.561621091697244 11.51027256357883 11.504213794878703 11.609768725843471 11.615737139239563 11.545285961690169 11.6166762854937 11.585133260856395 11.454474711359417 11.56650437693215 11.536062454251301 11.553108624164739 11.5608791482329 11.625715040262396 11.505572347234887 11.518011328197055 11.504007926273315 11.488919513921566 11.386988561645047 11.563001904273687 11.471567094385239 11.510403697288242 11.533348431865557 11.577354838753037 11.536632417569317 11.57145459890701 11.520025700524572 11.576215267061283 11.721925076864126 11.618207401524479 11.619716497851449 11.555579633914382 11.54888723594345 11.611128071061167 11.471037919908952 11.600027736685691 11.517312547960151 11.580454423249165 11.661230898020396 11.577446419662776 11.630584134401673 11.597023572005348 11.557331009322281 11.522014750233089 11.547631508323004 11.545722135183137 11.521060503459474 11.560710044561219 11.58265933550148 11.584801511439059 11.533423909159922 11.801163191102049 11.619572593802609 11.566863842830349 11.608856700054565 11.571597063613797 11.574569792219389 11.540969872254729 11.619752156783232 11.593441402198929 11.535057137728652 11.556763246204573 11.575760235788026 11.552904860838593 11.519842929023879 11.553677623774776 11.501316995968818
leaf_count=524 36 196 86 636 232 102 68 47 963 115 515 535 12 950 108 254 8 70 112 20 76 291 11 75 79 102 142 615 10 207 58 64 224 57 343 1092 12 115 17 52 234 122 157 9 362 94 220 482 94 50 72 48 25 112 189 337 252 266 151 56 14 230 312 11 13 23 171 37 84 270 236 274 41 14 661 395 71 72 14 68 360 68 546 510 132 138 787 174 26 37 118 67 15 15 406 38 30 75 260 36 49 407 22 13 17 431 12 381 12 15 77 32 15 19 246 272 104 12 28 13 8 20 10 41 57 9 22 46 41 9 41 15 149 20 165 50 507 26 24 12 8 324 13 319 14 167 124 128 188 27 281 19 58 12 74 12 13 16 59 22 17 117 219 21 35 28 49 23 11 13 60 9 117 8 9 38 28 69 12 54 8 38 263 86 8 11 8 13 10 44 8 147 47 13 55 12 172 114 20 66 11 14 77 8 66 71 9 46 11 10 12 176 99 10 12 8 34 8 54 8 9 34 68 143 33 87 47 9 20 67 50 40 42 10 17 110 52 20 19 13 16 20 96 9 35 17 224 84 10 14 33 47 16 8 9 11 10 17 51 8 9 18 12 27 9 9 12 8 9 52 17 8 8 13 44 9 17 10 114 16 38 18 12 70 8 36 61 24 11 21 19 12 81 10 17 10 9 29 24 12 55 24 194 11 140 18 9 14 11 10 12 12 203 14 25 8 8 8 29 17 43 9 94 13 13 22 30 14 9 12 8 8 14 10 11 27 27 10 17 8 8 10 9 11 8 8 27 8 11 10 8
internal_value=0 -0.189344 0.46379 -0.0519467 0.722557 0.283005 -0.273398 -0.400141 -0.454313 0.0218124 0.414436 0.962259 -0.0366486 0.581367 -0.0616501 -0.342747 -0.196323 -0.580009 0.110254 -0.413852 0.171618 0.57056 0.279808 0.144053 -0.0292739 0.00406045 0.0323716 0.315245 0.462322 -0.616408 -0.00636455 -0.442376 -0.274096 -0.21311 -0.134045 -0.0286529 -0.0402874 0.721892 1.08842 -0.246531 0.449979 0.147389 -0.469062 0.0565053 0.498943 -0.412371 0.1972 -0.532935 -0.388221 0.295028 0.148445 -0.284748 -0.299422 0.533148 -0.23213 -0.0743384 0.667 0.185512 0.158767 0.124215 -0.122035 -0.0765103 1.1122 -0.196403 -0.10055 0.00801365 0.185899 0.201969 0.0945984 -0.193679 0.690206 -0.400801 0.575793 0.0970023 -0.671476 -0.45743 0.381398 0.336625 0.264382 0.163283 -0.413304 -0.0254587 -0.158792 0.141912 -0.277282 0.0373537 0.0601855 -0.0562108 0.064272 0.152883 -0.341614 0.193333 -0.0319342 -0.0432269 -0.602724 0.654789 0.109738 0.124829 0.153743 0.0521293 -0.27212 -0.050335 -0.00149181 -0.20201 -0.128097 -0.0215202 -0.23031 -0.096941 -0.348756 -0.0152988 -0.0760807 -0.161175 0.152874 -0.49169 -0.022308 -0.0570905 0.0260408 0.00947473 0.0646687 0.380685 0.097967 -0.188521 -0.216606 0.260953 -0.192307 -0.123371 0.0683653 0.251063 -0.168468 0.198355 0.154519 0.474463 0.195612 0.0264718 -0.364722 0.10144 -0.371484 0.238824 0.108507 -0.103109 -0.120281 -0.29044 -0.441144 0.4973 -0.0570547 0.195815 0.804116 0.152956 0.411017 -0.0748526 0.252725 0.0236359 0.283429 -0.101006 -0.415682 -0.389791 -0.168566 0.027863 -0.214746 -0.230992 -0.197234 -0.257339 -0.535439 -0.0265565 0.0725863 0.0236064 0.0487749 -0.0857451 0.362341 0.0711938 0.0863966 -0.190093 0.100603 -0.346825 0.029931 0.04747 0.13491 0.0805986 -0.152612 -0.057855 -0.0437321 0.347603 -0.339471 0.176966 -0.0404637 -0.17002 -0.157548 0.229003 -0.090287 -0.193732 0.246728 0.0868035 0.225075 -0.260026 -0.211774 -0.260787 -0.265418 -0.444989 -0.0621065 0.449046 -0.175466 0.0317974 0.242182 0.00724368 -0.0246263 0.163916 0.00801492 0.00632214 0.0358305 0.100321 -0.074466 -0.511246 -0.0357497 -0.150808 0.264806 -0.374535 0.108026 -0.0412387 0.235814 -0.0894218 0.00472015 -0.0599728 0.292084 -0.150892 0.36193 0.09244 -0.0274428 0.0216803 -0.339506 -0.265389 -0.146785 -0.199325 -0.0303769 -0.0592329 0.144284 0.260129 0.0383359 -0.155428 -0.244677 -0.148096 -0.0351531 0.338574 -0.166411 -0.307061 -0.00890637 0.265768 -0.475686 0.0891923 0.106772 0.0625234 0.157673 0.196848 0.131466 0.058991 0.245026 0.0994035 -0.0289219 -0.129659 -0.022554 0.0721776 0.00424514 0.00383902 -0.115207 0.115002 0.106515 -0.109919 -0.33589 0.0672844 0.0829078 0.0608485 0.0793777 -0.0152522 -0.18839 -0.0306507 -0.0819052 0.00773326 -0.136713 0.00495669 -0.22309 -0.116718 0.186927 0.102169 0.073507 0.25446 -0.0968188 -0.107258 -0.140695 0.235848 0.0931002 0.000196735 0.0826587 0.00624745 -0.374213 0.101531 -0.0211131 0.041163 0.0725516 0.131465 -0.116834 -0.289325 -0.128835 -0.156667 -0.466353 -0.0565319 -0.227629 -0.113203 0.024533 -0.0116129 -0.0178152 0.108495 -0.0798097 0.11624 0.423161 0.118777 0.122724 0.0607858 -0.0639659 0.0909306 -0.405807 0.209445 -0.170025 0.151951 0.244562 0.00254962 0.131736 0.0665638 0.0046011 -0.236905 -0.126697 -0.0209918 -0.0796242 0.0398379 0.0330503 0.0324969 -0.191453 0.561547 0.137207 0.0551378 0.243599 0.0845543 0.00762684 -0.147666 0.396074 0.185268 -0.0560653 -0.0510122 0.029192 -0.013181 -0.0966819 -0.0564844 -0.135321
internal_count=31470 22349 9121 13534 3745 5376 3378 8815 6959 10156 3049 1377 7308 2368 6437 3697 1856 3262 2327 2142 2848 1404 1645 2524 1236 1050 906 1441 1144 2732 3653 1945 1236 873 2784 3126 620 486 891 1562 637 871 1722 840 1003 2135 1277 1108 530 416 861 1190 589 859 730 1847 767 1933 1439 536 372 1423 847 330 370 591 1113 636 480 1361 1224 867 275 603 1624 1287 920 133 258 503 763 456 907 681 265 1279 925 1216 343 384 848 141 284 395 613 988 196 527 405 379 578 1499 235 210 197 661 223 555 152 71 152 317 334 265 354 380 269 217 326 324 55 126 353 494 252 94 129 121 238 186 126 130 399 122 460 253 613 58 284 188 554 513 495 747 258 521 356 250 264 233 432 132 144 102 363 519 277 204 155 293 225 235 855 293 93 107 138 106 849 177 164 227 232 368 268 228 185 97 87 90 138 362 487 143 46 113 85 306 54 64 127 289 60 193 129 454 442 576 50 428 348 62 104 68 94 187 30 95 104 100 83 246 156 118 89 140 230 74 121 54 81 92 351 195 324 125 69 33 161 87 77 218 82 20 215 119 60 30 164 90 65 635 106 291 103 283 381 196 50 82 182 80 102 33 260 79 30 64 59 37 24 30 53 99 32 29 32 130 102 86 69 17 102 21 78 41 76 48 154 65 88 29 90 237 24 57 74 96 25 63 59 28 195 51 59 30 20 50 46 177 90 47 202 22 171 26 47 23 70 38 21 31 214 23 46 21 40 17 283 88 62 38 131 49 43 49 42 154 45 21 18 20 28 29 207 44 37 24 101 17 19 65 229 26 16 18 39 16 19 21 17
shrinkage=1


Tree=1
num_leaves=401
num_cat=0
split_feature=6 3 16 0 5 7 16 7 0 16 5 16 7 16 16 0 5 16 5 7 5 16 0 0 4 0 5 0 16 5 16 4 2 3 5 16 5 2 0 16 0 5 16 4 0 0 16 4 0 4 5 16 16 4 16 16 4 0 2 11 8 16 8 4 16 16 5 5 0 4 5 5 8 0 16 4 5 14 0 4 16 0 0 5 12 0 5 14 0 16 9 16 4 13 5 11 16 3 12 5 8 8 0 5 4 2 0 0 4 4 0 4 8 5 16 0 4 0 0 0 16 4 0 0 16 11 0 12 0 16 4 0 5 4 9 12 9 0 0 0 0 16 5 16 4 0 0 16 0 11 4 11 0 16 11 4 11 5 0 0 0 3 12 8 11 11 16 0 3 0 3 16 4 0 11 12 4 16 0 0 11 11 4 11 16 2 16 14 11 4 11 11 16 16 12 0 16 14 0 11 16 16 5 16 11 11 3 12 0 0 5 4 16 4 0 2 0 12 11 0 8 0 12 5 0 0 11 16 4 16 12 0 8 4 12 4 5 16 12 2 16 5 0 0 3 4 0 2 11 0 11 12 0 16 16 12 11 0 0 12 2 4 16 2 4 12 2 12 4 16 12 11 11 16 3 4 4 12 16 2 12 11 0 4 11 4 16 12 0 4 16 11 0 12 16 0 4 3 16 0 0 0 16 4 16 17 11 12 16 0 16 2 4 4 4 16 4 16 0 2 2 0 4 0 0 0 3 16 16 0 12 3 12 4 12 8 0 2 0 0 4 0 12 16 12 4 12 11 14 0 0 0 0 2 0 0 12 0 12 0 0 12 3 0 0 2 0 0 4 2 12 9 12 2 11 16 11 16 16 12 17 12 0 11 12 12 0 0 16 17 11 0 11 16 16 0 11 11 16 11
split_gain=1126.61 262.926 171.411 92.3025 50.8222 50.463 49.4497 38.6648 40.893 37.9367 25.4082 14.6582 13.1171 11.4305 11.1771 9.51117 9.21196 8.85306 8.85259 8.24196 7.67021 6.41331 6.04874 6.0166 5.61924 5.59008 5.48065 5.0867 4.97371 4.76813 6.09535 4.70678 4.37715 4.27403 4.25385 4.22278 4.15374 3.78086 3.65482 3.61562 3.57486 3.50227 3.38115 3.34882 3.1707 3.11487 3.10601 3.06329 2.87896 2.85199 2.4826 2.42488 2.28772 2.27903 2.1549 2.14209 2.11255 2.07236 2.07175 1.99718 1.86344 1.86318 1.84669 1.83077 1.78672 1.77781 1.76964 1.76884 1.72476 1.68911 1.52198 1.47722 1.46018 1.45584 1.44552 1.43763 1.39129 1.38504 1.31784 1.30655 1.29839 1.24193 1.1719 1.16891 1.16745 1.15242 1.15008 1.13883 1.11686 1.06174 1.01948 1.01291 0.948999 0.929608 0.894651 0.890357 0.879161 0.866112 0.865358 0.864128 0.856952 0.851571 0.811401 0.797532 0.7953 0.784506 0.782677 0.782074 0.771242 0.768685 0.768522 0.760951 0.796787 0.739207 0.735425 0.73397 0.733691 0.723215 0.691198 0.689088 0.68889 0.685953 0.684413 0.678223 0.673556 0.671931 0.642623 0.633296 0.627485 0.619153 0.619094 0.595959 0.584576 0.580781 0.599832 0.564364 0.563695 0.547399 0.53535 0.526372 0.521349 0.521121 0.520408 0.518874 0.515336 0.511044 0.510653 0.50541 0.497853 0.494927 0.494805 0.490709 0.490223 0.489325 0.519386 0.488659 0.488583 0.483506 0.472262 0.467033 0.464373 0.439427 0.430118 0.417767 0.415015 0.410328 0.405155 0.404962 0.403536 0.402409 0.398616 0.394591 0.389941 0.388615 0.386975 0.38435 0.383685 0.378888 0.360178 0.358918 0.437613 0.358573 0.355178 0.431605 0.353027 0.351598 0.3466 0.345274 0.343061 0.338873 0.428656 0.338869 0.335863 0.334015 0.326896 0.315449 0.312681 0.311519 0.309426 0.307856 0.307177 0.302663 0.300158 0.297877 0.297548 0.296445 0.291635 0.282122 0.280193 0.275441 0.275054 0.274841 0.274662 0.273719 0.269023 0.264661 0.261597 0.261141 0.255892 0.243668 0.237437 0.235937 0.235528 0.234096 0.233949 0.23165 0.230609 0.22716 0.304234 0.224305 0.224262 0.223836 0.218268 0.216148 0.214523 0.2133 0.214949 0.213208 0.211822 0.207583 0.23312 0.207005 0.217865 0.216547 0.195316 0.193413 0.222952 0.189177 0.187973 0.181503 0.181048 0.178079 0.17529 0.175119 0.174651 0.174213 0.174194 0.169859 0.169338 0.167866 0.164822 0.164294 0.162414 0.16138 0.160967 0.159755 0.159737 0.158954 0.157701 0.157175 0.156894 0.153204 0.152869 0.150969 0.1494 0.147031 0.143246 0.143098 0.142659 0.141086 0.140125 0.13972 0.138686 0.13727 0.136782 0.136527 0.136086 0.129932 0.128297 0.121969 0.12059 0.119983 0.119851 0.119826 0.152848 0.116092 0.114971 0.114338 0.11414 0.112658 0.112378 0.107924 0.104936 0.332485 0.101251 0.101018 0.0967016 0.115211 0.0942347 0.0937113 0.0921772 0.0910429 0.0865492 0.0865478 0.0860102 0.162913 0.0859545 0.0847859 0.0833807 0.0832724 0.0902182 0.0827215 0.0820827 0.0806736 0.0801112 0.0789509 0.0731964 0.0727398 0.0727385 0.0713111 0.0707336 0.0704494 0.0674832 0.0663019 0.0655695 0.0625241 0.0610922 0.0605337 0.0600129 0.0593133 0.0588711 0.0582154 0.0575369 0.0574281 0.0547269 0.0495939 0.0495574 0.0494208 0.0484417 0.0468384 0.0463593 0.0461199 0.044553 0.0429194 0.0409895 0.0392971 0.0384975 0.0378723 0.0378547 0.0374606 0.0360863 0.0344858 0.0341224 0.0340462 0.0278898 0.02571 0.0250254 0.0491559 0.0238351 0.0234522 0.0417618 0.0233617 0.0221648 0.0199068 0.0173959 0.0172722 0.0145045 0.0137776 0.0132657 0.0130605 0.0129379 0.0127431 0.0122817 0.012187 0.0119658 0.0107086 0.010022 0.0094897 0.00941809 0.00808559 0.00609558 0.00526333 0.00358476 0.00309436 0.00283578 0.0027985 0.0020045 0.0271998 0.00109768 0.000258398
threshold=1.0000000180025095e-35 4.5000000000000009 1.0000000180025095e-35 283.50000000000006 1.5000000000000002 1.0000000180025095e-35 -0.8115614912327529 1.0000000180025095e-35 307.50000000000006 0.14645980692288127 1.5000000000000002 0.18941112535659627 1.0000000180025095e-35 -0.8115614912327529 1.039956282021937 283.50000000000006 1.5000000000000002 -0.411401519229532 1.5000000000000002 1.0000000180025095e-35 2.5000000000000004 1.039956282021937 322.50000000000006 164.50000000000003 13.500000000000002 220.50000000000003 1.5000000000000002 293.50000000000006 -0.8115614912327529 1.5000000000000002 -0.8115614912327529 15.500000000000002 11.500000000000002 6.5000000000000009 1.5000000000000002 -0.8115614912327529 3.5000000000000004 2.5000000000000004 156.50000000000003 -0.8115614912327529 375.50000000000006 3.5000000000000004 -0.8115614912327529 4.5000000000000009 7.5000000000000009 45.500000000000007 1.039956282021937 2.5000000000000004 207.50000000000003 5.5000000000000009 1.5000000000000002 2.1946510246663609 -0.8115614912327529 11.500000000000002 -0.8115614912327529 -0.8115614912327529 13.500000000000002 217.50000000000003 6.5000000000000009 9.5000000000000018 1.0000000180025095e-35 1.5530018824139424 1.0000000180025095e-35 5.5000000000000009 0.11229472375554059 0.14645980692288127 2.5000000000000004 2.5000000000000004 407.50000000000006 4.5000000000000009 1.5000000000000002 1.5000000000000002 1.0000000180025095e-35 310.50000000000006 0.18941112535659627 12.500000000000002 2.5000000000000004 1.0000000180025095e-35 192.50000000000003 2.5000000000000004 -1.0131598561079593 32.500000000000007 161.50000000000003 2.5000000000000004 12.583333333333334 269.50000000000006 2.5000000000000004 1.5000000000000002 186.50000000000003 -0.3123342647813962 1.0000000180025095e-35 -1.0733517267765327 20.500000000000004 1.0000000180025095e-35 1.5000000000000002 3.5000000000000004 -0.19109970431896869 6.5000000000000009 8.8750000000000018 1.5000000000000002 1.0000000180025095e-35 1.0000000180025095e-35 522.50000000000011 2.5000000000000004 9.5000000000000018 3.5000000000000004 421.50000000000006 49.500000000000007 11.500000000000002 4.5000000000000009 457.50000000000006 4.5000000000000009 1.0000000180025095e-35 1.5000000000000002 1.039956282021937 209.50000000000003 11.500000000000002 17.500000000000004 424.50000000000006 172.50000000000003 0.14645980692288127 21.500000000000004 196.50000000000003 331.50000000000006 0.43873043604406065 10.500000000000002 487.50000000000006 8.1250000000000018 207.50000000000003 -0.8115614912327529 21.500000000000004 1.0000000180025095e-35 2.5000000000000004 6.5000000000000009 1.0000000180025095e-35 12.29166666666667 1.0000000180025095e-35 3.5000000000000004 412.50000000000006 138.50000000000003 228.50000000000003 -0.8115614912327529 2.5000000000000004 0.18941112535659627 3.5000000000000004 1.0000000180025095e-35 34.500000000000007 2.1946510246663609 351.50000000000006 13.500000000000002 4.5000000000000009 5.5000000000000009 49.500000000000007 -0.23534186443431446 10.500000000000002 10.500000000000002 11.500000000000002 2.5000000000000004 186.50000000000003 1.0000000180025095e-35 354.50000000000006 6.5000000000000009 7.7083333333333348 1.0000000180025095e-35 6.5000000000000009 5.5000000000000009 1.039956282021937 113.50000000000001 1.5000000000000002 30.500000000000004 5.5000000000000009 -1.0733517267765327 2.5000000000000004 322.50000000000006 14.500000000000002 17.125000000000004 2.5000000000000004 0.43873043604406065 202.50000000000003 1.5000000000000002 14.500000000000002 10.500000000000002 5.5000000000000009 2.5000000000000004 -0.411401519229532 2.5000000000000004 -0.92380984718569514 1.5000000000000002 1.5000000000000002 3.5000000000000004 8.5000000000000018 5.5000000000000009 1.039956282021937 -1.0733517267765327 7.5833333333333348 228.50000000000003 -0.3123342647813962 1.5000000000000002 475.50000000000006 2.5000000000000004 0.11229472375554059 -1.0131598561079593 3.5000000000000004 0.11229472375554059 8.5000000000000018 13.500000000000002 1.5000000000000002 10.41666666666667 452.50000000000006 1.0000000180025095e-35 2.5000000000000004 5.5000000000000009 0.43873043604406065 4.5000000000000009 319.50000000000006 4.5000000000000009 45.500000000000007 12.29166666666667 1.5000000000000002 222.50000000000003 1.0000000180025095e-35 314.50000000000006 22.166666666666668 2.5000000000000004 440.50000000000006 160.50000000000003 20.500000000000004 -1.0131598561079593 5.5000000000000009 0.14645980692288127 20.583333333333339 391.50000000000006 1.0000000180025095e-35 8.5000000000000018 3.8333333333333335 21.500000000000004 2.5000000000000004 0.18941112535659627 16.875000000000004 5.5000000000000009 -1.0131598561079593 1.5000000000000002 132.50000000000003 94.500000000000014 1.5000000000000002 4.5000000000000009 213.50000000000003 8.5000000000000018 1.5000000000000002 363.50000000000006 16.500000000000004 9.2916666666666696 475.50000000000006 0.068346005894514408 -1.0733517267765327 8.1250000000000018 8.5000000000000018 251.50000000000003 345.50000000000006 8.1250000000000018 2.5000000000000004 5.5000000000000009 0.18941112535659627 1.5000000000000002 4.5000000000000009 9.8750000000000018 3.5000000000000004 11.583333333333334 7.5000000000000009 1.0000000180025095e-35 9.5833333333333339 11.500000000000002 5.5000000000000009 0.43873043604406065 3.5000000000000004 2.5000000000000004 4.5000000000000009 14.29166666666667 0.11229472375554059 2.5000000000000004 15.125000000000002 2.5000000000000004 29.500000000000004 3.5000000000000004 4.5000000000000009 8.5000000000000018 -1.1822978817851213 11.583333333333334 357.50000000000006 2.5000000000000004 0.11229472375554059 3.5000000000000004 376.50000000000006 13.875000000000002 -0.23534186443431446 1.5000000000000002 3.5000000000000004 3.5000000000000004 -0.3123342647813962 437.50000000000006 21.500000000000004 373.50000000000006 -1.0733517267765327 2.5000000000000004 -1.0131598561079593 13820.000000000002 6.5000000000000009 10.875000000000002 -0.3123342647813962 529.50000000000011 0.18941112535659627 3.5000000000000004 8.5000000000000018 6.5000000000000009 3.5000000000000004 0.43873043604406065 3.5000000000000004 -1.1822978817851213 349.50000000000006 3.5000000000000004 4.5000000000000009 335.50000000000006 4.5000000000000009 7.5000000000000009 19.500000000000004 354.50000000000006 1.5000000000000002 -0.54745935287262149 -0.54745935287262149 484.50000000000006 14.708333333333334 1.5000000000000002 7.7083333333333348 6.5000000000000009 14.29166666666667 1.0000000180025095e-35 577.50000000000011 3.5000000000000004 570.50000000000011 167.50000000000003 5.5000000000000009 405.50000000000006 15.875000000000002 -0.23534186443431446 13.29166666666667 3.5000000000000004 18.583333333333339 5.5000000000000009 1.5000000000000002 444.50000000000006 418.50000000000006 340.50000000000006 337.50000000000006 3.5000000000000004 16.500000000000004 319.50000000000006 9.5833333333333339 94.500000000000014 12.900000000000002 248.50000000000003 491.50000000000006 15.583333333333334 6.5000000000000009 510.50000000000006 213.50000000000003 5.5000000000000009 263.50000000000006 243.50000000000003 10.500000000000002 2.5000000000000004 13.583333333333334 1.0000000180025095e-35 16.583333333333339 3.5000000000000004 8.5000000000000018 0.18941112535659627 7.5000000000000009 -1.0131598561079593 -0.411401519229532 20.166666666666668 6136.0000000000009 18.583333333333339 268.50000000000006 5.5000000000000009 12.583333333333334 8.1250000000000018 4.5000000000000009 6.5000000000000009 -0.3123342647813962 13820.000000000002 3.5000000000000004 529.50000000000011 5.5000000000000009 -0.3123342647813962 -0.92380984718569514 269.50000000000006 11.500000000000002 5.5000000000000009 -0.19109970431896869 12.500000000000002
decision_type=2 2 2 2 2 2 2 2 2 2 2 2 2 2 2 2 2 2 2 2 2 2 2 2 2 2 2 2 2 2 2 2 2 2 2 2 2 2 2 2 2 2 2 2 2 2 2 2 2 2 2 2 2 2 2 2 2 2 2 2 2 2 2 2 2 2 2 2 2 2 2 2 2 2 2 2 2 2 2 2 2 2 2 2 2 2 2 2 2 2 2 2 2 2 2 2 2 2 2 2 2 2 2 2 2 2 2 2 2 2 2 2 2 2 2 2 2 2 2 2 2 2 2 2 2 2 2 2 2 2 2 2 2 2 2 2 2 2 2 2 2 2 2 2 2 2 2 2 2 2 2 2 2 2 2 2 2 2 2 2 2 2 2 2 2 2 2 2 2 2 2 2 2 2 2 2 2 2 2 2 2 2 2 2 2 2 2 2 2 2 2 2 2 2 2 2 2 2 2 2 2 2 2 2 2 2 2 2 2 2 2 2 2 2 2 2 2 2 2 2 2 2 2 2 2 2 2 2 2 2 2 2 2 2 2 2 2 2 2 2 2 2 2 2 2 2 2 2 2 2 2 2 2 2 2 2 2 2 2 2 2 2 2 2 2 2 2 2 2 2 2 2 2 2 2 2 2 2 2 2 2 2 2 2 2 2 2 2 2 2 2 2 2 2 2 2 2 2 2 2 2 2 2 2 2 2 2 2 2 2 2 2 2 2 2 2 2 2 2 2 2 2 2 2 2 2 2 2 2 2 2 2 2 2 2 2 2 2 2 2 2 2 2 2 2 2 2 2 2 2 2 2 2 2 2 2 2 2 2 2 2 2 2 2 2 2 2 2 2 2 2 2 2 2 2 2 2 2 2 2 2 2 2 2 2 2 2 2 2 2 2 2 2 2 2 2 2 2 2 2
left_child=1 7 6 9 14 21 16 8 13 12 22 40 17 62 24 42 27 38 35 23 32 34 33 58 48 67 65 43 76 141 66 46 73 133 39 168 49 44 54 -5 59 83 171 91 89 84 104 68 74 80 60 90 113 88 56 142 117 205 87 235 177 82 261 100 86 182 160 69 229 222 108 119 95 -13 105 96 150 172 -62 225 85 151 143 136 93 157 102 107 101 327 106 169 98 220 -83 -48 149 301 188 146 269 -47 213 148 140 209 187 166 178 214 223 224 135 239 139 -71 179 -3 164 184 275 158 -74 145 -70 -34 311 296 277 268 330 -95 326 134 153 165 156 -116 175 -89 -25 -17 198 216 210 -53 331 312 297 195 186 -56 -100 154 -8 333 218 226 -55 -77 316 217 -109 295 199 231 -11 206 -10 369 265 373 -76 -75 -61 -129 -165 -46 314 306 234 276 338 248 215 -90 221 283 -60 309 259 299 -22 267 -58 -35 334 204 355 -36 233 346 302 398 -99 304 324 279 255 253 394 273 258 -30 -49 -54 -39 -87 -27 -123 -19 -28 -12 290 335 -64 -18 228 371 -37 -85 -113 -106 -86 -181 236 -6 -209 -107 240 354 243 -243 -173 317 246 262 353 -184 -166 318 -167 -210 -4 -120 -65 -211 -52 -67 -191 364 -1 -148 -208 -163 329 328 286 -40 -41 -145 -198 -214 -84 -229 359 341 -73 -102 -143 -277 -172 -186 -16 390 -268 -59 291 393 -38 340 -42 325 294 358 -91 305 344 -151 -152 -155 -50 -68 -304 -51 -82 307 -45 -213 -29 -128 -66 -114 375 315 -21 377 -171 -195 322 -321 -183 -261 -242 -93 -185 -112 -15 -121 -24 -26 361 -201 -63 -150 -23 392 -274 363 -110 -57 -78 -295 -290 -32 -162 -146 -104 -140 381 -188 -278 -318 -131 -14 -20 -246 -98 -283 -101 383 378 374 -7 -244 -193 367 -180 -316 370 -2 -81 -269 -9 -169 -256 -262 -31 -44 -323 -202 -192 389 -260 386 -294 -333 -371 -299 -130 -118 -312 -267 -88 -115 -361 397 -105 -111 -158
right_child=2 3 4 5 11 26 10 15 18 19 25 20 52 37 51 29 36 45 55 70 192 111 170 31 130 41 28 189 64 30 103 -33 125 75 118 47 289 61 129 63 287 -43 99 116 50 53 72 109 97 57 257 123 71 121 81 110 194 193 92 174 78 155 79 208 126 212 202 -69 124 115 -72 128 122 173 77 159 181 -79 -80 227 127 94 211 230 200 161 288 114 185 163 -92 167 -94 131 -96 -97 357 197 152 120 278 -103 347 396 232 238 -108 162 339 203 132 112 147 144 137 -117 284 -119 254 266 -122 219 -124 -125 -126 -127 310 138 382 247 -132 -133 -134 -135 -136 -137 -138 -139 348 -141 -142 207 -144 270 201 -147 245 -149 196 298 191 -153 -154 300 -156 -157 399 -159 -160 -161 345 264 -164 176 249 251 -168 362 -170 244 281 241 -174 -175 -176 -177 -178 -179 366 180 -182 321 183 292 282 -187 350 -189 -190 190 349 365 -194 250 -196 -197 271 -199 -200 332 380 -203 -204 -205 -206 -207 263 237 252 256 -212 308 272 -215 -216 -217 -218 -219 -220 -221 -222 -223 -224 -225 -226 -227 -228 274 -230 -231 -232 -233 -234 -235 -236 -237 -238 -239 -240 -241 323 242 260 -245 356 -247 -248 -249 -250 -251 -252 -253 -254 -255 313 -257 -258 -259 360 319 376 -263 -264 -265 -266 336 285 372 -270 -271 -272 -273 337 -275 -276 280 351 -279 -280 -281 -282 293 -284 -285 -286 -287 -288 -289 343 -291 -292 -293 385 342 -296 -297 -298 388 -300 -301 -302 -303 303 -305 -306 -307 -308 -309 -310 -311 391 -313 -314 -315 368 -317 352 -319 -320 320 -322 379 -324 -325 -326 -327 -328 -329 -330 -331 -332 384 -334 -335 -336 -337 -338 -339 -340 -341 -342 -343 -344 -345 -346 -347 -348 -349 -350 -351 -352 -353 -354 -355 -356 -357 -358 -359 -360 395 -362 -363 -364 -365 -366 -367 -368 -369 -370 387 -372 -373 -374 -375 -376 -377 -378 -379 -380 -381 -382 -383 -384 -385 -386 -387 -388 -389 -390 -391 -392 -393 -394 -395 -396 -397 -398 -399 -400 -401
leaf_value=-0.13071935474673016 -0.0012096072436796215 -0.030060942526991975 0.068916191037899879 -0.14269496451703825 0.15625117409701092 -0.066511247033331861 0.051075218597717423 -0.055618659850007586 -0.18474924402161638 0.024962617391085386 0.1118944794256377 0.21735292580902324 -0.015781455269553726 -0.046712006842057875 0.048490809653476442 -0.12224624744967436 0.026262538290941728 -0.014028844239698718 -0.038011207946628656 -0.0051377467980319542 0.24108580202260246 -0.10286946735386436 0.017027046806823355 -0.019645378811495435 0.13937344534942464 0.017429370313538393 -0.0037661801552611356 -0.077307223306585474 0.0050154587228038493 -0.070087211052719173 0.02035041056087469 0.15016135571523034 0.29214392363714614 0.087936588165942575 -0.042829232491023023 -0.13492602950523516 0.07139406723761467 -0.020770870788815499 -0.085730997455293875 -0.12909242539998586 0.031271392732936679 0.21040484315113897 0.012590697337734092 0.018977549821439416 -0.10196475891124966 0.006649453149000074 0.019557729115973099 -0.056240275001185676 0.0057296923398097374 0.082713175501776259 0.038463473810564433 0.13047897887142534 0.0026565260295493883 0.0098083946328681604 0.017364754334892058 -0.052909788930263137 0.024242074707783289 0.070493965261433603 0.029042467291028773 0.11377478780625293 -0.059872828309949597 0.025125413847773715 -0.098612393135539239 -0.06350037875042297 0.053142257103157751 0.018105310881685169 -0.046462326518976568 0.18665327204306298 -0.17161925990940247 0.16363591323221915 0.15744202576583394 0.12351603734195668 0.024708867545339422 0.039592010019017923 0.029257951444145908 0.036029631464864528 0.010373657106619702 0.16499287495144338 -0.090518604312290932 -0.093874849839961055 0.012541765374716213 -0.02461099774062539 -0.081334251571271859 0.12406362101702022 -0.0073648646277041331 0.010835332211790399 0.090508512394119153 0.042964392942395409 -0.059666690305774685 -0.061366535379757309 0.21870488939611715 0.0050503152523086476 0.12684415726385381 0.00066250350461862146 0.059323594982181503 0.077618630046790218 -0.0048105833979836801 0.049077622250478174 0.057375938538191923 0.021166274676811227 -0.098911827160565222 -0.019769572065819561 -0.015788181164213259 0.019542411221701129 0.021517237260414292 0.10279836538861062 0.034539721762017785 0.032395874728885658 0.1123311259480748 -0.076045846984320931 -0.1095874866444433 0.0260175517400505 -0.028103849835807836 -0.048777133330838565 0.024529959617482694 0.032791715190341172 0.036603566136400291 -0.052056582550814176 -0.11390198394681594 0.013794834805857289 0.11060595498893763 0.097198192297557912 -0.0014133658767255725 0.10605666356482851 -0.095989854607100231 0.11836922775596347 -0.0032962192006783233 0.069277505738517861 0.037073722424353923 -0.053704818619611572 0.19578157409128308 0.030184515941080941 -0.0041425147901390947 0.11304087757575794 0.11844569016196868 0.034549473932015441 0.13506926502425323 0.071269089729181473 0.0093121242883590378 0.0044933647689659149 -0.057316532290928396 -0.070377369066193837 -0.046767983249926738 0.040907508169587305 0.022913230722486768 0.20224753686616473 -0.011301084698780828 0.077102325303012725 -0.028119873322944307 -0.00090986401221166649 0.0031219767273630425 -0.0073955257570070664 0.017426264387341347 0.019658759125926455 0.019852666359250419 0.10033542615432904 0.020030505011886406 0.067662953710091747 -0.024288764257299453 0.12428316532312339 -0.093883495778183002 -0.0069771362520487509 0.0065185105330160635 0.01618248153757805 -0.01486880870488469 -0.030037891075964201 0.055697286274917733 -0.010814892979973153 -0.15455902394496707 -0.022467927153615105 -0.014877235442489659 -0.017056082407304371 0.10545447025386692 0.15242295666313455 0.018039236223168022 0.033405989961615749 -0.02461369332657428 -0.056904379788444384 0.0067844542239476665 -0.0066585264348880671 -0.021710044278917543 0.00015040853545319113 -0.020203155768959008 -0.0359071555941788 0.065139804530550502 -0.029984500800240114 -0.0019356484203141081 0.15690640045510471 0.075475753790623074 -0.047088780492223495 -0.047580778347701615 -0.044237515955268446 0.34115069461666625 0.062293678058074543 -0.012289648717762724 0.047673714897612671 -0.0011447945281005357 0.082339460380966983 -0.14670618408859804 0.025267124855985246 -0.039389989540836251 0.065611717888063414 0.022902786210590557 -0.0029807715205663332 -0.0069311410863532015 0.037177394435049971 0.0067408534586202969 -0.10429863861046329 -0.011016229287902983 0.078862898582721302 0.025551822956344054 -0.00045921050868060631 0.046109491804931402 0.02708031990451517 -0.11469922693814109 0.050596075427288417 -0.045226959550683642 -0.032992214746869426 0.085191376490061227 0.02162493940027857 0.0073128027681198969 -0.072786450656384671 0.025350343265143852 0.012037132707971722 -0.018342767760347239 -0.12350093039848353 -0.009379030700298838 -0.07197262838469061 -0.032319363706758003 -0.093502783679522208 0.047102125562380588 -0.028542268846068156 -0.0079747459403918305 0.021283025099849626 0.043968471265003535 0.23067041132550908 0.21158641962218833 -0.046679147163949879 0.025341127548490675 0.016159726020103085 0.0092504185696729961 0.025063745661889368 -0.0083639927221642214 -0.065646639689896272 -0.0018625478951275645 0.026031827173851805 -0.03883736205099185 0.00011773685624297482 0.038443500653421211 -0.071110306861485298 0.0063886505241140396 -0.086595429757082482 -0.059708713902359184 0.01520493679933292 -0.066261175249106005 -0.09084458213650827 0.025323570017419434 -0.011474001834543895 -0.015483178230223172 -0.036968095367950995 0.017759623662007566 -0.047393606653625221 0.028272404156554836 0.032397456017399774 0.031059994637058042 -0.016038742074095638 0.0084354922482351834 0.0078423206721338259 -0.052037166908062059 -0.099249453144607105 -0.0085852321920173533 -0.037692089458655952 -0.013463861192979244 -0.024914241869284273 -0.027338330518840121 0.053817497674065205 0.011277668224400119 0.0348682447475228 -0.067616870874682239 -0.027661701110614195 0.0084182172587595576 0.025724527321493888 0.043065672099120732 0.13018328841171506 0.067840000738213127 0.045169970854869117 0.015776105718997714 0.025784378350146742 0.043325702181369649 0.16994258757511882 -0.0049665955765413536 0.09638142386086028 -0.026036596070287625 -0.013790383081269713 -0.0084073761991291952 -0.020526615103333225 0.035311870191907672 -0.0042895728491687147 0.045210404264462517 -0.02994056747708064 -0.019855575251250215 -0.037472800873605668 -0.047060596571344232 0.0081158756142904308 0.12009838294577481 -0.022115071573440399 0.023288640126483944 -0.016549786606234494 -0.042866658008391796 -0.023822465613251808 0.043728882694068924 0.10124798970657281 0.010797983923852545 -0.013209234992439423 0.075475474384050042 0.054194311513117405 -0.039850014237651971 -0.071504643880593924 0.031043949437838444 0.023880964106217564 -0.015143821476892654 -0.013565094973848519 -0.00010655533733547786 -0.019482257096817536 -0.015520655228909882 0.0021633105856265606 -0.065665490994121598 -0.073765736239743779 -0.011785670208606346 -0.015349710580525311 0.060600712242079482 -0.0043037126710125323 -0.0027282000354751355 -0.0072519521185003977 -0.057893535074931772 -0.039443483564637193 -0.001237287320288242 0.017609041024075265 -0.105068466347277 0.067853303037497731 -0.010806740178085548 -0.016293776562476554 0.015317109269809998 0.0056518693857429223 0.0019453334636968945 -0.056936172329099276 -0.0030278695000717222 -0.04559682154243231 -0.02307220552457721 -0.095523157411038048 -0.030740490041328242 0.034162919090173535 -0.0044246310772612886 -0.039438923212583916 -0.058517963015961016 -0.10522087783277849 -0.029052265218560074 0.020556856357158072 0.053413208663462379 -0.0022648730008191409 -0.0056190861156983855 0.0095475636516842398 -0.00099226435109864937 -0.033512749670956764 -0.033413681273051145 -0.014155864724948716 0.001254193704801774 0.04048357654588771 0.026761008064779507 -0.0036839961258035179 -0.01939803570161433 -0.034871832388008492 0.021421949049778486 -0.017444518175648599 -0.029011094183286137 -0.022075173124959175 -0.00092776838415028031 -0.042519200373703159 0.042953871634052065 -0.041707725579074664 -0.020896300259267964 -0.013382179337981028 0.059700228402481938 -0.046074570076781521 0.01703066928862661 -0.068994269472769904 0.009524285011619291 0.0098398124163302791 -0.020623133754445244 0.013185050627727426 0.01431512342511876 0.015669887570765189 -0.043326897927764452 0.039291322780407624 -0.015984179647999936 0.0044556921500544027 0.019340935486090522 0.068958079866774255 -0.028126419546191155 0.043804782683896308
leaf_count=420 33 394 8 393 194 134 371 114 476 127 207 355 9 81 11 134 240 86 9 9 75 22 17 151 218 11 8 75 151 141 48 27 178 618 16 557 14 140 121 377 12 41 8 13 572 203 69 27 14 130 19 55 47 414 171 95 70 12 33 46 613 13 324 110 30 10 38 252 440 291 44 46 279 9 15 14 20 98 336 374 19 701 112 220 213 21 17 264 95 24 40 68 31 113 13 83 11 76 82 25 340 877 22 8 43 261 13 129 96 21 64 8 9 10 49 9 14 505 16 19 13 10 264 34 40 13 12 161 14 231 72 545 11 15 11 11 30 220 8 61 78 66 22 13 34 330 78 11 47 13 59 284 94 12 102 8 14 35 59 191 261 23 265 57 15 21 135 21 426 13 13 33 143 84 9 76 59 50 14 11 14 15 11 26 94 176 17 373 294 14 9 56 177 113 56 49 72 47 97 18 25 28 12 14 14 21 57 122 15 95 9 9 16 158 317 19 127 80 260 16 323 82 8 8 12 285 25 179 19 74 14 60 114 38 144 98 84 23 9 14 16 14 12 22 9 13 33 11 9 26 12 26 65 35 100 256 16 12 11 11 8 11 12 90 32 10 36 47 64 149 14 15 12 13 20 35 26 8 77 24 15 65 197 368 104 21 16 13 56 33 10 30 10 15 12 26 8 12 11 13 18 10 23 29 61 17 16 36 33 11 9 52 13 8 108 11 18 31 32 15 9 11 17 36 35 9 44 67 36 11 13 11 22 13 27 13 8 12 16 39 8 15 12 8 40 36 12 23 8 10 10 42 8 139 23 138 54 14 12 12 9 11 12 22 41 11 8 10 9 11 33 9 33 8 30 8 9 35 31 13 41 8 22 11 10 34 8 8 11 12 14 11 20 14 8 12 8 10 9 47
internal_value=0 -0.12044 0.296508 -0.032875 0.460679 -0.171772 0.18181 -0.254783 -0.289 0.0161997 0.265507 0.614119 -0.026425 -0.223544 0.370302 -0.126039 0.0717958 -0.0422248 -0.379677 0.105086 0.692829 -0.263611 0.180236 0.0872738 0.296371 0.364381 -0.0162729 0.00233182 0.0229227 -0.174626 -0.133979 0.0292044 0.621777 0.202401 -0.280845 -0.405442 0.12867 -0.178978 -0.0837693 -0.29751 0.464013 0.289982 -0.0206497 0.034078 -0.199195 -0.00669128 0.0178929 -0.368936 0.251257 0.116352 -0.217316 0.437856 0.0960235 -0.0334947 -0.0650081 -0.254535 -0.0984046 0.176729 0.123149 0.495236 -0.222848 -0.0994617 -0.288248 -0.271164 0.083095 -0.122063 -0.191553 0.423802 -0.397324 0.379549 0.249642 0.12795 0.0576944 0.551625 0.279942 0.243775 -0.0621648 0.344201 -0.192421 -0.265088 0.0771539 -0.0354181 -0.116285 0.266036 0.0291269 0.0428469 0.0534571 0.1001 -0.0547696 -0.104707 0.397934 -0.0187437 0.175614 0.0449105 -0.0612877 0.142735 0.219042 0.125125 0.161893 0.0468364 -0.297583 -0.0400081 0.0262522 -0.0165674 -0.0535802 0.237444 0.383895 0.0704225 0.217422 -0.283467 -0.179144 -0.0925983 -0.0559833 0.00348314 0.131978 0.433577 0.106208 -0.11532 -0.147434 0.102159 0.115935 0.0240725 0.0327588 0.508738 -0.450007 0.767349 0.192393 0.128179 0.23582 -0.155238 0.415235 0.0680378 -0.236933 0.128694 0.120518 -0.0916432 0.223154 0.171399 0.147098 0.0971601 -0.0904979 -0.270413 -0.317815 -0.0760623 0.0619783 0.524254 0.00894626 0.0740704 -0.0333684 0.225677 -0.105502 0.00540694 0.100471 0.112916 0.120693 0.113779 0.204879 0.0786446 0.0144298 0.322602 -0.216025 -0.0262993 0.0413845 -0.0474854 -0.0771545 -0.112634 0.11243 0.0163711 -0.463649 -0.0749205 0.0144364 -0.104472 0.268756 0.389892 0.273198 0.158843 -0.0127835 -0.267291 0.162886 0.0699993 0.0936693 0.0169182 -0.160273 -0.10307 0.123444 -0.111732 -0.152882 0.388239 0.192858 -0.148737 -0.0976106 -0.0615377 0.856792 0.114148 0.0220574 0.230856 -0.0680648 0.154981 -0.332065 -0.017494 -0.0238612 0.103256 -0.067148 -0.134664 0.109397 0.250346 0.0344363 -0.229695 -0.212516 0.169201 -0.0495034 -0.182655 0.00770617 0.0447839 -0.300209 0.0517893 -0.0893646 -0.0643287 0.223965 0.167819 0.00731204 -0.181715 0.295702 -0.114882 -0.19853 -0.30072 0.0616057 -0.226711 -0.244885 -0.353898 0.32608 -0.0560385 0.00143049 -0.00725107 0.108901 0.523544 0.477413 -0.262557 0.272432 -0.0568702 -0.075221 -0.0641963 -0.0298654 -0.109496 -0.114369 -0.0280214 -0.0408685 -0.128626 0.0233807 -0.147471 0.143859 -0.180754 -0.140116 0.0853522 -0.194188 -0.226153 0.196399 0.054737 -0.0469626 -0.0470596 -0.0527514 -0.349333 -0.0128786 0.0622579 0.0430311 -0.0464785 0.0318344 0.0663192 -0.205023 -0.329077 0.0486189 -0.0249384 0.0627392 -0.207408 -0.184693 0.0781529 0.0474152 0.309915 -0.254292 -0.165291 0.114343 0.0462086 0.138495 0.347488 0.165301 0.0665835 0.126039 0.197678 0.148195 0.407322 -0.126307 0.22521 -0.134572 0.0572201 0.0740556 -0.11918 0.0153113 0.0177344 0.0662219 -0.0120392 -0.00936147 -0.0424907 -0.0868186 -0.049581 0.26371 -0.0122569 0.00605342 -0.016755 -0.0942248 -0.195295 0.0594582 0.237616 -0.0200652 -0.165943 0.185014 0.0863003 -0.168886 -0.164772 0.153363 -0.0158119 0.0246966 -0.0596894 -0.0490195 -0.0286435 -0.00633632 -0.0732459 -0.258339 -0.165088 -0.00678645 0.0104802 0.368775 0.0704106 0.0305868 0.0281323 -0.113782 -0.236535 -0.0847031 0.00653933 -0.1892 0.277114 -0.136078 -0.00450841 -0.00121311 0.106555 0.0339817 -0.244626 0.0446516 -0.0924266 -0.0230787 -0.193589 -0.0428987 0.0725886 -0.0852448 -0.132416 -0.136288 -0.277306 -0.0692687 0.0283004 0.0896456 0.0337695 -0.0805417 0.0919509 -0.0524516 -0.17061 -0.0784383 -0.110011 0.0554921 0.0691025 0.197486 -0.0215148 -0.0299219 -0.251419 0.0389846 -0.14585 -0.0627986 -0.173491 0.0268641 -0.178433 0.105335 -0.0907007 -0.0818658 -0.103886 0.130302 -0.0991977 0.0248912 -0.17043 0.00618052 0.00776755 -0.0391719 0.0813999 0.0796756 0.0939327 -0.10265 0.206479 -0.111076 0.00342668 0.135424 0.1523 -0.183782 0.109136
internal_count=31470 22349 9121 13534 3745 3530 5376 8815 6959 10004 3049 1377 6764 4052 2368 1856 2327 5994 2907 3240 891 2217 1645 2892 1144 1404 1313 1050 961 1268 899 1108 639 1450 2011 2401 1277 2411 2760 1782 486 637 588 871 1916 3234 1081 1499 841 1230 1602 1224 770 1850 2194 506 1025 477 1784 431 1571 495 1641 1389 563 352 601 767 1111 515 348 571 695 448 680 921 398 256 949 1210 753 1169 461 596 1384 456 449 1250 1351 314 805 505 534 1067 714 152 716 161 503 327 943 1080 354 298 386 424 765 656 304 388 240 206 159 199 594 300 366 899 229 469 112 499 543 419 480 191 114 297 102 566 303 658 119 529 514 126 362 269 253 325 229 369 266 294 101 385 215 33 272 691 256 455 176 503 473 34 332 300 473 205 499 156 394 166 97 115 262 313 902 192 195 261 158 93 55 237 116 622 169 234 169 142 271 99 357 271 117 752 327 179 93 139 252 265 126 667 161 137 244 56 317 74 102 44 90 212 250 235 446 154 27 167 81 309 344 66 267 101 271 26 409 90 215 121 47 609 265 601 402 631 234 68 157 251 155 376 278 145 270 98 84 139 84 55 107 136 123 381 20 41 157 47 80 43 132 366 111 31 41 66 70 431 90 147 55 66 112 108 185 526 27 87 40 125 199 99 103 54 417 90 50 129 291 379 132 57 28 55 95 47 113 42 79 116 89 50 44 111 24 72 30 24 90 52 191 36 65 49 42 86 32 82 22 116 137 20 202 44 145 52 24 39 28 52 103 35 108 148 55 28 231 79 40 26 74 35 38 24 172 135 103 35 27 64 88 297 46 45 16 27 27 68 26 370 32 147 63 25 77 49 31 50 63 156 53 67 32 24 117 85 66 383 80 122 51 108 17 176 39 24 66 17 48 22 29 44 19 19 23 26 28 20 30 31 18 24 26 18 30 61
shrinkage=0.369802


Tree=2
num_leaves=326
num_cat=0
split_feature=1 1 16 1 1 1 1 16 16 0 0 16 1 1 16 0 1 16 0 0 16 1 4 16 0 5 7 4 16 0 16 0 3 1 1 16 8 0 0 1 4 3 1 5 0 8 1 12 0 1 1 16 1 1 8 0 8 1 0 1 4 11 1 0 0 0 7 1 16 3 12 5 11 4 0 1 0 5 1 5 0 12 4 0 1 1 14 8 1 0 2 1 6 1 1 1 1 4 0 12 0 12 5 12 11 1 4 16 16 1 0 3 16 3 11 2 2 0 16 1 12 1 4 0 2 1 12 16 0 0 6 1 7 1 1 2 16 16 0 7 16 0 16 1 2 0 11 4 11 1 16 4 0 11 0 1 11 1 1 4 0 1 16 1 0 11 11 1 16 12 3 1 0 1 11 1 4 8 4 2 1 16 0 1 16 16 12 16 0 11 3 2 0 11 1 1 12 11 11 16 2 1 0 11 12 11 16 1 2 4 16 0 1 12 5 12 0 16 16 4 11 12 16 4 12 0 11 0 11 1 1 2 1 16 2 12 0 12 2 4 16 12 11 17 12 0 3 3 0 0 8 0 0 12 0 4 4 12 11 16 5 5 17 16 0 1 2 12 1 0 4 0 2 0 16 11 0 11 11 16 2 4 4 5 0 16 4 1 2 0 3 1 0 17 4 16 12 1 16 2 2 0 12 17 0 2 0 12 16 1 1 11 1 16 1 4 2 0 4 16 11 17 1 16 5
split_gain=549.32 226.097 90.6628 75.2144 59.9699 37.4326 25.9263 18.037 13.7276 13.3476 12.4015 12.1864 10.2847 9.58326 9.00661 8.31062 5.75252 5.36858 5.16109 4.6119 4.60258 4.45063 4.31547 3.89481 3.64755 3.6069 3.53968 3.29207 3.13264 3.0662 3.03498 2.82732 2.76819 2.48117 2.47696 2.46792 2.30491 2.22136 2.14167 1.73983 1.74367 1.71562 1.69438 1.66569 1.84458 1.65358 1.62961 1.57697 1.57452 1.51774 1.44662 1.37661 1.27966 1.25052 1.22658 1.19132 1.18073 1.23172 1.17226 1.16222 1.117 1.07825 1.03334 1.01492 1.0131 0.980747 0.91293 1.31714 0.907632 0.875586 0.836834 0.812293 0.7426 0.711781 0.70343 0.747049 0.699831 0.697924 0.69121 0.690644 0.686007 0.685866 0.676915 0.657633 0.643134 0.609698 0.57787 0.57411 0.518731 0.49904 0.483945 0.482856 0.47967 0.537439 0.479543 0.47709 0.475439 0.471304 0.470636 0.45411 0.451575 0.444865 0.425507 0.416975 0.413727 0.412866 0.955747 0.408255 0.397123 0.393955 0.388517 0.379151 0.367249 0.364031 0.363691 0.344135 0.338349 0.332897 0.34027 0.332631 0.329302 0.328586 0.327663 0.326586 0.312434 0.310762 0.303553 0.30277 0.301918 0.300328 0.28842 0.283442 0.279503 0.344866 0.278209 0.277565 0.273072 0.270773 0.267848 0.26322 0.26317 0.261514 0.257361 0.2546 0.253991 0.248445 0.248186 0.246914 0.245278 0.24143 0.238024 0.234323 0.264269 0.234052 0.233114 0.228999 0.227631 0.224157 0.222129 0.219895 0.216757 0.215282 0.212219 0.203448 0.196579 0.191122 0.191076 0.199128 0.181618 0.253268 0.202313 0.177162 0.176531 0.174994 0.171141 0.166431 0.166272 0.164799 0.164603 0.164602 0.164362 0.161517 0.158635 0.157383 0.157209 0.155596 0.153649 0.1501 0.148229 0.146733 0.145614 0.144528 0.142402 0.14107 0.138214 0.137246 0.132943 0.161129 0.132719 0.132313 0.131689 0.130988 0.121699 0.120535 0.118819 0.116842 0.115569 0.115279 0.134438 0.114802 0.114485 0.113385 0.113106 0.11135 0.105973 0.0990991 0.0973241 0.0969122 0.0949803 0.135804 0.0942618 0.0933293 0.091446 0.0911887 0.0901111 0.0884251 0.0869871 0.0860918 0.0813468 0.0810136 0.080863 0.0801822 0.0937633 0.0767613 0.0750391 0.0749097 0.0747548 0.0744701 0.129036 0.0743723 0.0734266 0.072964 0.0724739 0.0787956 0.0755809 0.0724243 0.0722803 0.0715905 0.0711948 0.0707629 0.0684578 0.0677686 0.130471 0.0797462 0.0647565 0.0632077 0.0808346 0.0622122 0.0605367 0.0599873 0.0597987 0.0565911 0.0565404 0.0557914 0.102531 0.0542442 0.054047 0.0539735 0.0520713 0.0518871 0.0510882 0.0505579 0.0500726 0.0483105 0.0460302 0.0450742 0.0450031 0.0444682 0.0444434 0.044063 0.043904 0.0438441 0.0422022 0.0414141 0.0397237 0.0396458 0.0380227 0.0372101 0.0370347 0.0362181 0.0354564 0.0332973 0.0326472 0.0325705 0.0317862 0.0296374 0.0285435 0.0270399 0.0244016 0.0223065 0.0222016 0.0198109 0.026452 0.0194843 0.0189386 0.0164043 0.016371 0.0161224 0.0161071 0.0159226 0.0151452 0.0150503 0.0140841 0.0123187 0.0111841 0.0102867 0.00971812 0.00686899 0.00651498 0.00577507 0.00537392 0.00430752 0.00268384 0.00217418 0.000786326
threshold=25.005000000000006 67.045000000000016 -0.411401519229532 40.005000000000003 18.205000000000002 99.950000000000017 40.305000000000007 1.0000000180025095e-35 1.0000000180025095e-35 209.50000000000003 233.50000000000003 -1.0131598561079593 30.135000000000002 46.205000000000005 -0.8115614912327529 281.50000000000006 15.005000000000001 1.0000000180025095e-35 251.50000000000003 349.50000000000006 0.14645980692288127 80.145000000000024 3.5000000000000004 0.43873043604406065 188.50000000000003 1.5000000000000002 1.0000000180025095e-35 6.5000000000000009 -0.8115614912327529 167.50000000000003 -0.8115614912327529 533.50000000000011 6.5000000000000009 47.215000000000011 22.245000000000001 -1.0131598561079593 1.0000000180025095e-35 339.50000000000006 10.500000000000002 28.625000000000004 3.5000000000000004 5.5000000000000009 33.005000000000003 1.5000000000000002 151.50000000000003 1.0000000180025095e-35 55.245000000000012 8.8750000000000018 113.50000000000001 27.885000000000002 51.005000000000003 -0.8115614912327529 22.005000000000006 52.245000000000012 1.0000000180025095e-35 28.500000000000004 1.0000000180025095e-35 30.005000000000006 61.500000000000007 75.965000000000018 3.5000000000000004 9.5000000000000018 46.815000000000005 171.50000000000003 130.50000000000003 16.500000000000004 1.0000000180025095e-35 21.465000000000003 -0.8115614912327529 1.5000000000000002 17.125000000000004 2.5000000000000004 11.500000000000002 3.5000000000000004 70.500000000000014 50.330000000000005 171.50000000000003 1.5000000000000002 77.490000000000023 1.5000000000000002 91.500000000000014 3.166666666666667 4.5000000000000009 59.500000000000007 13.890000000000002 28.005000000000006 1.0000000180025095e-35 1.0000000180025095e-35 53.975000000000001 473.50000000000006 2.5000000000000004 59.215000000000011 1.0000000180025095e-35 33.005000000000003 42.005000000000003 44.505000000000003 51.005000000000003 2.5000000000000004 79.500000000000014 15.583333333333334 389.50000000000006 7.7083333333333348 1.5000000000000002 12.29166666666667 10.500000000000002 124.07500000000002 2.5000000000000004 -0.8115614912327529 1.039956282021937 80.145000000000024 3.5000000000000004 3.5000000000000004 0.14645980692288127 6.5000000000000009 13.500000000000002 4.5000000000000009 2.5000000000000004 354.50000000000006 0.11229472375554059 54.665000000000006 11.41666666666667 63.010000000000012 7.5000000000000009 27.500000000000004 7.5000000000000009 29.315000000000001 9.8750000000000018 0.14645980692288127 174.50000000000003 56.500000000000007 1.0000000180025095e-35 41.795000000000009 1.0000000180025095e-35 46.205000000000005 43.205000000000005 1.5000000000000002 -1.0733517267765327 -0.65636802231237745 72.500000000000014 1.0000000180025095e-35 -1.1822978817851213 1.0000000180025095e-35 0.43873043604406065 35.285000000000004 2.5000000000000004 1.0000000180025095e-35 6.5000000000000009 11.500000000000002 8.5000000000000018 21.755000000000006 0.14645980692288127 3.5000000000000004 345.50000000000006 10.500000000000002 347.50000000000006 42.425000000000004 14.500000000000002 27.605000000000004 36.005000000000003 2.5000000000000004 292.50000000000006 20.555000000000003 0.18941112535659627 23.405000000000005 2.5000000000000004 13.500000000000002 3.5000000000000004 27.885000000000002 1.039956282021937 8.5833333333333339 7.5000000000000009 59.955000000000005 3.5000000000000004 21.605000000000004 9.5000000000000018 24.995000000000001 2.5000000000000004 1.0000000180025095e-35 13.500000000000002 1.5000000000000002 35.285000000000004 -1.1822978817851213 283.50000000000006 26.415000000000003 -1.0733517267765327 1.5530018824139424 18.125000000000004 0.11229472375554059 70.500000000000014 17.500000000000004 6.5000000000000009 3.5000000000000004 150.50000000000003 9.5000000000000018 60.410000000000004 51.360000000000007 15.583333333333334 8.5000000000000018 7.5000000000000009 -0.19109970431896869 6.5000000000000009 28.225000000000005 36.500000000000007 6.5000000000000009 5.7083333333333348 4.5000000000000009 -1.0733517267765327 33.565000000000005 1.5000000000000002 9.5000000000000018 -1.0131598561079593 4.5000000000000009 36.755000000000003 16.291666666666668 1.5000000000000002 14.29166666666667 377.50000000000006 -0.54745935287262149 0.14645980692288127 2.5000000000000004 2.5000000000000004 5.166666666666667 1.7113214997370925 7.5000000000000009 6.291666666666667 263.50000000000006 5.5000000000000009 665.50000000000011 12.500000000000002 64.830000000000013 21.915000000000003 7.5000000000000009 23.755000000000006 0.18941112535659627 2.5000000000000004 9.5833333333333339 499.50000000000006 9.8750000000000018 2.5000000000000004 5.5000000000000009 -0.54745935287262149 5.5500000000000007 2.5000000000000004 7118.5000000000009 8.1250000000000018 82.500000000000014 3.5000000000000004 3.5000000000000004 225.50000000000003 11.500000000000002 1.0000000180025095e-35 363.50000000000006 377.50000000000006 5.5500000000000007 28.500000000000004 11.500000000000002 9.5000000000000018 14.708333333333334 1.5000000000000002 0.068346005894514408 2.5000000000000004 2.5000000000000004 4662.0000000000009 0.11229472375554059 4.5000000000000009 26.605000000000004 7.5000000000000009 6.5833333333333348 22.355000000000004 1.0000000180025095e-35 14.500000000000002 164.50000000000003 3.5000000000000004 424.50000000000006 0.43873043604406065 11.500000000000002 351.50000000000006 5.5000000000000009 4.5000000000000009 0.43873043604406065 1.5000000000000002 5.5000000000000009 3.5000000000000004 1.5000000000000002 361.50000000000006 -0.19109970431896869 32.500000000000007 20.555000000000003 2.5000000000000004 196.50000000000003 1.5000000000000002 23.585000000000004 53.500000000000007 5839.5000000000009 13.500000000000002 -0.54745935287262149 7.7083333333333348 70.125000000000014 1.7113214997370925 4.5000000000000009 1.5000000000000002 1.0000000180025095e-35 15.125000000000002 7118.5000000000009 12.500000000000002 1.5000000000000002 4.5000000000000009 9.2916666666666696 -0.71275555509588562 24.850000000000005 24.405000000000005 7.5000000000000009 69.105000000000018 0.14645980692288127 23.165000000000003 4.5000000000000009 5.5000000000000009 276.50000000000006 10.500000000000002 -1.1822978817851213 5.5000000000000009 3254.5000000000005 22.005000000000006 -1.0733517267765327 2.5000000000000004
decision_type=2 2 2 2 2 2 2 2 2 2 2 2 2 2 2 2 2 2 2 2 2 2 2 2 2 2 2 2 2 2 2 2 2 2 2 2 2 2 2 2 2 2 2 2 2 2 2 2 2 2 2 2 2 2 2 2 2 2 2 2 2 2 2 2 2 2 2 2 2 2 2 2 2 2 2 2 2 2 2 2 2 2 2 2 2 2 2 2 2 2 2 2 2 2 2 2 2 2 2 2 2 2 2 2 2 2 2 2 2 2 2 2 2 2 2 2 2 2 2 2 2 2 2 2 2 2 2 2 2 2 2 2 2 2 2 2 2 2 2 2 2 2 2 2 2 2 2 2 2 2 2 2 2 2 2 2 2 2 2 2 2 2 2 2 2 2 2 2 2 2 2 2 2 2 2 2 2 2 2 2 2 2 2 2 2 2 2 2 2 2 2 2 2 2 2 2 2 2 2 2 2 2 2 2 2 2 2 2 2 2 2 2 2 2 2 2 2 2 2 2 2 2 2 2 2 2 2 2 2 2 2 2 2 2 2 2 2 2 2 2 2 2 2 2 2 2 2 2 2 2 2 2 2 2 2 2 2 2 2 2 2 2 2 2 2 2 2 2 2 2 2 2 2 2 2 2 2 2 2 2 2 2 2 2 2 2 2 2 2 2 2 2 2 2 2 2 2 2 2 2 2 2 2 2 2 2 2 2 2 2 2 2 2 2 2 2 2 2 2 2 2 2 2 2 2
left_child=4 2 6 12 16 7 11 28 -7 13 17 24 18 26 22 32 31 35 23 39 69 43 33 47 125 46 187 74 109 62 100 68 111 48 80 90 -17 107 110 61 87 78 112 -9 -45 157 99 86 206 116 148 -39 98 113 -44 -56 166 198 175 71 138 83 95 -23 121 141 67 127 -1 220 85 -43 96 247 131 154 119 117 186 92 173 -82 165 144 -33 -49 183 246 102 -53 309 192 93 -38 -84 172 -71 305 149 132 161 251 -66 128 171 106 -10 269 300 151 162 114 124 225 142 267 222 118 -47 211 137 140 205 -70 -34 179 150 288 -42 -109 -114 301 -11 -134 155 -100 -50 -59 174 -85 -35 -62 -14 -122 -13 -64 -136 -147 210 224 -81 324 312 207 240 -115 181 235 -94 -89 -150 307 -28 191 319 -40 -21 -168 169 190 -171 -52 -24 200 296 255 -138 295 -118 306 -105 317 -111 -4 265 248 217 -5 -88 -106 -55 258 -75 -143 283 -78 227 -198 226 216 218 -79 -110 315 -90 -67 290 250 -209 -137 -31 -29 280 -179 -97 -119 -73 -30 223 -220 -15 -124 -25 -19 308 -27 -58 279 -208 234 -187 232 318 -128 -170 273 -227 -133 -239 -183 -76 -129 271 244 -244 -123 -41 -22 -117 -72 -127 -69 -253 -254 -233 256 274 -196 -60 277 -197 -156 -151 281 -265 -181 -226 -83 -260 -18 310 293 -102 -20 -36 -101 -199 -193 -186 -103 -113 304 -74 -77 -262 -112 -48 -202 -32 -273 -8 -245 -93 -165 -289 -63 -54 -154 -261 -163 -51 -16 -303 -237 -175 -26 -2 -12 -37 -6 -257 -214 -153 -203 -140 -159 -211 -99 -92 -155 -283 -213 -269 -307 -3
right_child=1 5 3 9 10 8 14 21 105 25 30 19 15 20 27 36 37 34 45 56 73 63 29 49 97 53 38 76 41 50 66 84 42 64 58 52 79 51 82 40 103 59 54 44 -46 77 286 70 136 108 104 89 60 168 55 -57 57 120 163 -61 65 177 145 -65 88 122 -68 101 123 72 249 199 282 91 75 194 195 201 -80 126 81 115 94 139 -86 -87 188 159 204 -91 231 292 158 -95 -96 214 -98 156 135 275 272 196 -104 180 189 -107 -108 129 202 182 285 212 130 134 -116 185 178 215 -120 -121 143 245 221 -125 -126 153 233 241 -130 -131 -132 237 133 -135 146 209 176 -139 314 -141 -142 193 -144 -145 -146 147 -148 -149 160 262 -152 152 297 164 261 -157 -158 203 -160 -161 -162 299 -164 242 -166 -167 167 -169 229 170 -172 -173 -174 263 -176 -177 -178 213 -180 184 -182 239 -184 -185 278 230 -188 -189 -190 -191 -192 259 -194 -195 257 260 197 276 -200 -201 287 313 -204 -205 -206 -207 228 208 -210 316 -212 321 311 -215 -216 -217 -218 -219 219 -221 -222 -223 -224 -225 266 236 -228 -229 -230 -231 -232 254 -234 -235 -236 303 -238 238 -240 -241 -242 -243 243 291 -246 -247 -248 -249 -250 -251 -252 252 253 -255 -256 270 -258 -259 268 298 284 -263 -264 264 -266 -267 -268 322 -270 -271 -272 289 -274 -275 -276 -277 -278 -279 -280 -281 -282 320 -284 -285 -286 -287 -288 294 -290 -291 -292 -293 -294 -295 -296 -297 -298 -299 -300 -301 -302 302 -304 -305 -306 323 -308 -309 -310 -311 -312 -313 -314 -315 -316 -317 -318 -319 -320 -321 -322 -323 -324 -325 -326
leaf_value=-0.14327859789031822 -0.026103202831794747 0.04732263160821075 0.0044518776450931385 0.079518848507250842 -0.080842001792011495 0.19414738314851088 -0.02040393965268409 0.21458083519533283 0.089850725508507256 0.10642910817291872 -0.063705222641087828 -0.0092146129020371902 0.025246986615003752 0.0088842444767995559 0.0060062605383681845 0.080115021293208799 -0.05674217482965016 -0.039877431912062597 0.021709979603874437 -0.015327683103863678 0.03780133455131586 0.25694555341156616 0.012994038268324567 0.0053687863535271966 -0.065540224385310375 0.027727518037995374 0.064125978917459359 0.026311919172185672 0.024536601082973886 -0.010728184169182831 -0.074969691346360709 -0.21780950811232727 0.023890574574541395 -0.010210744661719817 0.0029130882075411322 -0.028969980275786015 0.002055201327959054 -0.13387144031435849 0.03856437988015958 0.043173432865141123 0.03351594463978598 0.14162708703850949 0.10072263409039049 0.16721937361969128 0.10392377162152609 -0.02824733221647726 0.15185917070600061 -0.0015700354663258588 -0.055842097330180432 0.0016390635460023287 0.020376958006392942 -0.093049779240858277 -0.0042792362542084612 0.013197589811668499 0.081941084940323164 0.050344164341865547 -0.061306187695475023 -0.028754640750481394 -9.5369154214217064e-06 0.16359478383688569 -0.029561531907493107 0.0086347322969694187 0.087713237406592828 0.17690595911648693 0.025133475390767115 -0.020879294163955862 -0.092668441527420847 -0.032707021837091003 -0.086194977908301398 0.081606793305931624 -0.015985520757940352 0.086801452800520082 0.048466978491277318 0.13866705386002004 0.024614581944374346 0.05289631986273334 0.034490278671781456 -0.081147583336978357 0.10272584093455474 -0.012891282007471361 0.040717054067780256 -0.031932991496977391 0.05270482354176962 -0.016139130985748231 -0.12316090318028773 0.017589458857458967 0.032841256552837636 -0.020549639363274638 -0.020428838106323413 -0.12588939816572098 -0.060182294672409459 0.20954872405634778 -0.025051444577497976 0.047438422699414021 0.074739466326918913 -0.0082486345028968955 0.11091859868167012 -0.027232516044260607 -0.071725781257810636 0.020356265126092319 -0.11019765669968308 -0.04851183559636655 -0.025043707944857701 -0.0011438726835054532 0.0093365630861364513 0.44267581094365355 0.31344755855749323 -0.058498610868238418 0.082615610804805756 0.10767947854735622 0.070611202458058894 -0.014567580549665461 0.054628646650053868 0.024741286576180931 -0.025578240827213841 -0.040067983772441237 0.025521801697092599 -0.031374093251426566 0.0098892197702743437 0.11413916545541065 -0.052608048213322545 0.060511559989955346 0.0084962981034132773 -0.11900564952662898 0.055556443230910094 0.0011305904074443564 -0.030143671181670755 -0.018111465671099242 0.011428792840206686 -0.08186168398604024 0.022322751875115503 0.078984949159705498 0.046449885775997332 0.081472565938424113 0.046919501068714189 -0.055597581684489944 -0.041550103475924804 -0.00096737573913773661 -0.064585415573866198 -0.053839325139539401 0.020873415557322618 0.034440945152729337 0.053758124966400707 -0.025080839141927998 0.0041187455248361321 0.040122913560667099 0.019270105746327992 0.072526981014854164 0.001823216235721874 0.013187022795136479 0.021589561050164574 0.046247793686201966 0.0071951842467616956 0.0051735873242238885 0.0022602325434088934 -0.012022436290631568 -0.075501827306354477 0.014822233054413516 0.0058593754917984787 -0.0045363201966821913 -0.034089690460549917 -0.074100411822574055 0.08934413295525151 -0.005365839457197652 -0.042308120172103156 -0.001334131309527025 -0.0069454582874056581 0.047570623578463936 0.0333734375112534 0.044224288749155183 0.015285101310097813 0.039764892216362237 0.043164723262445241 -0.0065145764239567475 -0.052567986802139026 0.041167380665986873 -0.018520808165436324 -0.031346929031621201 0.042342025142504125 -0.039895348097587963 0.020845333422163825 -0.050232586194478575 0.051800695691273581 0.01818846197551981 0.0025147598515620519 -0.023637173839603644 0.00095754289844916297 0.14637191742351702 0.015835833141723155 -0.018112876030536806 0.072689659978058638 0.019950554755171438 0.10866437474211189 -0.0014930802450183747 0.062304118947982615 0.072136014558151773 -0.015975373139904495 -0.046409542729178091 -0.082604834989798745 0.017758901258964704 0.013641515485343992 -0.046432789365513753 0.05446133160395638 -0.00058422993444826857 0.0080639773473489152 -0.043045184777667299 0.0093986340367306891 -0.02327249845029734 0.006423589606950289 -0.046578046702443782 0.0067610279629750731 0.036000696465241337 0.0061298405233589032 -0.054781273972909501 0.027338990342513379 -0.059986479383390752 0.024878900717851111 0.065658859454741605 0.020365088491604361 -0.020718172962201284 0.055278488437280435 -0.018658686660707097 0.023605207037370009 -0.016966715708631553 -0.045057580463013829 -0.00081208572826638778 -0.030608954046184102 -0.0045088057851945113 -0.01254418808431842 0.018900495296881956 0.0046954577278289535 0.0056388559777861376 -0.016308028818973558 -0.0071013320684978273 0.08424258272406264 -0.022865563062832828 0.022693819329007381 0.035218990466363231 0.06555324441010818 -0.030524344799414436 0.0092442722655353415 -0.054048373084266334 -0.017998875357675345 -0.00034079534382753829 0.0018865422936799757 0.012975948822868148 0.0089955335751388168 0.091455086331636876 -0.0071057460672990878 -0.045559289829343388 -0.024037755105863468 0.016200908463220125 0.00013088633052272812 -0.02968933566591005 -0.032882185216717423 0.031429265753117407 -0.020070829203438594 0.016001905659596773 -0.0074300734270560456 -0.010958005019230405 0.042413957885403544 -0.021857095125010252 -0.017330706470696622 0.033891900888529974 -0.0095027463364255153 -0.02352397124132842 -0.0079464195022460084 -0.054065429692927491 -0.035862438978117556 -0.098829835990993542 -0.0022624046375849497 -0.019717801062130311 -0.041803058587618763 -0.0050287152100096828 0.018097947272434949 -0.010571245790864468 -0.08786103679036035 -0.0096358157122698723 -0.01872011313670302 -0.029539294693488968 0.002748629220170197 -0.021516114098246501 0.015005538472238959 0.028755585309154411 0.0059839705733244018 0.11318531046943796 0.055845154415264393 -0.019974657397373769 -0.061966224398642113 0.0059294367574310594 -0.0060365502279640026 -0.020460200804457502 0.14471898132663799 0.017406008819617472 0.0028300786431440131 -0.015038482849038973 -0.024191576411722874 0.034673370126392211 -0.022432121938851048 -0.038191436495412866 0.022920714378684835 0.032693417021702288 0.0081825330502500251 -0.0027512481557347046 0.01325598091383005 -0.097465734622319 -0.054184842638870044 -0.097765498200310649 -0.0090447159967397776 -0.034703124462326589 0.010558392696891395 0.023471619770306575 0.080440680264138725 -0.01445135562577717 -0.047803667987235544 0.047302940626030673 -0.030179821409300273 -0.068669974558122349 -0.02727154278839972 -0.0054013266077508025 -0.0056012936623576629 0.080021972967822375 -0.030928288078866956 -0.068985436473358641 0.029897335937800775
leaf_count=359 19 38 295 28 363 161 37 68 8 38 44 322 218 9 12 41 29 90 17 15 16 130 41 133 132 19 178 14 20 127 549 73 234 41 64 10 80 295 146 23 291 65 135 175 165 65 44 1368 140 10 225 612 14 9 263 565 81 137 8 138 10 11 50 109 22 61 134 59 117 203 24 84 19 429 146 17 64 43 115 92 10 50 408 459 43 267 317 226 17 130 82 42 55 60 304 54 405 10 187 8 203 352 189 136 96 51 83 182 64 51 40 29 293 60 12 215 403 163 55 76 117 28 16 752 54 17 154 15 129 408 55 34 116 97 134 419 120 73 88 23 229 49 59 102 480 128 82 64 30 11 33 29 11 10 102 32 116 8 64 246 86 307 193 9 76 18 12 22 15 204 48 105 121 8 37 29 87 139 120 162 65 275 27 186 16 101 8 97 110 31 64 8 162 20 52 54 11 30 75 8 9 46 150 11 220 159 97 24 68 49 79 13 15 54 9 24 9 45 9 57 66 191 50 48 361 109 36 8 25 8 14 8 14 27 49 11 17 77 48 64 72 211 32 13 85 9 17 36 12 49 87 12 17 38 9 31 9 9 13 79 12 10 12 9 12 70 8 293 109 295 9 12 10 13 46 8 36 10 53 50 45 16 15 138 8 137 9 12 272 10 69 92 124 26 14 8 84 15 57 20 23 26 13 14 9 94 80 219 21 12 14 26 96 8 164 27 75 117 14 8 9 96 25 84 56
internal_value=0 0.0924994 0.0613842 0.121709 -0.189525 0.434689 -0.0157458 0.366 0.754355 0.225726 -0.136557 -0.0634597 0.0555138 0.260386 0.0477292 0.104475 -0.300569 -0.1036 0.0240656 -0.0287676 0.317119 0.491195 0.0153681 0.0374696 -0.135472 0.133884 0.203621 0.123563 0.264128 0.0575402 -0.191253 -0.352339 0.135447 -0.0242093 -0.0613039 -0.133078 0.00181636 -0.264064 0.18813 -0.00981314 0.0196951 0.315323 0.154145 0.415752 0.374607 -0.0700778 0.224086 0.0174515 -0.073394 0.0920249 0.0188583 -0.297448 -0.117076 0.0987678 0.180997 0.164492 -0.102492 -0.114244 -0.0180845 0.364698 -0.0876725 -0.0321534 0.121144 0.608393 0.0134924 -0.0558197 -0.167298 -0.159813 -0.335116 0.254725 -0.0004809 0.28864 0.267267 0.370438 0.0859173 0.0658927 0.205423 -0.0984481 0.227812 -0.0156015 -0.0933981 -0.11025 0.155544 -0.0210321 -0.512472 0.00433787 0.0509962 -0.0233863 -0.0168064 -0.26944 -0.196423 0.379497 0.0221698 0.0608738 0.169245 0.0698714 0.275573 -0.177707 -0.139353 0.185611 -0.243347 -0.120877 -0.0522728 0.055117 0.0547767 0.986675 0.810465 -0.224718 0.159142 0.182386 0.238267 0.0604236 0.112346 0.0617337 0.0794731 -0.114134 0.06755 -0.0729015 -0.0299556 0.245359 -0.0827287 0.0572569 -0.0746512 -0.311321 0.0830429 -0.0799507 -0.0474136 -0.181898 0.0728934 -0.203431 0.135013 0.135125 0.19584 0.172964 0.080968 -0.155645 -0.115314 -0.0523386 -0.128024 -0.0500117 0.0433938 0.0442699 0.0870737 -0.109974 -0.00340334 0.166337 0.100392 0.142113 -0.0321737 -0.109685 -0.00888283 0.155805 0.182483 -0.0533896 0.0350613 0.0324169 -0.157245 0.0426504 -0.0239912 -0.0333837 -0.0679181 -0.223306 0.211733 -0.0414617 -0.0934468 0.0926841 0.043079 0.080968 0.139678 0.125167 0.105826 0.0731974 0.0978198 -0.0520298 -0.0860146 0.0464677 -0.0880598 -0.097388 0.0804779 -0.0982715 0.0170627 -0.143439 0.250911 0.0267784 -0.0836868 -0.0885221 0.135836 0.365527 0.0776227 0.0059023 0.180442 -0.0601644 0.355494 0.0666328 0.111058 0.141009 -0.134786 -0.18137 -0.180616 0.212143 -0.0641575 -0.171467 0.174804 0.0902726 0.0152055 -0.101475 -0.00843947 -0.0322525 -0.00580347 -0.140734 -0.0108616 0.195315 0.0111702 -0.105925 -0.0039463 -0.0988961 0.222955 0.150805 -0.0736658 -0.0379369 0.136981 -0.0443479 0.0293916 -0.0887444 -0.115347 0.0194775 -0.144859 -0.123873 0.0123529 0.192324 -0.0544304 -0.132509 -0.142853 -0.0730231 0.204787 -0.00150223 0.00845659 0.156113 0.132567 -0.127178 0.0537436 -0.140958 -0.0216655 -0.0296942 -0.0110348 0.140578 0.0848198 0.216038 -0.104181 -0.101549 -0.0542437 -0.0638943 -0.0374412 -0.05745 -0.0477212 0.0326572 0.0183591 0.15488 -0.0846474 -0.0373976 0.173449 -0.00205731 -0.00803354 -0.00461222 0.0327267 -0.096219 -0.12 -0.136367 -0.0899543 -0.259652 0.0597585 0.00944292 -0.292214 0.0299405 0.0264974 0.0163867 -0.19954 0.0135419 -0.0377382 -0.125907 -0.0122752 -0.0248678 0.101858 0.0893372 0.0868232 0.286249 0.384009 -0.00633391 -0.192209 -0.0246874 -0.0318458 -0.048969 0.451558 0.0313597 -0.0250059 -0.00647325 -0.0587128 0.0708595 -0.0444027 -0.196153 0.0475647 0.0612764 0.0715537 -0.0379536 0.0123704 -0.21289 -0.136214 -0.252606 -0.0506392 -0.215958 0.0722397 0.0501473 0.201933 -0.117334 -0.14833 0.115659 -0.103508 -0.180125 -0.154234 0.000777188 -0.048022 0.207285 -0.142711 -0.233549 0.105618
internal_count=31470 21243 19478 10928 10227 1765 8550 1462 303 4245 6932 4881 6683 3075 3669 2609 3295 4335 4074 3299 1526 647 2576 3569 1582 1170 1549 1093 815 1246 2597 1344 2003 1330 1787 2548 606 1951 1424 2629 1133 492 1599 408 340 505 320 2616 575 953 779 1037 2046 850 963 828 670 621 765 304 893 1496 467 239 755 506 1794 1660 1228 717 1708 166 642 809 756 546 337 404 188 565 1022 720 876 1284 116 1635 908 512 448 742 502 757 259 140 712 225 608 892 1153 267 803 613 211 621 457 142 91 914 247 323 548 404 636 453 289 710 706 307 120 199 429 307 427 869 288 690 306 1047 420 590 348 210 251 213 308 730 347 210 387 482 270 79 277 219 802 242 216 192 322 423 125 245 151 290 330 92 582 101 119 472 116 590 371 563 94 164 49 34 397 325 252 330 162 302 135 202 207 212 523 400 201 466 78 481 301 342 73 125 427 127 73 284 591 69 216 138 487 77 192 101 239 97 214 46 237 220 228 196 92 543 206 123 115 193 63 187 93 65 204 66 75 207 183 138 400 145 117 410 122 72 115 127 110 181 64 55 126 159 125 339 218 226 279 222 117 37 40 52 227 73 104 126 67 55 17 173 119 61 130 154 74 112 23 63 21 232 369 368 122 324 54 57 213 30 110 16 66 18 69 402 74 42 34 155 20 177 53 35 821 22 106 105 166 35 26 19 98 26 136 327 33 51 39 25 17 310 99 263 31 375 45 41 125 54 252 35 124 127 96 18 25 109 318 178 94
shrinkage=0.369802


Tree=3
num_leaves=375
num_cat=0
split_feature=1 1 16 1 1 1 16 0 16 1 1 16 16 0 16 4 0 1 7 1 0 1 5 0 7 0 16 1 1 16 0 16 7 0 1 1 0 11 5 3 0 0 6 4 16 16 16 16 11 8 7 0 1 1 5 16 11 0 1 4 16 3 1 0 0 4 1 0 16 16 0 4 14 2 16 5 7 11 0 4 1 0 0 0 5 4 11 4 4 11 4 16 4 1 4 1 11 1 16 3 11 0 0 0 4 3 1 2 2 1 0 16 1 16 8 1 1 11 11 11 0 1 5 16 4 16 0 0 0 1 2 5 0 4 16 0 1 3 7 1 4 2 4 2 0 4 1 16 5 5 16 1 0 0 5 1 4 4 1 1 1 4 8 0 4 16 16 1 0 0 0 2 16 4 0 11 11 1 2 16 1 11 11 7 0 11 0 4 16 11 16 11 0 4 0 16 4 0 1 1 1 11 11 2 11 16 16 0 1 1 4 0 1 16 0 10 16 8 16 5 1 1 1 11 0 0 0 0 0 1 4 1 11 0 1 16 16 16 4 2 0 1 4 11 4 16 16 3 2 8 0 5 6 2 11 1 16 14 2 16 16 11 11 0 2 11 0 16 4 0 0 0 2 11 2 11 2 11 10 1 1 1 0 2 1 2 0 4 0 0 0 11 0 2 2 11 11 0 0 1 4 3 16 0 1 4 16 11 4 0 2 4 1 4 0 11 4 2 16 1 3 0 0 16 16 2 1 3 2 0 11 0 16 2 4 1 16 11 1 1 2 0 0 2 0 0 0 4 1 11 16 2 4 0 3 1 2 0 1 3 16 16 1 4 11 16 0 4 16 1 16 16 7 0
split_gain=226.201 96.8691 35.8524 28.0558 25.0906 24.9368 12.7012 8.3236 8.08944 6.79285 4.91785 4.48615 4.03626 3.8635 3.8133 3.71347 2.68677 2.58283 2.30389 2.22547 2.22067 2.19665 2.13325 2.02627 1.90377 1.87528 1.70335 1.57145 1.51669 1.47215 1.47104 1.43559 1.31049 1.2625 1.23627 1.19547 1.15574 1.14698 1.14062 1.11784 1.32736 0.972694 0.970192 0.956421 0.89977 0.887456 0.854666 0.845022 0.83048 0.822963 0.818836 1.05741 0.789976 0.784395 0.783253 0.778465 0.752595 0.692599 0.679317 0.677857 0.673195 0.658193 0.654706 0.641156 0.631064 0.623825 0.613674 0.607785 0.606221 0.601877 0.578149 0.55824 0.555345 0.55196 0.501047 0.495294 0.735883 0.491237 0.482057 0.474981 0.458468 0.421011 0.420894 0.620657 0.417536 0.416964 0.388745 0.387436 0.385432 0.373793 0.357999 0.330279 0.329094 0.319441 0.318653 0.317426 0.308824 0.308787 0.304217 0.304025 0.301454 0.332273 0.301079 0.298686 0.292902 0.292886 0.289042 0.287505 0.286625 0.282717 0.418102 0.281262 0.351838 0.27224 0.270773 0.307937 0.266483 0.279469 0.265017 0.262835 0.262636 0.250869 0.335668 0.245182 0.243127 0.242361 0.237181 0.235522 0.23527 0.268412 0.233264 0.226915 0.225989 0.360907 0.222287 0.326118 0.222021 0.220043 0.21908 0.216429 0.214812 0.230703 0.213589 0.213364 0.213235 0.209609 0.205957 0.204611 0.204096 0.202843 0.202618 0.199507 0.190857 0.187346 0.184716 0.181663 0.175037 0.173852 0.171748 0.171575 0.171469 0.213362 0.170728 0.167879 0.162537 0.161875 0.160586 0.15927 0.158679 0.155839 0.155114 0.150748 0.150024 0.149178 0.190906 0.145272 0.142303 0.172896 0.141352 0.139384 0.139186 0.137765 0.135994 0.135442 0.135288 0.135941 0.13035 0.130077 0.12969 0.126668 0.123984 0.12163 0.119473 0.118985 0.12601 0.118911 0.118216 0.117183 0.115767 0.114112 0.112468 0.112164 0.112127 0.120631 0.111286 0.110734 0.16936 0.110695 0.109425 0.109285 0.108661 0.107201 0.106718 0.106368 0.106323 0.105397 0.105338 0.107715 0.10398 0.102698 0.102641 0.101527 0.0995239 0.0959545 0.094403 0.0931926 0.0930678 0.0917005 0.0888737 0.12318 0.0884644 0.0882918 0.0880115 0.092435 0.086993 0.0821147 0.0785038 0.0783153 0.0779945 0.0751317 0.0815129 0.0746874 0.0736141 0.0726153 0.0716871 0.0707008 0.0702046 0.0910892 0.0691702 0.068919 0.0679584 0.0679266 0.0671563 0.0627311 0.0734325 0.0606202 0.0605669 0.0583938 0.0577077 0.0576278 0.0937179 0.0742174 0.0571717 0.235392 0.0837372 0.0570443 0.0567358 0.0561511 0.0539795 0.0536439 0.0535973 0.0531958 0.0530233 0.0529628 0.0505962 0.0503479 0.0501237 0.0499543 0.0720878 0.0518481 0.0499433 0.0498993 0.0492758 0.0489961 0.0478589 0.0471324 0.047089 0.0463456 0.0457417 0.0455503 0.042662 0.0416437 0.0572389 0.041329 0.0408914 0.0407443 0.0772092 0.0388414 0.0383825 0.037056 0.0355435 0.0355252 0.050012 0.0342595 0.0335848 0.0335175 0.0350853 0.0345072 0.0342073 0.0323342 0.0322678 0.0321847 0.0318723 0.0313727 0.0312874 0.031012 0.0306438 0.0305231 0.0301973 0.0292513 0.0287107 0.0275822 0.0272994 0.0268447 0.0260326 0.0243041 0.0241778 0.0239962 0.0238846 0.0386305 0.0234577 0.0219306 0.021274 0.0205347 0.0196297 0.0194641 0.122344 0.0189461 0.0186767 0.0233656 0.017614 0.0166079 0.0155041 0.0152514 0.0136119 0.0134722 0.0130001 0.0125939 0.0122568 0.0119458 0.0117705 0.0111102 0.00922163 0.00805602 0.00771686 0.00767433 0.00757667 0.00656711 0.00630891 0.00630063 0.00587117 0.102374 0.00536691 0.00402425 0.0033064 0.0162201 0.00306847 0.0078584 0.00296656 0.0018056 0.00108501 0.0479229 0.000700277 0.000310379
threshold=25.005000000000006 60.410000000000004 -0.65636802231237745 37.005000000000003 82.930000000000021 19.835000000000004 0.11229472375554059 204.50000000000003 0.14645980692288127 40.305000000000007 16.165000000000003 0.43873043604406065 0.14645980692288127 197.50000000000003 1.0000000180025095e-35 15.500000000000002 281.50000000000006 124.07500000000002 1.0000000180025095e-35 44.505000000000003 59.500000000000007 29.705000000000002 1.5000000000000002 473.50000000000006 1.0000000180025095e-35 175.50000000000003 -0.411401519229532 43.530000000000008 28.005000000000006 -0.8115614912327529 357.50000000000006 -1.0131598561079593 1.0000000180025095e-35 70.500000000000014 48.605000000000011 72.855000000000004 124.50000000000001 8.5000000000000018 1.5000000000000002 1.5000000000000002 167.50000000000003 16.500000000000004 1.0000000180025095e-35 4.5000000000000009 0.43873043604406065 -0.8115614912327529 -1.0733517267765327 -0.8115614912327529 9.5000000000000018 1.0000000180025095e-35 1.0000000180025095e-35 49.500000000000007 50.005000000000003 109.31000000000002 1.5000000000000002 -1.0131598561079593 14.500000000000002 101.50000000000001 32.265000000000008 6.5000000000000009 -0.71275555509588562 6.5000000000000009 32.715000000000011 1.5000000000000002 160.50000000000003 10.500000000000002 46.815000000000005 106.50000000000001 -0.8115614912327529 -0.19109970431896869 7.5000000000000009 2.5000000000000004 1.5000000000000002 2.5000000000000004 -0.92380984718569514 1.5000000000000002 1.0000000180025095e-35 12.500000000000002 94.500000000000014 3.5000000000000004 26.705000000000002 522.50000000000011 7.5000000000000009 1.5000000000000002 2.5000000000000004 2.5000000000000004 14.500000000000002 6.5000000000000009 4.5000000000000009 3.5000000000000004 21.500000000000004 1.0000000180025095e-35 3.5000000000000004 69.105000000000018 4.5000000000000009 33.005000000000003 8.5000000000000018 21.605000000000004 0.14645980692288127 6.5000000000000009 14.500000000000002 2.5000000000000004 355.50000000000006 340.50000000000006 5.5000000000000009 6.5000000000000009 23.055000000000003 1.5000000000000002 7.5000000000000009 14.195000000000002 127.50000000000001 2.1946510246663609 21.005000000000006 1.0000000180025095e-35 1.0000000180025095e-35 29.705000000000002 28.005000000000006 11.500000000000002 14.500000000000002 12.500000000000002 186.50000000000003 26.125000000000004 1.5000000000000002 1.5530018824139424 9.5000000000000018 -0.8115614912327529 1.0000000180025095e-35 61.500000000000007 202.50000000000003 33.005000000000003 5.5000000000000009 1.5000000000000002 245.50000000000003 14.500000000000002 1.0000000180025095e-35 473.50000000000006 34.025000000000013 6.5000000000000009 1.0000000180025095e-35 12.835000000000003 31.500000000000004 2.5000000000000004 2.5000000000000004 8.5000000000000018 405.50000000000006 57.000000000000007 57.415000000000006 -1.0733517267765327 1.5000000000000002 1.5000000000000002 0.068346005894514408 42.695000000000007 324.50000000000006 36.500000000000007 1.5000000000000002 26.605000000000004 4.5000000000000009 4.5000000000000009 22.005000000000006 21.005000000000006 25.465000000000003 10.500000000000002 1.0000000180025095e-35 209.50000000000003 13.500000000000002 -0.92380984718569514 0.18941112535659627 30.830000000000002 593.50000000000011 296.50000000000006 3.5000000000000004 1.5000000000000002 -0.8115614912327529 7.5000000000000009 2.5000000000000004 6.5000000000000009 17.500000000000004 41.615000000000002 3.5000000000000004 -1.0131598561079593 22.995000000000001 6.5000000000000009 11.500000000000002 1.0000000180025095e-35 65.500000000000014 9.5000000000000018 407.50000000000006 54.500000000000007 1.0000000180025095e-35 3.5000000000000004 -1.0733517267765327 4.5000000000000009 233.50000000000003 3.5000000000000004 228.50000000000003 -0.23534186443431446 2.5000000000000004 76.500000000000014 22.125000000000004 63.010000000000012 41.405000000000008 23.500000000000004 8.5000000000000018 4.5000000000000009 6.5000000000000009 -0.23534186443431446 -0.411401519229532 529.50000000000011 38.415000000000006 26.705000000000002 4.5000000000000009 307.50000000000006 24.755000000000006 -0.411401519229532 328.50000000000006 1.0000000180025095e-35 0.43873043604406065 1.0000000180025095e-35 -0.3123342647813962 1.5000000000000002 24.995000000000001 22.125000000000004 28.005000000000006 17.500000000000004 190.50000000000003 3.5000000000000004 76.500000000000014 339.50000000000006 556.50000000000011 22.355000000000004 12.500000000000002 32.435000000000009 3.5000000000000004 53.500000000000007 33.005000000000003 1.039956282021937 0.068346005894514408 -0.92380984718569514 14.500000000000002 2.5000000000000004 1.0000000180025095e-35 21.915000000000003 17.500000000000004 9.5000000000000018 5.5000000000000009 -1.0733517267765327 -1.0733517267765327 3.5000000000000004 7.5000000000000009 1.0000000180025095e-35 148.50000000000003 1.5000000000000002 1.0000000180025095e-35 1.5000000000000002 1.5000000000000002 24.405000000000005 -0.71275555509588562 1.5000000000000002 2.5000000000000004 0.43873043604406065 1.5530018824139424 4.5000000000000009 9.5000000000000018 1.0000000180025095e-35 1.5000000000000002 8.5000000000000018 25.500000000000004 -0.8115614912327529 5.5000000000000009 91.500000000000014 53.500000000000007 47.500000000000007 7.5000000000000009 4.5000000000000009 2.5000000000000004 14.500000000000002 10.500000000000002 3.5000000000000004 1.0000000180025095e-35 22.685000000000006 19.075000000000003 57.965000000000011 625.50000000000011 3.5000000000000004 20.005000000000006 1.5000000000000002 413.50000000000006 8.5000000000000018 538.50000000000011 268.50000000000006 570.50000000000011 5.5000000000000009 49.500000000000007 3.5000000000000004 1.5000000000000002 1.5000000000000002 3.5000000000000004 243.50000000000003 473.50000000000006 24.405000000000005 2.5000000000000004 1.5000000000000002 -1.1822978817851213 59.500000000000007 20.005000000000006 14.500000000000002 1.5530018824139424 3.5000000000000004 12.500000000000002 337.50000000000006 1.5000000000000002 7.5000000000000009 54.665000000000006 7.5000000000000009 125.50000000000001 5.5000000000000009 11.500000000000002 9.5000000000000018 -0.3123342647813962 23.235000000000003 3.5000000000000004 1.5000000000000002 367.50000000000006 -0.71275555509588562 0.068346005894514408 4.5000000000000009 20.355000000000004 1.5000000000000002 5.5000000000000009 151.50000000000003 6.5000000000000009 79.500000000000014 -0.71275555509588562 1.5000000000000002 11.500000000000002 19.295000000000005 -0.411401519229532 4.5000000000000009 23.585000000000004 24.560000000000006 4.5000000000000009 424.50000000000006 222.50000000000003 6.5000000000000009 148.50000000000003 17.500000000000004 21.500000000000004 2.5000000000000004 62.310000000000009 7.5000000000000009 -0.71275555509588562 6.5000000000000009 6.5000000000000009 28.500000000000004 6.5000000000000009 26.995000000000001 4.5000000000000009 34.500000000000007 43.005000000000003 1.5000000000000002 0.14645980692288127 0.43873043604406065 29.315000000000001 52.500000000000007 7.5000000000000009 0.14645980692288127 23.500000000000004 10.500000000000002 1.7113214997370925 25.585000000000004 -0.23534186443431446 -0.3123342647813962 1.0000000180025095e-35 2.5000000000000004
decision_type=2 2 2 2 2 2 2 2 2 2 2 2 2 2 2 2 2 2 2 2 2 2 2 2 2 2 2 2 2 2 2 2 2 2 2 2 2 2 2 2 2 2 2 2 2 2 2 2 2 2 2 2 2 2 2 2 2 2 2 2 2 2 2 2 2 2 2 2 2 2 2 2 2 2 2 2 2 2 2 2 2 2 2 2 2 2 2 2 2 2 2 2 2 2 2 2 2 2 2 2 2 2 2 2 2 2 2 2 2 2 2 2 2 2 2 2 2 2 2 2 2 2 2 2 2 2 2 2 2 2 2 2 2 2 2 2 2 2 2 2 2 2 2 2 2 2 2 2 2 2 2 2 2 2 2 2 2 2 2 2 2 2 2 2 2 2 2 2 2 2 2 2 2 2 2 2 2 2 2 2 2 2 2 2 2 2 2 2 2 2 2 2 2 2 2 2 2 2 2 2 2 2 2 2 2 2 2 2 2 2 2 2 2 2 2 2 2 2 2 2 2 2 2 2 2 2 2 2 2 2 2 2 2 2 2 2 2 2 2 2 2 2 2 2 2 2 2 2 2 2 2 2 2 2 2 2 2 2 2 2 2 2 2 2 2 2 2 2 2 2 2 2 2 2 2 2 2 2 2 2 2 2 2 2 2 2 2 2 2 2 2 2 2 2 2 2 2 2 2 2 2 2 2 2 2 2 2 2 2 2 2 2 2 2 2 2 2 2 2 2 2 2 2 2 2 2 2 2 2 2 2 2 2 2 2 2 2 2 2 2 2 2 2 2 2 2 2 2 2 2 2 2 2 2 2 2 2 2 2 2 2 2 2 2 2 2 2 2 2 2 2 2 2 2
