tree
version=v2
num_class=1
num_tree_per_iteration=1
label_index=0
max_feature_idx=101
objective=regression
feature_names=area_num age_month max_floor room_num L D K R S north structure_orderd min_time avg_time bicycle_parking car_parking bike_parking toilet bath sm_doku kanso onsui oidaki b_t_split teiki_syakuya e_num dis_ave dis_min school univ area_par_room 23ku_mean_std facilities_0 facilities_1 facilities_2 facilities_3 facilities_4 facilities_5 facilities_6 facilities_7 facilities_8 facilities_9 facilities_10 facilities_11 facilities_12 facilities_13 facilities_14 facilities_15 facilities_16 facilities_17 facilities_18 facilities_19 facilities_20 facilities_21 facilities_22 facilities_23 facilities_24 facilities_25 facilities_26 facilities_27 facilities_28 facilities_29 facilities_30 facilities_31 facilities_32 facilities_33 facilities_34 facilities_35 facilities_36 bc_0 bc_1 bc_2 bc_3 bc_4 bc_5 bc_6 bc_7 kitchen_0 kitchen_1 kitchen_2 kitchen_3 kitchen_4 kitchen_5 kitchen_6 kitchen_7 kitchen_8 kitchen_9 kitchen_10 kitchen_11 kitchen_12 kitchen_13 kitchen_14 kitchen_15 kitchen_16 23ku_countall area_num_countall age_countall floor_countall max_floor_countall layout_countall direction_countall facilities_countall contract_period_countall
feature_infos=[4.8600000000000003:185.78999999999999] [0:1433] [1:58] [1:6] [0:1] [0:1] [0:1] [0:1] [0:1] [0:1] [0:8] [1:114] [1:172.33333333333337] [0:2] [0:2] [0:1] [0:2] [0:3] [0:1] [0:1] [0:1] [0:1] [0:1] [0:1] [0:10] [0:8340] [0:6997] [0:1] [0:1] [2.915:109.31999999999999] [-1.2807574098213284:2.6514876487406509] [0:1] [0:1] [0:1] [0:1] [0:1] [0:1] [0:1] [0:1] none [0:1] [0:1] [0:1] [0:1] [0:1] [0:1] [0:1] [0:1] [0:1] [0:1] [0:1] [0:1] none [0:1] [0:1] [0:1] [0:1] [0:1] [0:1] [0:1] [0:1] [0:1] [0:1] [0:1] [0:1] [0:1] [0:1] [0:1] [0:1] [0:1] [0:1] [0:1] [0:1] [0:1] [0:1] [0:1] [0:1] [0:1] [0:1] [0:1] [0:1] [0:1] [0:1] [0:1] [0:1] [0:1] [0:1] [0:1] [0:1] [0:1] [0:1] [0:1] [0:1] [867:5971] [1:486] [1:1885] [1:17201] [5:12311] [2:23661] [2667:17695] [1:3063] none
tree_sizes=16391 15862 16503 17014 16691 17135 16091 14320 13598 11762 12786 8894 13726 10844 5732 10900 9695 9440 6781 7121 10154 5098 11207 3787 8131 14194 5187 8875 8893 8682 10198 8037 12181 4667 7964 9175 8425 8026 10304 3152 6728 7729 4706 4784 3822 7494 8772 6421 7681 2761 5631 7460 6773 7790 7044 12556 7111 7794 2763 5364 2930 3994 8521 12841 5759 7772 3607 5606 9654 6485 6574 6785 11005 7831 5239 8656 4694 11318 4670 6920 10966 4654 11433 9061 9811 5508 9456 6508 6667 7723 11768 9576 5175 5009 8414 4602 5820 6977 4168 2765

Tree=0
num_leaves=211
num_cat=0
split_feature=0 29 30 22 30 0 10 30 30 0 0 2 30 30 0 19 30 19 0 19 30 30 88 0 19 0 0 18 2 30 36 19 19 30 57 0 2 18 0 0 36 2 2 29 10 36 10 30 2 0 0 61 2 0 10 20 29 0 0 29 20 19 88 30 18 29 57 19 2 30 30 0 95 11 19 0 0 36 29 81 29 2 95 67 95 95 95 0 0 95 0 10 0 30 0 2 30 88 10 30 30 30 2 95 30 29 30 0 5 29 30 30 30 30 29 0 0 11 61 30 30 30 0 96 0 10 95 30 10 0 19 82 10 88 95 30 95 81 2 30 0 29 41 0 30 12 95 18 12 18 66 10 29 11 36 0 0 20 95 2 88 36 0 0 0 94 5 29 30 30 0 36 95 12 0 11 12 0 2 88 11 20 20 11 100 18 0 11 0 95 2 12 78 0 12 11 30 81 11 11 30 11 30 11 2 2 0 2 96 95
split_gain=2285.34 835.603 474.348 247.341 165.518 155.159 131.994 71.3166 66.1612 56.5713 47.5032 34.7418 33.6441 31.6361 29.9429 27.156 22.15 20.7713 20.4769 20.2674 20.1417 16.7296 16.716 14.618 14.4446 13.0632 11.849 11.4804 9.97448 9.93653 9.87403 8.73876 7.7505 7.52294 7.45446 6.97253 6.56244 6.27763 6.27215 6.25164 6.2311 6.19025 6.10807 5.96534 5.72772 5.71835 5.33671 4.96334 4.70133 4.51779 4.47517 4.42038 4.15549 4.01295 3.79053 3.6995 3.67063 3.59424 3.58727 3.31783 3.17834 3.14512 3.03969 2.97324 2.93978 2.84997 2.81397 2.76456 2.72387 2.69763 2.67393 2.58872 2.58524 2.57192 2.54221 2.4897 2.43057 2.33728 2.30793 2.25235 2.24605 2.20758 2.19723 1.99787 1.95886 1.81912 1.81865 1.75107 1.74671 1.70373 1.65821 1.65729 1.65608 1.62611 1.61477 1.56221 1.54744 1.54128 1.53927 1.53036 1.47114 1.47021 1.38953 1.3682 1.3654 1.35455 1.30689 1.30146 1.28956 1.27518 1.25964 1.21973 1.19744 1.18906 1.17619 1.14512 1.08701 1.08685 1.06834 1.06046 1.02312 1.01978 1.01743 1.01238 1.00998 0.988714 0.939228 0.919663 0.902353 0.876042 0.847572 0.834436 0.831925 0.829345 0.805424 0.804486 0.982699 0.784885 0.766579 0.743038 0.725726 0.723256 0.688109 0.687454 0.673592 0.664454 0.664335 0.663765 0.659217 0.630282 0.625493 0.617677 0.606194 0.605115 0.599627 0.594197 0.579406 0.553084 0.549595 0.526376 0.505085 0.502377 0.499286 0.48973 0.48814 0.483596 0.472064 0.456446 0.443481 0.440067 0.439896 0.432704 0.430598 0.428206 0.41929 0.417105 0.416478 0.405436 0.397776 0.386038 0.370284 0.363952 0.362465 0.342395 0.332127 0.332047 0.329037 0.296307 0.27152 0.262844 0.257045 0.246185 0.22087 0.21715 0.213695 0.208084 0.205228 0.188593 0.17649 0.169134 0.155694 0.148586 0.122116 0.117489 0.11422 0.113874 0.0924093 0.0917361 0.0661124 0.065468
threshold=40.005000000000003 24.843333333333337 -0.8115614912327529 1.0000000180025095e-35 -0.411401519229532 53.045000000000009 6.5000000000000009 0.14645980692288127 0.14645980692288127 32.005000000000003 53.485000000000007 2.5000000000000004 -1.0131598561079593 0.18941112535659627 69.00500000000001 1.0000000180025095e-35 -0.8115614912327529 1.0000000180025095e-35 20.005000000000006 1.0000000180025095e-35 -0.19109970431896869 1.039956282021937 1.0000000180025095e-35 31.755000000000006 1.0000000180025095e-35 69.00500000000001 32.265000000000008 1.0000000180025095e-35 3.5000000000000004 -0.65636802231237745 1.0000000180025095e-35 1.0000000180025095e-35 1.0000000180025095e-35 -0.65636802231237745 1.0000000180025095e-35 70.055000000000021 3.5000000000000004 1.0000000180025095e-35 22.245000000000001 33.795000000000009 1.0000000180025095e-35 6.5000000000000009 4.5000000000000009 24.002500000000001 6.5000000000000009 1.0000000180025095e-35 6.5000000000000009 -0.8115614912327529 6.5000000000000009 29.065000000000001 83.855000000000004 1.0000000180025095e-35 17.500000000000004 46.165000000000006 6.5000000000000009 1.0000000180025095e-35 12.602500000000001 35.590000000000011 28.005000000000006 14.907500000000001 1.0000000180025095e-35 1.0000000180025095e-35 1.0000000180025095e-35 -0.8115614912327529 1.0000000180025095e-35 23.585000000000004 1.0000000180025095e-35 1.0000000180025095e-35 3.5000000000000004 0.43873043604406065 0.43873043604406065 98.780000000000015 576.00000000000011 14.500000000000002 1.0000000180025095e-35 33.005000000000003 34.005000000000003 1.0000000180025095e-35 40.045000000000009 1.0000000180025095e-35 19.502500000000001 18.500000000000004 77.500000000000014 1.0000000180025095e-35 124.50000000000001 499.00000000000006 18.500000000000004 36.535000000000004 33.555000000000007 160.00000000000003 56.845000000000006 6.5000000000000009 16.165000000000003 1.0000000180025095e-35 32.705000000000005 9.5000000000000018 -1.0733517267765327 1.0000000180025095e-35 6.5000000000000009 -0.8115614912327529 0.14645980692288127 -0.92380984718569514 18.500000000000004 148.50000000000003 -0.8115614912327529 27.512500000000006 0.43873043604406065 20.875000000000004 1.0000000180025095e-35 30.452500000000004 1.039956282021937 0.14645980692288127 1.7113214997370925 -0.411401519229532 19.502500000000001 29.275000000000002 51.005000000000003 12.500000000000002 1.0000000180025095e-35 -0.411401519229532 -0.8115614912327529 -1.0131598561079593 24.560000000000006 5059.5000000000009 34.985000000000007 4.5000000000000009 576.00000000000011 -0.8115614912327529 6.5000000000000009 49.125000000000007 1.0000000180025095e-35 1.0000000180025095e-35 1.5000000000000002 1.0000000180025095e-35 951.00000000000011 2.1946510246663609 576.00000000000011 1.0000000180025095e-35 14.500000000000002 -1.0733517267765327 19.835000000000004 26.267500000000002 1.0000000180025095e-35 43.085000000000008 1.039956282021937 14.41666666666667 96.500000000000014 1.0000000180025095e-35 12.125000000000002 1.0000000180025095e-35 1.0000000180025095e-35 3.5000000000000004 32.435000000000009 22.500000000000004 1.0000000180025095e-35 62.285000000000004 51.360000000000007 1.0000000180025095e-35 107.50000000000001 11.500000000000002 1.0000000180025095e-35 1.0000000180025095e-35 80.740000000000023 46.785000000000004 31.015000000000004 20.500000000000004 1.0000000180025095e-35 45.055000000000007 -0.65636802231237745 -1.0131598561079593 63.010000000000012 1.0000000180025095e-35 123.50000000000001 15.708333333333334 46.165000000000006 8.5000000000000018 13.583333333333334 46.455000000000005 7.5000000000000009 1.0000000180025095e-35 12.500000000000002 1.0000000180025095e-35 1.0000000180025095e-35 16.500000000000004 194.50000000000003 1.0000000180025095e-35 59.130000000000003 13.500000000000002 47.165000000000006 96.500000000000014 11.500000000000002 13.583333333333334 1.0000000180025095e-35 28.905000000000005 12.708333333333334 7.5000000000000009 0.43873043604406065 1.0000000180025095e-35 7.5000000000000009 14.500000000000002 -1.0733517267765327 11.500000000000002 -1.0131598561079593 7.5000000000000009 8.5000000000000018 5.5000000000000009 43.615000000000002 8.5000000000000018 14656.500000000002 91.500000000000014
decision_type=2 2 2 2 2 2 2 2 2 2 2 2 2 2 2 2 2 2 2 2 2 2 2 2 2 2 2 2 2 2 2 2 2 2 2 2 2 2 2 2 2 2 2 2 2 2 2 2 2 2 2 2 2 2 2 2 2 2 2 2 2 2 2 2 2 2 2 2 2 2 2 2 2 2 2 2 2 2 2 2 2 2 2 2 2 2 2 2 2 2 2 2 2 2 2 2 2 2 2 2 2 2 2 2 2 2 2 2 2 2 2 2 2 2 2 2 2 2 2 2 2 2 2 2 2 2 2 2 2 2 2 2 2 2 2 2 2 2 2 2 2 2 2 2 2 2 2 2 2 2 2 2 2 2 2 2 2 2 2 2 2 2 2 2 2 2 2 2 2 2 2 2 2 2 2 2 2 2 2 2 2 2 2 2 2 2 2 2 2 2 2 2 2 2 2 2 2 2 2 2 2 2 2 2 2 2 2 2 2 2
left_child=1 3 10 11 12 7 16 15 14 13 17 34 42 19 24 43 39 40 29 48 37 32 76 27 51 41 44 66 98 92 61 82 87 115 56 67 96 63 80 64 65 73 62 91 105 176 158 149 97 54 52 90 130 135 -21 69 86 146 84 196 186 125 164 137 140 129 -18 109 120 -35 -29 118 -48 114 209 95 89 117 113 -60 185 -47 144 101 -32 -46 -1 133 -65 132 -7 179 -13 -61 193 -40 151 -6 163 -58 -77 -39 -80 165 -70 -24 181 -101 -51 -10 -82 142 190 -30 194 161 150 -45 148 175 -28 156 -57 -89 147 -15 192 -94 -84 145 -16 -79 -14 -11 -96 136 -33 -8 -50 -116 -5 -105 -25 -93 178 -2 207 189 205 -36 -42 183 -148 170 -69 -156 -67 -126 -34 -143 184 -20 -150 -17 182 198 -63 -130 195 -66 -75 -91 -76 -123 199 -52 -26 -100 -9 -4 -152 -49 -3 -19 -41 -22 191 -176 -153 -44 -55 -43 -62 -64 -12 -78 -31 -188 -38 -98 -155 -131 -117 -149 -118 -27 -146 -23 -37 -59
right_child=2 4 5 6 9 8 20 31 35 21 25 18 22 30 50 28 23 36 33 49 38 57 26 111 45 71 68 70 78 59 58 53 46 55 47 208 103 83 75 160 116 60 124 77 85 81 72 106 138 108 119 -53 -54 112 -56 122 99 74 79 93 126 166 94 88 169 121 -68 154 104 -71 -72 -73 -74 153 172 100 168 131 102 -81 110 -83 128 -85 -86 -87 -88 123 -90 171 -92 143 127 -95 134 -97 174 -99 177 107 -102 -103 -104 141 -106 -107 -108 -109 -110 -111 -112 -113 -114 -115 139 202 204 -119 -120 -121 -122 173 -124 -125 157 -127 -128 -129 167 201 -132 -133 -134 -135 -136 -137 -138 -139 -140 -141 -142 159 -144 -145 206 -147 152 203 162 -151 180 188 -154 200 155 -157 -158 -159 -160 -161 -162 -163 -164 -165 -166 -167 -168 -169 -170 -171 -172 -173 -174 -175 187 -177 -178 -179 -180 -181 -182 -183 -184 -185 -186 -187 197 -189 -190 -191 -192 -193 -194 -195 -196 -197 -198 -199 -200 -201 -202 -203 -204 -205 -206 -207 -208 -209 -210 -211
leaf_value=11.191342826881858 11.48787559390273 11.389425349139263 11.547574017671218 11.354699145027727 11.467275305061534 11.644412639149534 11.412482927751649 11.623454230410578 11.744319334288932 11.54619347869569 11.595052509114989 11.310207324515245 11.410825481380066 11.489746550417289 11.737972134359032 11.61041550008502 11.382418166925055 11.520177622770005 11.362924801921487 11.518823313160963 11.466058775978217 11.617768714047729 11.464030940143957 11.489240313182563 11.719561890889427 11.667322987226994 11.519726589830659 11.465584671826788 11.676389759033491 11.344617988542067 11.586403530735353 11.732112030155687 11.554865052368751 11.437448639083584 11.305297860603869 11.913705987843159 11.608508514715322 11.475712917721687 11.532893268729902 11.42218911446682 11.494537985461905 11.608743351230773 11.413952840841421 11.621262177331603 11.524289924138513 11.760298229677792 11.647691680847307 11.354353521744248 11.535305450093862 11.583143172259835 11.841720086577071 11.787830697748833 11.863244283907154 11.751958208296028 11.566271721040897 11.498798239866398 11.287538232539401 11.646123421736219 11.605280287222245 11.385545290949707 11.635424520166358 11.578362799115684 11.430441775994845 11.472487372369933 11.397542692506274 11.494638109071161 11.423682316897406 11.794490623320812 11.562966441497574 11.505853533754971 11.541145248573301 11.764455663169407 11.700286277975627 11.557661881920364 11.699313281341064 11.558976656517977 11.521224992921498 11.640107881954988 11.688206688652388 11.660247239146909 11.514826977440389 11.816640646980211 11.662025685962849 11.592792139676263 11.620410038458433 11.550816482894522 11.282654726613218 11.654905393636597 11.529825556064839 11.47688269380034 11.686965040804353 11.577540122568607 11.337834597502724 11.41704464262831 11.472109621290494 11.56480888697828 11.563691760297415 11.507140051341061 11.64940686174808 11.320515552085428 11.640767882263338 11.510367638095882 11.750964748664716 11.680403489580408 11.615273558637078 11.50577068128816 11.425677957735004 11.38564551025452 11.619697005519296 11.82385001727584 11.541947454325946 11.59013024803914 11.833471755454404 11.744981474281975 11.586796533152182 11.417910317300212 11.574481794654941 11.557737684576392 11.721153424639592 11.866145941615507 11.567620248875835 11.569309346867763 11.596490286850585 11.595723689500073 11.492213723888234 11.545821252078158 11.705141085739989 11.376968738877595 11.720131776806927 11.523928986649265 11.782725570681931 11.680993645457185 11.455070340702246 11.586481434451771 11.537447286253347 11.776353665738093 11.764223356888829 11.452262133736181 11.599716470287802 11.62058941749406 11.378313201085694 11.607197542470789 11.528147679569239 11.612073954726501 11.663150009163054 11.454922770599298 11.629777083590314 11.493445000422504 11.636569679969293 11.384492917241348 11.549569972001908 11.530599412702452 11.691491194927547 11.512541609381097 11.845869054330306 11.882189811424819 11.542509118156316 11.554670537137721 11.604314715154175 11.641700443493518 11.474114528499753 11.405356636952723 11.680007720572165 11.646235470838223 11.434350070428616 11.534180334934719 11.624785190644893 11.775677019324426 11.549413219086134 11.425660856581215 11.596754649663749 11.517792738400981 11.765069177205209 11.518032915128362 11.603762239984251 11.78756681111993 11.67740249102753 11.705426142637819 11.681654408356254 11.580667265332195 11.510393562174277 11.380880944357033 11.426907398171538 11.47049576679478 11.457148856015385 11.509778129729582 11.633005544092496 11.56772340439923 11.571139516774018 11.468401626727939 11.79308351634613 11.569935983662665 11.670145143412304 11.45531950513406 11.557585499227605 11.478173097600314 11.38661808426223 11.596624743764075 11.568060821958928 11.534355837787361 11.544072867671701 11.491235420510321 11.462793541647885 11.475803904935812 11.605939929784792 11.720481665196303 11.708647594136298 11.653967323465057 11.842661047399044 11.684705685856455
leaf_count=47 108 162 125 297 274 169 106 54 53 106 22 231 68 66 118 182 243 62 137 213 96 30 181 83 80 23 72 502 43 190 276 406 30 361 267 270 33 176 315 291 33 37 21 200 1012 332 447 401 214 272 78 41 66 74 1632 22 206 25 115 510 65 137 156 612 269 157 998 42 77 81 59 40 144 106 24 43 30 143 694 346 591 131 28 28 642 407 125 47 67 87 322 107 308 347 82 378 77 187 45 398 58 653 47 28 212 176 46 51 184 78 286 25 99 185 112 24 38 36 43 163 159 46 24 112 28 75 65 133 105 35 175 112 233 124 29 153 222 157 22 235 638 129 135 175 24 242 26 163 123 21 178 40 136 25 389 179 35 35 169 92 34 72 48 62 81 21 30 37 35 130 46 47 135 29 50 81 75 33 21 57 31 147 61 21 49 28 55 55 33 34 137 39 52 93 70 24 42 30 21 30 56 32 25 81 22 24 36 23 29 33
internal_value=0 -0.179084 0.408833 -0.36283 0.0304224 0.560262 -0.25198 0.423014 0.73416 0.130262 0.0793448 -0.555895 -0.133008 0.0746447 0.619045 0.312452 -0.383127 -0.0322108 -0.48049 0.0129857 -0.114963 0.291856 -0.0765399 -0.312597 0.519694 0.221503 -0.0397108 -0.343636 0.407027 -0.539452 0.184147 0.600544 0.229825 -0.340768 -0.666163 0.936037 0.100512 -0.189714 -0.0399817 -0.46734 -0.125367 0.166954 -0.287987 0.184309 -0.0785782 0.624119 0.286708 -0.599975 -0.136287 0.058242 0.785808 0.397442 0.702855 0.642824 0.0361698 -0.266761 -0.735941 0.460227 0.220281 -0.479294 0.276163 0.0221743 -0.345045 -0.246088 -0.499669 -0.178126 -0.397384 0.879946 0.0929316 -0.29479 -0.224241 0.404285 0.334426 0.110883 0.552386 0.0263771 -0.237529 0.261092 0.457816 0.292494 -0.092592 0.680665 0.447698 -0.127534 0.183738 -0.0500186 -0.873875 0.113862 -0.2105 -0.268321 0.36964 0.102669 -0.636082 -0.449134 -0.281218 0.00489782 0.00903294 -0.19495 0.253241 -0.69844 0.172256 -0.136438 0.429051 0.204066 0.157471 -0.191638 -0.545207 -0.659776 0.147272 0.730253 -0.0746079 -0.0819585 0.743155 0.549015 0.155878 -0.479175 -0.00567799 0.187955 0.365243 0.875826 0.0118548 -0.0969144 0.00310529 0.194287 -0.182664 -0.0874708 0.366752 -0.595067 0.525055 -0.229767 0.646725 0.327778 -0.310331 0.0576607 -0.178225 0.602098 0.582217 -0.336819 -0.0213564 0.182501 -0.53124 0.239703 -0.106007 0.150563 0.347133 -0.249947 0.365078 -0.206895 0.333546 -0.71065 -0.0356269 -0.0663291 0.398293 0.0258006 0.910843 0.922641 -0.135376 -0.0662204 0.144026 0.218582 -0.350998 -0.512813 0.300757 0.212505 -0.419458 0.0841455 0.11472 0.559259 -0.0857162 -0.424542 0.0628742 -0.172349 0.619098 0.00203052 0.0645405 0.797084 0.451922 0.37636 0.276387 0.0280411 -0.0150784 -0.559474 -0.446279 -0.124822 -0.363164 -0.218167 0.172123 0.109162 0.000961864 -0.30758 0.689335 0.121461 0.307619 -0.326231 0.0545752 -0.141741 -0.588292 0.215474 0.133558 0.0201436 -0.0436843 -0.122218 -0.328298 -0.183034 0.113713 0.444071 0.42957 0.258042 1.07164 0.362093
internal_count=31212 21705 9507 11563 10142 6513 7347 3642 2871 6296 2994 4216 3846 4685 1831 2246 3753 1678 2507 2998 3594 1611 2820 2045 1150 1316 2296 1802 1291 1761 1687 1396 1179 746 1709 1040 692 1799 1795 1708 986 1015 1026 955 1776 618 790 882 697 2301 681 532 359 1091 1845 488 827 432 1379 1089 343 308 664 942 1334 684 1241 741 520 442 561 301 591 672 217 794 524 491 969 461 1001 463 305 857 918 1419 172 389 679 435 491 464 672 857 360 693 368 461 322 655 101 829 741 324 289 357 594 449 456 131 877 243 310 228 439 258 302 236 261 322 231 267 46 159 362 141 182 441 170 417 293 255 301 230 111 781 628 263 236 347 935 249 218 282 135 350 215 299 218 288 242 156 162 233 610 568 192 63 199 221 374 209 171 244 304 75 167 142 89 399 152 134 159 75 212 159 155 78 75 182 209 548 223 83 340 124 161 105 73 55 211 76 117 249 92 54 232 85 54 107 81 67 49 244 60 47 60 53 299 58
shrinkage=1


Tree=1
num_leaves=200
num_cat=0
split_feature=4 0 10 30 0 18 30 30 1 18 30 30 2 0 30 0 0 0 0 1 10 30 1 0 1 0 0 1 1 30 1 1 0 29 10 0 30 0 30 17 1 30 1 30 1 10 36 0 1 1 30 1 2 0 30 10 1 29 1 1 1 1 29 0 0 0 0 2 97 0 1 29 0 1 12 30 2 30 30 1 0 0 0 88 11 36 1 0 0 0 1 30 1 1 1 1 98 12 1 36 12 2 1 30 29 0 0 0 1 1 30 2 1 96 0 30 0 0 11 12 36 36 2 30 1 94 11 0 1 29 1 11 29 66 1 10 0 0 2 98 1 1 0 96 2 18 30 81 93 81 30 96 88 81 30 0 2 30 1 29 29 88 1 10 35 1 36 93 1 1 29 0 88 55 0 12 69 20 2 18 30 1 95 95 30 1 0 30 12 0 2 1 12 97 12 1 11 80 11
split_gain=1118.64 360.65 152.661 143.201 77.3133 51.9108 40.4187 29.7983 28.4485 26.4121 24.787 15.1868 14.8276 14.2361 13.4254 13.0792 11.742 11.4598 10.5909 10.0504 9.03037 8.90244 8.82879 8.60075 8.53662 8.46608 7.7843 7.81126 7.35929 6.5302 6.41056 6.39905 5.86863 5.55054 4.86305 4.43923 4.39296 4.33028 3.94306 3.86485 3.65575 3.64806 3.56731 3.48446 3.38962 3.26763 3.12466 2.96913 2.78916 2.47142 2.45279 2.4322 2.3925 2.30731 2.30687 2.23825 2.22927 2.22181 2.19167 2.12141 2.06291 1.90204 1.89981 1.88431 1.77289 1.64509 1.52329 1.49715 1.46915 1.45546 1.46753 1.45046 1.44915 1.42393 1.41863 1.41559 1.40756 1.26069 1.24021 1.22367 1.21549 1.16828 1.15204 1.1406 1.12973 1.12561 1.118 1.08797 1.04647 1.04161 1.01921 0.958416 1.6397 0.914752 0.889689 0.877238 0.833309 0.815233 0.805644 0.797954 0.786304 0.786005 0.765531 0.75616 0.740107 0.731496 0.720495 0.720444 0.710689 0.708372 0.700705 0.66317 0.660584 0.6533 0.646497 0.645081 0.636256 0.61177 0.600467 0.597033 0.542535 0.530911 0.522042 0.514903 0.51105 0.505077 0.498015 0.494996 0.48985 0.483154 0.475988 0.474692 0.462916 0.461205 0.451679 0.439021 0.424528 0.419728 0.402597 0.397869 0.395041 0.388362 0.370578 0.367879 0.356773 0.344794 0.344237 0.331686 0.329138 0.322033 0.320566 0.32055 0.317309 0.315213 0.278446 0.274677 0.269288 0.263442 0.263008 0.262341 0.248748 0.243097 0.236142 0.235947 0.232827 0.232364 0.225648 0.221837 0.215309 0.210539 0.207643 0.187066 0.172832 0.169045 0.167432 0.165925 0.147972 0.144385 0.141255 0.139193 0.131088 0.13085 0.130214 0.127522 0.124985 0.11996 0.113491 0.108805 0.0998627 0.0936225 0.0884292 0.0875777 0.0872719 0.0626623 0.0562374 0.0375746 0.0353172 0.0348 0.0340161
threshold=1.0000000180025095e-35 20.005000000000006 4.5000000000000009 -0.8115614912327529 53.045000000000009 1.0000000180025095e-35 0.14645980692288127 1.039956282021937 319.50000000000006 1.0000000180025095e-35 0.14645980692288127 -0.8115614912327529 6.5000000000000009 48.605000000000011 0.43873043604406065 28.005000000000006 29.675000000000004 75.980000000000004 29.765000000000004 220.50000000000003 1.5000000000000002 -0.8115614912327529 45.500000000000007 16.165000000000003 32.500000000000007 30.455000000000002 30.005000000000006 271.50000000000006 307.50000000000006 -0.8115614912327529 204.50000000000003 281.50000000000006 69.00500000000001 33.435000000000009 6.5000000000000009 39.705000000000005 -0.8115614912327529 44.840000000000011 -0.8115614912327529 1.0000000180025095e-35 202.50000000000003 -0.8115614912327529 79.500000000000014 -0.8115614912327529 97.500000000000014 6.5000000000000009 1.0000000180025095e-35 62.285000000000004 167.50000000000003 138.50000000000003 -0.8115614912327529 202.50000000000003 13.500000000000002 42.395000000000003 -0.8115614912327529 6.5000000000000009 383.50000000000006 26.362500000000001 268.50000000000006 300.50000000000006 190.50000000000003 259.50000000000006 16.787500000000005 49.635000000000012 38.005000000000003 42.245000000000012 110.25500000000001 2.5000000000000004 125.50000000000001 51.360000000000007 383.50000000000006 13.490000000000002 44.305000000000007 233.50000000000003 8.8750000000000018 -0.411401519229532 9.5000000000000018 0.14645980692288127 0.43873043604406065 130.50000000000003 44.840000000000011 98.780000000000015 23.745000000000001 1.0000000180025095e-35 14.500000000000002 1.0000000180025095e-35 204.50000000000003 36.535000000000004 60.915000000000006 39.505000000000003 228.50000000000003 -0.8115614912327529 411.50000000000006 125.50000000000001 1.5000000000000002 34.500000000000007 9939.5000000000018 16.125000000000004 28.500000000000004 1.0000000180025095e-35 8.8750000000000018 2.5000000000000004 202.50000000000003 0.14645980692288127 38.170000000000009 9.7550000000000008 53.935000000000009 22.125000000000004 245.50000000000003 383.50000000000006 -1.0733517267765327 2.5000000000000004 245.50000000000003 11261.000000000002 63.010000000000012 1.7113214997370925 36.535000000000004 44.305000000000007 13.500000000000002 14.708333333333334 1.0000000180025095e-35 1.0000000180025095e-35 4.5000000000000009 1.0000000180025095e-35 190.50000000000003 7.5000000000000009 13.500000000000002 14.555000000000001 5.5000000000000009 37.507500000000007 25.500000000000004 17.500000000000004 18.173333333333336 1.0000000180025095e-35 283.50000000000006 1.5000000000000002 72.700000000000003 42.005000000000003 3.5000000000000004 16919.000000000004 363.50000000000006 376.50000000000006 54.405000000000008 11261.000000000002 2.5000000000000004 1.0000000180025095e-35 -1.0131598561079593 1.0000000180025095e-35 4164.5000000000009 1.0000000180025095e-35 -1.0733517267765327 1325.0000000000002 1.0000000180025095e-35 1.0000000180025095e-35 0.11229472375554059 65.555000000000021 11.500000000000002 1.5530018824139424 1.5000000000000002 42.165000000000006 19.995000000000001 1.0000000180025095e-35 52.500000000000007 1.5000000000000002 1.0000000180025095e-35 1.5000000000000002 1.0000000180025095e-35 2538.0000000000005 70.500000000000014 233.50000000000003 18.173333333333336 43.615000000000002 1.0000000180025095e-35 1.0000000180025095e-35 14.185 11.583333333333334 1.0000000180025095e-35 1.0000000180025095e-35 2.5000000000000004 1.0000000180025095e-35 0.068346005894514408 345.50000000000006 59.500000000000007 79.500000000000014 -1.0131598561079593 305.50000000000006 71.00500000000001 1.7113214997370925 8.5833333333333339 44.590000000000011 3.5000000000000004 256.50000000000006 14.125000000000002 2348.0000000000005 15.708333333333334 27.500000000000004 10.500000000000002 1.0000000180025095e-35 8.5000000000000018
decision_type=2 2 2 2 2 2 2 2 2 2 2 2 2 2 2 2 2 2 2 2 2 2 2 2 2 2 2 2 2 2 2 2 2 2 2 2 2 2 2 2 2 2 2 2 2 2 2 2 2 2 2 2 2 2 2 2 2 2 2 2 2 2 2 2 2 2 2 2 2 2 2 2 2 2 2 2 2 2 2 2 2 2 2 2 2 2 2 2 2 2 2 2 2 2 2 2 2 2 2 2 2 2 2 2 2 2 2 2 2 2 2 2 2 2 2 2 2 2 2 2 2 2 2 2 2 2 2 2 2 2 2 2 2 2 2 2 2 2 2 2 2 2 2 2 2 2 2 2 2 2 2 2 2 2 2 2 2 2 2 2 2 2 2 2 2 2 2 2 2 2 2 2 2 2 2 2 2 2 2 2 2 2 2 2 2 2 2 2 2 2 2 2 2 2 2 2 2 2 2
left_child=1 8 9 13 7 14 16 12 23 18 17 37 28 30 22 44 24 19 31 45 39 63 100 75 41 42 27 -24 34 80 55 54 46 60 87 61 73 67 -26 174 57 -7 96 120 74 121 79 49 53 122 141 142 -23 130 111 98 -28 123 77 113 82 -17 91 -18 145 -36 76 110 -47 70 -27 -45 -61 144 -8 105 169 95 -46 114 109 90 -16 167 94 137 -37 -5 -85 -59 131 -41 -93 -56 156 -38 -13 146 133 132 139 -52 -44 140 -35 197 134 -62 136 -20 -11 -3 187 -31 135 168 -50 172 147 -66 160 -6 -12 -14 -78 -69 181 195 -96 186 158 178 -73 -2 -39 -15 138 179 -49 -4 -64 -33 194 180 -25 -30 -81 -53 171 -71 163 -132 -119 -144 -102 -99 -57 -101 -9 191 175 -79 -129 -100 -108 -107 -145 -21 -55 -19 -122 -87 -42 -161 -10 -22 -152 -167 -34 192 -60 -92 -114 -82 -135 -120 -110 -51 -146 -117 -75 -118 -32 -124 -48 -77 -139 -1 -181
right_child=3 2 5 4 10 6 15 48 20 11 47 25 40 32 33 35 21 66 29 83 43 52 26 36 38 69 56 -29 64 59 85 50 81 104 65 86 58 106 -40 62 117 -43 102 71 78 68 51 108 116 112 101 118 -54 115 93 84 -58 89 143 72 107 -63 103 -65 119 -67 -68 125 -70 149 -72 99 -74 190 -76 127 124 161 -80 97 183 -83 -84 88 -86 148 -88 -89 -90 -91 126 92 -94 -95 128 -97 -98 155 150 157 154 -103 -104 -105 -106 165 164 -109 129 -111 -112 -113 182 -115 -116 189 159 152 185 -121 170 -123 193 -125 -126 -127 -128 162 -130 -131 151 -133 -134 184 -136 -137 -138 196 -140 -141 -142 -143 153 166 188 -147 -148 -149 -150 -151 176 -153 -154 -155 -156 -157 -158 -159 -160 173 -162 -163 -164 -165 -166 177 -168 -169 -170 -171 -172 -173 -174 -175 -176 -177 -178 -179 -180 198 -182 -183 -184 -185 -186 -187 -188 -189 -190 -191 -192 -193 -194 -195 -196 -197 -198 -199 -200
leaf_value=-0.18543143301405313 0.055245511345521428 -0.11070086303683338 0.087045362816631305 0.023479286437767075 0.098296726655764555 -0.016247821919858706 0.059780233364378439 0.13144249844508724 -0.28151890302600752 -0.10155448707865153 0.15912673935351401 0.018672029518327179 0.12935718492035425 0.0043743830953845708 0.0056628232324128719 0.074226092209881758 -0.020685154338783276 0.17853248109217812 -0.073614511949164255 0.042789785828541795 -0.14762425839326035 0.035070186792019488 -0.040741444410442293 -0.10817595755763076 -0.053721911541362313 0.01493335441423525 0.0044162821405383497 -0.08544740465544963 -0.040886917221677081 0.07363583933501977 -0.067778624024978654 -0.12561543992634971 0.088631008632441916 0.06874829281972171 0.074242043483589898 0.13558269629726205 -0.044900525665838721 -0.015329028298879228 -0.015191894065387656 -0.19781657421768734 0.01410070709407747 0.017463578771700794 -0.049984531951382201 -0.15750704452935232 -0.012571177895300906 0.19576120728657118 0.068499405165401456 0.1672966783200778 0.051140731825032724 0.16405961486385842 -0.11343626964388644 0.055780828975933762 0.078117701922039318 0.17872102049618063 -0.032847109850778974 -0.0014850948026862284 -0.035486125021287979 0.085925065528431308 -0.082075020063729631 -0.044801671862151685 -0.036730575431492787 0.02358187292441967 -0.13171199433763203 0.019173618746284187 0.0376767964721412 0.10979450137368782 0.24338657184897244 -0.036569330215807001 0.15351204777899655 0.085773676379274438 -0.035596916427436662 -0.12625782294500665 0.027098039324026466 -0.14906454747598191 0.031502917141942484 -0.098820728592751109 0.23548580960621265 -0.053552450603057231 0.021991323612116948 0.006541412494302813 -0.05341814665660756 0.15102865664248685 0.050685153673123276 0.076167593562540103 -0.033581456947183549 -0.016532100782821049 0.088823814930770642 0.055380117506495095 0.11573314340382891 0.11305454005680454 0.085480481309122822 -0.14357295188238114 -0.19028509779381664 -0.069967345920859347 0.073651408125824505 -0.07298704032128181 -0.023204949632867303 -0.011657424956751152 -0.053321169378193631 -0.10299658268138218 -0.0019384777011274515 -0.086899837700758126 -0.080895834915518203 -0.096185867417916765 0.14907086491171659 -0.091519503087189799 -0.024378140802675037 -0.0045068706803742921 0.14940570056011229 -0.10156945504558765 -0.076158185131486422 -0.078644154329521473 0.10205480917768033 0.0061257727153198787 0.077411097631733553 0.16523109362532146 0.10908327247068801 0.052189924025570503 0.019104916289402973 -0.0059131540667115845 -0.14479768977781624 0.14698182238881854 0.24308912294250942 0.1793296114274523 0.16392638629142395 -0.066588758445838114 0.027242701046898965 -0.058868059913183002 0.039368412214966085 0.22967666209795728 0.15469812117377993 0.063840190404160488 -0.10459211647514526 -0.0015207284693973763 -0.051127745512119294 0.039081202435594452 0.25952625118266326 -0.030644889862117223 0.23155892308963019 0.034680584598023319 -0.15884415933673574 -0.14960490172721161 0.096592764828460756 -0.10806979061058604 -0.056260145894515341 -0.0029679735584939881 0.046949549902159778 0.028797074984474352 -0.047072330329664659 0.033747847658107288 0.003409802378291592 0.11711061442545687 0.094248318189505798 0.056524460843509497 0.034522341065224185 0.022005819864291284 0.039153429319562866 -0.067499002671339584 0.1592295925293627 0.1448452189387078 -0.11750484639008293 -0.024045387173032139 -0.096777299777666193 -0.018122518110926012 0.017176990823130425 -0.13739725289100196 -0.064491712746209545 0.072872762908649386 0.14415171915384672 0.15102297796594438 -0.10589214140092791 0.021929779862268732 0.04874936287195962 0.10349745562957871 -0.21449955512532959 -0.17256624983712052 -0.023753032037844266 -0.11879378274916826 0.12688697626320553 -0.045624325383321507 -0.04996593691336295 0.052663854073493249 0.14602406450403133 -0.01938224225115627 0.017749514618405501 -0.010909227092967972 0.19704249992207959 0.19817362022534127 -0.085669235877881431 0.2124285134077423 -0.11588696929851575 0.077702731286734647 -0.10107699968611249 0.20893610232779339 0.045496384421047358 -0.11814956321604769 -0.049814693500771501 -0.13908389415227354 -0.069183071625444806
leaf_count=37 24 213 23 166 134 479 417 102 29 238 28 60 67 53 157 753 425 169 228 49 114 1111 1116 120 357 465 320 727 58 21 28 216 27 29 374 167 201 69 1802 183 23 1450 306 102 158 140 47 25 21 100 401 122 167 87 99 57 308 228 63 268 115 95 144 193 173 256 63 76 452 32 74 536 35 73 390 71 75 41 439 39 21 36 107 137 24 34 102 456 198 733 58 219 172 341 79 364 440 157 36 305 89 216 134 41 28 31 21 239 34 217 304 132 24 61 40 30 75 37 33 44 57 38 80 62 27 541 35 45 127 66 46 28 192 95 96 184 145 35 222 60 240 218 151 133 23 50 61 95 24 26 71 167 62 32 31 32 26 34 195 58 26 143 44 55 48 210 21 87 81 114 47 23 64 32 41 201 32 173 72 23 27 27 49 33 62 26 43 59 157 87 40 27 33 122 30 116 25 24 29
internal_value=0 -0.119117 -0.0523021 0.300635 0.376421 0.0121751 0.0537003 0.285711 -0.360694 -0.187557 0.506949 -0.121614 0.233343 0.0875356 -0.0932652 0.159883 0.00894714 0.432368 -0.25852 0.381999 -0.429508 0.0739718 -0.125067 -0.274939 -0.0212217 -0.0530196 -0.141536 -0.17429 0.168311 -0.168271 -0.0073131 -0.301858 0.152005 0.0327165 0.203094 0.240614 -0.228465 -0.197206 -0.0644038 -0.501324 0.31352 0.0271173 -0.112122 -0.381661 0.095529 0.453007 0.118822 0.632287 0.433552 0.56916 -0.35306 0.173508 0.121594 0.461276 -0.232943 0.0428291 -0.0452897 0.335714 -0.192037 -0.0701555 0.00494679 0.204645 -0.484334 -0.0245451 0.0340991 0.265075 0.570055 -0.222255 0.488787 0.0400715 0.0236987 -0.352158 -0.10871 -0.315371 0.137761 -0.361527 0.542685 -0.164791 0.0383058 0.0668188 -0.243679 0.280344 0.0717095 0.266102 0.105123 -0.142767 0.352821 0.139991 0.29786 0.318407 0.253804 -0.523603 -0.490989 -0.184123 0.122462 -0.188251 -0.0541614 0.0211643 -0.00930631 -0.340466 0.0751078 -0.31121 -0.177714 -0.43019 0.328508 -0.395622 -0.0727173 -0.0449034 0.685633 -0.26091 -0.261008 -0.294492 0.490639 0.0718964 0.114202 0.535871 0.328397 0.182351 0.107509 0.0860844 -0.458198 0.327739 0.645892 0.461202 0.651417 -0.187845 0.184918 -0.301629 0.157568 0.606863 0.418621 0.316935 -0.360123 0.0385831 -0.108431 0.0936033 0.712748 -0.188148 0.673598 0.149358 -0.444692 -0.411702 0.242887 -0.274658 -0.277316 -0.0701814 0.0937265 0.131746 -0.0447255 0.189235 -0.0539568 0.375695 0.236343 0.268335 0.0229377 -0.0175185 0.0344889 -0.297317 0.448039 0.346733 -0.479914 -0.0921233 -0.234161 -0.0969034 0.0130106 -0.378108 -0.30608 0.186265 0.48637 0.501335 -0.383094 -0.0026854 0.118917 0.392199 -0.733539 -0.489441 -0.0154429 -0.385874 0.35043 -0.22439 -0.218109 0.226144 0.397274 -0.0995134 0.0183584 0.01765 0.531695 0.530747 -0.245394 0.602215 -0.413075 0.303189 -0.259991 0.667148 0.179733 -0.332319 -0.117323 -0.506457 -0.178498
internal_count=31212 22344 17504 8868 6541 11854 8505 3861 4840 5650 2680 2930 2853 2327 3349 2521 5984 1683 2720 1235 2683 1896 2674 2157 4088 1537 2471 1843 1577 884 942 1836 1385 675 1252 1117 1406 1393 2159 1069 1276 1929 940 1614 1404 764 1102 997 1008 462 1051 536 1278 795 785 688 628 1090 993 385 618 848 999 618 325 630 448 1159 592 597 539 1169 303 413 807 751 385 749 597 566 499 283 264 471 313 254 269 622 335 961 247 574 391 440 289 565 500 289 375 1067 203 617 440 425 57 475 234 354 535 445 542 345 232 82 277 285 213 186 276 217 445 172 230 129 102 617 120 276 206 143 510 127 728 181 165 237 392 173 247 83 384 434 260 244 300 108 100 217 81 58 194 213 99 183 120 189 83 339 297 192 341 184 89 91 69 414 154 136 168 283 104 57 87 90 70 315 103 383 99 113 90 85 73 54 157 59 77 159 180 117 113 102 61 202 77 187 60 61 52
shrinkage=0.335151


Tree=2
num_leaves=207
num_cat=0
split_feature=4 0 36 2 1 0 88 0 10 10 97 1 0 2 12 45 1 0 1 0 12 0 1 1 93 12 1 0 1 0 29 0 18 1 12 12 2 0 0 29 2 12 12 93 21 0 0 10 1 1 1 98 1 1 12 0 0 0 11 1 93 12 1 57 0 21 2 97 12 12 12 0 1 36 22 93 1 1 1 12 1 0 93 0 12 95 14 97 0 93 2 23 0 0 1 1 88 11 3 12 11 1 12 25 1 12 11 88 1 95 11 1 12 28 1 2 93 1 93 0 0 29 0 12 12 95 10 93 1 12 11 95 11 12 1 96 91 95 17 93 93 93 0 97 1 0 25 93 12 1 93 96 96 11 12 93 34 11 70 96 93 11 36 1 93 96 29 10 2 1 91 0 42 95 2 29 35 98 2 29 96 1 0 94 93 1 95 94 0 46 12 25 11 1 12 29 25 99 0 12 95 1 12 2 11 13
split_gain=498.484 170.851 61.3367 44.3298 35.595 28.7257 16.2158 15.6659 13.5642 13.3788 12.9272 8.05069 8.00857 7.27126 6.37595 5.45946 5.3436 5.33729 5.46146 4.54424 4.46903 4.42824 4.11297 3.92255 3.66282 3.63109 3.31751 3.05977 2.8885 4.11041 2.68205 2.56159 2.37101 2.36971 2.27271 2.26135 2.2193 2.10783 1.98913 1.96436 1.95182 1.91131 1.88632 1.84729 1.72956 1.66214 1.59382 1.58697 1.4631 1.43192 1.42889 1.41738 1.35755 1.31832 1.29255 1.28492 1.25778 1.25615 1.347 1.25433 1.20506 1.20488 1.19591 1.18429 1.15301 1.1425 1.12291 1.11865 1.06653 1.06464 1.05425 1.04173 1.04141 0.987078 0.965836 0.96142 0.935114 0.933941 0.905834 0.904109 0.886677 0.858773 0.791371 0.787078 0.77552 0.752647 0.751359 0.750451 0.750256 0.723355 0.718409 0.700802 0.639728 0.636515 0.631774 0.625497 0.599904 0.595278 0.589335 0.564999 0.562541 0.562189 0.558807 0.54468 0.544167 0.543275 0.539705 0.526957 0.508954 0.507727 0.499908 0.499841 0.499718 0.4914 0.490744 0.485849 0.474329 0.472462 0.461284 0.446055 0.439962 0.434072 0.431812 0.423602 0.421216 0.547448 0.419145 0.412126 0.410169 0.408455 0.404824 0.403114 0.400098 0.396594 0.371698 0.367959 0.354263 0.353184 0.350037 0.343454 0.343021 0.341458 0.409714 0.338638 0.330052 0.57861 0.328837 0.300749 0.297245 0.297235 0.296054 0.295186 0.288362 0.283611 0.280283 0.258759 0.255834 0.243213 0.241948 0.235109 0.232131 0.205082 0.203609 0.368135 0.200199 0.199525 0.199443 0.199346 0.192901 0.188426 0.187722 0.182157 0.177233 0.176631 0.172714 0.171601 0.155612 0.152479 0.145189 0.139077 0.134014 0.13399 0.13278 0.127969 0.1231 0.119665 0.118518 0.112376 0.100864 0.091985 0.0915137 0.0763443 0.0751879 0.0747128 0.0687606 0.062829 0.0617897 0.0542965 0.0506963 0.0272709 0.0217524 0.0175447 0.0169274 0.0165161 0.0114278 0.00510868
threshold=1.0000000180025095e-35 22.005000000000006 1.0000000180025095e-35 9.5000000000000018 276.50000000000006 67.02500000000002 1.0000000180025095e-35 28.615000000000006 4.5000000000000009 6.5000000000000009 178.00000000000003 281.50000000000006 41.405000000000008 11.500000000000002 8.8750000000000018 1.0000000180025095e-35 127.50000000000001 33.285000000000004 34.500000000000007 49.125000000000007 16.708333333333339 48.605000000000011 156.50000000000003 228.50000000000003 3334.0000000000005 17.416666666666668 164.50000000000003 27.085000000000004 268.50000000000006 36.535000000000004 14.907500000000001 16.375000000000004 1.0000000180025095e-35 72.500000000000014 16.708333333333339 12.708333333333334 3.5000000000000004 62.285000000000004 51.005000000000003 26.505000000000006 9.5000000000000018 14.125000000000002 12.41666666666667 3171.0000000000005 1.0000000180025095e-35 48.030000000000008 59.130000000000003 6.5000000000000009 17.500000000000004 89.500000000000014 97.500000000000014 16919.000000000004 209.50000000000003 59.500000000000007 15.708333333333334 70.055000000000021 35.590000000000011 60.385000000000012 11.500000000000002 473.50000000000006 3171.0000000000005 11.708333333333334 324.50000000000006 1.0000000180025095e-35 92.25500000000001 1.0000000180025095e-35 9.5000000000000018 11919.500000000002 12.708333333333334 11.708333333333334 13.41666666666667 46.455000000000005 190.50000000000003 1.0000000180025095e-35 1.0000000180025095e-35 3059.5000000000005 624.50000000000011 49.500000000000007 4.5000000000000009 14.583333333333334 186.50000000000003 48.605000000000011 1998.0000000000002 69.00500000000001 17.125000000000004 385.50000000000006 1.5000000000000002 2348.0000000000005 98.780000000000015 1474.0000000000002 4.5000000000000009 1.0000000180025095e-35 29.065000000000001 55.005000000000003 45.500000000000007 145.50000000000003 1.0000000180025095e-35 15.500000000000002 1.5000000000000002 15.708333333333334 9.5000000000000018 271.50000000000006 13.29166666666667 382.36666666666667 257.50000000000006 17.125000000000004 5.5000000000000009 1.0000000180025095e-35 197.50000000000003 74.500000000000014 15.500000000000002 248.50000000000003 13.125000000000002 1.0000000180025095e-35 143.50000000000003 14.500000000000002 3171.0000000000005 248.50000000000003 2039.5000000000002 20.875000000000004 59.925000000000004 22.195000000000004 60.915000000000006 15.125000000000002 11.29166666666667 1557.0000000000002 5.5000000000000009 2039.5000000000002 333.50000000000006 11.708333333333334 10.500000000000002 423.00000000000006 14.500000000000002 13.29166666666667 293.50000000000006 1659.5000000000002 1.0000000180025095e-35 91.500000000000014 1.0000000180025095e-35 3171.0000000000005 3059.5000000000005 5167.5000000000009 57.965000000000011 2987.5000000000005 337.50000000000006 86.715000000000018 661.92857142857156 1000.5000000000001 11.583333333333334 1.0000000180025095e-35 2538.0000000000005 11261.000000000002 2015.5000000000002 5.5000000000000009 8.8750000000000018 4164.5000000000009 1.0000000180025095e-35 15.500000000000002 1.0000000180025095e-35 5059.5000000000009 5167.5000000000009 15.500000000000002 1.0000000180025095e-35 207.50000000000003 5167.5000000000009 14656.500000000002 26.595000000000002 6.5000000000000009 13.500000000000002 3.5000000000000004 1.0000000180025095e-35 74.385000000000005 1.0000000180025095e-35 94.500000000000014 13.500000000000002 14.075000000000001 1.0000000180025095e-35 7416.0000000000009 3.5000000000000004 36.952500000000008 5059.5000000000009 190.50000000000003 13.265000000000002 56.500000000000007 2443.5000000000005 94.500000000000014 148.50000000000003 9.5000000000000018 47.605000000000011 1.0000000180025095e-35 9.5833333333333339 455.26666666666671 5.5000000000000009 283.50000000000006 12.708333333333334 18.505000000000006 548.35000000000002 5839.5000000000009 74.385000000000005 9.2916666666666696 169.50000000000003 137.50000000000003 11.708333333333334 6.5000000000000009 10.500000000000002 1.0000000180025095e-35
decision_type=2 2 2 2 2 2 2 2 2 2 2 2 2 2 2 2 2 2 2 2 2 2 2 2 2 2 2 2 2 2 2 2 2 2 2 2 2 2 2 2 2 2 2 2 2 2 2 2 2 2 2 2 2 2 2 2 2 2 2 2 2 2 2 2 2 2 2 2 2 2 2 2 2 2 2 2 2 2 2 2 2 2 2 2 2 2 2 2 2 2 2 2 2 2 2 2 2 2 2 2 2 2 2 2 2 2 2 2 2 2 2 2 2 2 2 2 2 2 2 2 2 2 2 2 2 2 2 2 2 2 2 2 2 2 2 2 2 2 2 2 2 2 2 2 2 2 2 2 2 2 2 2 2 2 2 2 2 2 2 2 2 2 2 2 2 2 2 2 2 2 2 2 2 2 2 2 2 2 2 2 2 2 2 2 2 2 2 2 2 2 2 2 2 2 2 2 2 2 2 2 2 2 2 2 2 2
left_child=1 4 6 5 8 9 12 14 31 16 37 20 22 28 26 30 36 18 47 43 21 60 74 42 49 39 44 62 29 51 76 123 98 -23 67 -29 57 50 96 52 48 63 65 77 66 68 61 99 119 78 140 -9 194 -31 93 108 72 58 -2 82 -11 85 -24 113 109 -16 -4 -20 -30 114 81 148 94 88 -3 83 133 124 87 120 135 -34 197 -51 -44 -19 -46 -21 107 147 138 116 -76 101 -15 160 134 -63 139 -8 187 -14 -47 -49 153 -84 -73 -41 200 193 156 174 -100 127 151 159 -50 -91 195 149 -40 -113 -72 136 168 -126 -95 -17 130 -98 -25 190 -36 167 -18 -58 182 -112 -61 -13 -5 142 -56 -120 203 -146 161 -79 -38 -10 -121 -33 -74 177 -54 -110 -22 -59 -82 181 -71 189 171 -164 -90 -138 -57 -6 -12 196 -97 -111 205 -81 -28 -125 -78 -39 -116 -106 -77 -42 -1 -130 -80 -161 -171 188 -52 -43 -117 -48 -188 -27 -7 -65 -45 -32 -156 -115 -26 -66 -189 -75 -177 -148
right_child=3 2 7 10 15 25 17 13 40 11 19 32 54 56 23 41 38 46 34 24 110 33 27 128 55 64 111 35 45 53 59 69 70 -35 132 -37 71 104 79 73 115 146 84 169 86 102 191 103 91 75 100 -53 154 -55 141 166 80 157 -60 90 -62 97 -64 118 201 -67 -68 -69 -70 95 122 106 152 144 92 180 176 89 184 173 158 -83 105 -85 -86 -87 -88 -89 164 117 -92 -93 -94 126 -96 170 129 -99 112 -101 -102 -103 -104 -105 179 -107 -108 -109 155 162 137 121 -114 199 178 131 -118 -119 143 150 -122 -123 -124 175 125 -127 -128 -129 183 -131 -132 -133 -134 -135 -136 -137 165 -139 -140 -141 -142 -143 -144 -145 145 -147 172 -149 -150 -151 -152 -153 -154 -155 198 -157 -158 -159 -160 185 -162 -163 163 -165 -166 -167 -168 -169 -170 186 -172 -173 -174 -175 -176 204 -178 -179 -180 -181 -182 -183 -184 -185 -186 -187 192 202 -190 -191 -192 -193 -194 -195 -196 -197 -198 -199 -200 -201 -202 -203 -204 -205 -206 -207
leaf_value=-0.11164655408100217 0.029543472765638717 0.036452834342206024 0.0031430679419431045 0.13367866966061351 -0.11847651154525266 0.13102199112507001 -0.0080494498212572187 0.033270015147920433 -0.035661038148383929 0.067923711972439058 0.087510491321261055 -0.0037729884838648884 0.034709841107023715 0.079042443881761348 -0.0017533471264935361 -0.061955147191299305 -0.013551410317010772 0.016848551001505646 -0.020616803972769316 0.084927817238223263 0.023571170428387037 0.12354213997057129 -0.057576486845631443 -0.024176793199455673 0.057599860992545382 0.034959295784670323 -0.0027068418259904572 -0.034074140527351089 0.0074498242188485112 0.10372304867815554 -0.043945670774333409 -0.015911916597916204 0.02699035336733337 0.078481768722897097 -0.051849967200043159 -0.059639075814380493 0.058599833284406336 0.1804948026385304 0.023291971406559676 0.058071441763059402 -0.0032774052675847171 -0.10232766476085334 -0.010183198331024114 0.01282336093646616 0.027219698679491158 0.047772637638494611 0.087735514966056388 0.029192824643750299 -0.033557975235410424 0.086851342655893629 0.094543210351841572 0.0078489697252215346 0.10080552895409099 0.052463695634470613 -0.035304150128852671 0.080577283813158318 0.10439291611503718 0.071873987457751087 0.0041755224617103385 -0.16076013762353583 0.044420823920204411 0.0026153946592895674 -0.081095945704015973 -0.056197935573568773 0.12605199378631329 0.017364809226429568 0.025872927169349962 -0.044235621131544202 -0.022875150633027683 -0.058886995076940486 0.010006559302279094 0.14078154144442057 0.033351098662610365 0.16454756107599799 -0.033185033503574886 0.14566676496896311 -0.19211071748521133 0.053105325916171821 0.13282788893113662 -0.015662940629493378 0.039593106056859839 0.059592870780966027 -0.090909640773517944 0.12171417986833574 -0.034088734888043447 0.062203570563758769 0.053746986034507734 0.13803981233906826 0.12308318393977326 0.074910282582687948 -0.056859541880011015 0.0074775959857395361 -0.0011062721387891594 0.0049103712341333145 0.047812257394485962 -0.053615969316154172 0.0093062241085492981 -0.029418011204126512 0.045357549361113567 -0.036482795034652162 0.056565712109489984 -0.0087265006246750754 0.013917646445401699 0.0053123922009668577 0.094573094225552018 -0.11864162266719004 0.07349815497020605 0.10802721181986642 0.042078575283998124 0.032500327142238092 0.030666851954663218 0.021459583401050419 -0.018516938777745021 -0.092649567288593387 -0.060701380579209908 0.014873088611081733 -0.049351934106353912 0.035927159816496981 -0.052555326385582198 0.031769808365031682 0.07068291838456596 -0.029673676847852364 0.040476972250757672 -0.11533953778593467 0.079689947296307864 0.026862425811663926 0.067869579040809244 -0.085630131943372254 -0.051135397133060423 -0.021751484445475491 -0.068564092301077031 0.054749702169894346 -0.081413617940694474 -0.13988248420618879 -0.044449132043764612 0.073558971594996692 -0.080443915728475521 -0.014869211912403304 -0.11756994844467701 -0.042381735485549098 0.18257355547060611 0.0050240684838412184 0.011015795038910004 -0.073235804262715032 0.07257009351137951 0.1493550242349406 -0.13672533035196188 0.00099357063550517088 0.01942819191026118 -0.0045041247051891926 -0.0089018224310937477 -0.04124539662154874 -0.0080757820328601244 0.14598904040983818 0.049538568756352673 0.0036881378387471661 0.051672584888218694 0.028690470986284966 0.073449603421427451 -0.0064287921800842331 -0.029356819589081696 -0.11594385374039053 0.11200530700865453 0.054203122978416618 0.16720138478154473 -0.064989908483979897 0.13583270675823614 -0.087423299538958416 0.10554466475934619 0.030228607240314412 -0.081922616677652327 0.064856980721978208 -0.087295870021954394 0.0079922988263806689 0.017903724301346399 -0.070588120854340797 -0.13920385919696052 0.13613015979651735 -0.040060275260017507 0.14191685378223121 0.10039553024395875 -0.016721551444807414 -0.075021623305021087 -0.077517559946586004 0.15922315534686113 -0.026735625286912867 0.038841944815581154 0.1069923977516373 0.12446123306466596 -0.085679796191094837 -0.014490255173078326 0.053465981469296632 0.061418349272354809 0.0074422800556107824 0.10255907717466604 -0.039617215722473759 0.037103201534933114 -0.066413282269892585 0.067320833571547625 -0.12164676809326273 0.079035421293179767 0.09268439949253314 0.086196922089029376 0.13396139112842045 -0.094007855077978666 -0.10693591922786384
leaf_count=50 706 30 401 67 193 49 335 513 64 657 407 46 37 100 1280 112 65 266 842 85 105 217 436 127 41 22 300 741 440 71 27 68 160 358 153 831 55 140 61 32 254 89 954 28 232 119 23 157 541 373 35 475 22 294 253 22 105 69 353 33 406 352 595 64 24 483 625 309 184 365 195 23 36 94 281 61 34 25 121 53 74 218 617 101 181 48 257 55 64 439 22 36 93 23 306 39 81 79 30 102 26 282 103 337 28 106 43 175 45 38 29 21 24 29 192 22 370 41 119 41 35 131 71 61 133 28 24 583 95 113 28 21 87 127 141 101 256 52 213 59 41 32 23 619 23 29 49 24 38 74 38 242 38 132 66 35 58 21 39 43 36 55 23 34 31 213 21 44 119 34 224 50 28 103 53 28 30 28 59 23 21 124 28 34 83 147 32 69 135 259 24 22 70 23 55 71 22 61 49 47 22 25 44 39 31 29
internal_value=0 -0.0794357 -0.0182026 0.200767 -0.204306 0.146868 -0.0884699 0.0400115 -0.134954 0.114178 0.293593 0.160024 -0.133386 0.097575 0.00682416 -0.274191 0.0513251 -0.0353148 -0.0594655 0.258372 0.195789 0.214597 -0.155465 -0.0210694 0.307161 0.303614 0.0507523 -0.170038 0.0678341 0.0964805 -0.320581 -0.194055 0.0760595 0.285461 -0.0991209 -0.142079 0.0881695 0.407208 -0.022611 0.33887 -0.0727233 -0.241585 -0.0100563 0.220388 0.0741392 0.0219598 0.035655 -0.000173545 -0.0970423 0.333652 0.356805 0.0628636 0.262606 0.187055 -0.0347994 0.177876 0.17924 0.0727206 0.0629553 -0.29329 0.176032 0.0244638 -0.212488 -0.224636 0.195257 0.0104168 0.0507266 -0.0805327 -0.00451836 -0.166604 0.103031 0.198654 0.146277 0.375993 -0.0613845 0.30072 -0.388539 0.234637 0.38585 0.0468706 0.228225 0.136956 -0.272745 0.282026 -0.0418385 0.0714838 0.123058 0.318144 0.337574 0.201968 -0.354211 -0.114003 -0.0752877 0.00540021 0.166135 -0.193905 -0.0663929 -0.00987774 -0.0331415 -0.0440236 0.319807 -0.0107272 0.0960721 0.0386269 0.465903 -0.283855 0.294497 0.300229 0.130661 0.158467 0.0691663 -0.0194158 0.0511618 -0.253649 -0.134003 -0.0280617 -0.119409 0.213821 -0.198752 -0.0228396 0.122698 -0.0671767 0.0544869 -0.244145 0.259462 0.211027 0.112807 -0.244396 -0.133019 -0.026264 -0.0972235 0.0519688 -0.18756 -0.366419 -0.103873 0.267655 -0.231142 0.00479817 -0.369961 -0.076574 0.458745 -0.0824328 -0.0937426 -0.208793 0.436551 0.350313 -0.295778 0.0838858 0.128219 -0.0570109 0.0368148 -0.106692 0.0365591 0.483888 0.19468 0.0761963 0.100926 0.185664 0.154622 -0.0375773 -0.168031 -0.280498 0.187221 0.235894 0.414963 -0.21954 0.328338 -0.337472 0.273857 0.126471 -0.232566 0.15339 -0.3507 -0.000275871 0.0012809 -0.301008 -0.506755 0.519026 -0.167174 0.352822 0.404074 -0.0230357 -0.297234 -0.174946 0.430532 -0.0662334 0.145938 0.333037 0.354742 -0.26919 -0.00127456 0.216358 0.163458 0.0637488 0.349372 -0.142725 0.071691 -0.179302 0.171959 -0.333977 0.197543 0.331873 0.297551 0.467395 -0.251406 -0.379373
internal_count=31212 22344 14993 8868 7351 5612 6793 8200 3691 4645 3256 2685 3681 2998 5202 3660 1960 3112 2322 2488 1882 1638 3007 3182 1086 967 2020 2603 2199 1353 1507 1892 803 575 1391 1572 1308 768 652 728 1799 2153 2898 1402 1515 846 790 931 1164 900 417 988 241 365 674 186 799 1149 1059 1079 1063 745 1031 1644 239 1763 1026 1151 624 1225 644 159 480 487 404 556 428 1216 344 252 319 378 811 474 1135 314 489 140 302 529 268 947 374 366 406 664 400 431 159 437 309 319 222 494 351 723 66 207 143 190 244 505 54 771 561 635 911 480 873 217 96 152 266 667 687 161 47 695 284 194 155 67 240 364 206 206 547 81 246 105 108 308 276 738 185 52 509 49 93 138 79 310 74 300 137 80 163 90 113 568 401 403 145 57 95 469 43 237 526 186 263 88 106 156 353 120 64 168 251 51 82 378 78 129 204 190 136 283 170 348 46 45 102 45 104 135 50 88 115 76 63 49 113 133 59 78
shrinkage=0.335151


Tree=3
num_leaves=211
num_cat=0
split_feature=4 0 30 30 88 0 30 0 30 30 30 30 0 29 20 0 19 30 30 30 0 0 0 93 0 30 11 95 19 11 2 57 2 98 95 95 20 20 95 0 95 2 96 11 20 96 0 30 0 95 97 93 0 97 24 3 98 11 97 21 29 93 30 95 96 96 0 11 0 23 80 30 93 30 95 95 93 88 0 11 95 0 26 95 0 0 19 0 0 95 94 95 30 30 26 93 97 95 12 11 95 30 11 2 0 30 95 94 29 71 94 20 14 93 95 12 2 25 11 82 2 18 96 42 10 10 96 25 21 30 12 71 12 95 96 30 2 2 100 30 95 0 30 96 26 0 11 95 79 88 20 45 95 12 0 0 11 0 95 95 12 29 25 29 47 94 61 12 12 69 30 97 95 95 92 41 10 2 30 12 95 30 96 93 94 30 72 12 96 0 100 20 94 0 93 0 93 2 94 82 12 35 100 78 41 30 100 25 35 30
split_gain=222.407 78.0745 39.6832 35.8015 21.7979 14.4896 11.1244 8.14234 8.08018 5.67455 5.62755 5.38348 5.35596 5.10967 4.59228 4.38262 3.79804 3.29177 3.04005 2.91916 2.67118 2.65983 2.63775 2.59033 2.16319 1.95873 1.72119 1.65751 1.58422 1.54203 1.47009 1.43574 1.42241 1.35165 1.35132 1.29964 1.19306 1.17966 1.16581 1.15453 1.12007 1.09037 1.04637 1.0114 1.00725 1.0009 0.969865 0.909124 0.887948 0.882655 0.871639 0.788521 0.760795 0.726694 0.7178 0.704876 0.701857 0.700905 0.699353 0.660945 0.635969 0.626482 0.615368 0.614474 0.603937 0.596519 0.584861 0.580911 0.578527 0.572757 0.570208 0.567167 0.563167 0.557779 0.561061 0.537034 0.528 0.516728 0.51176 0.497375 0.487476 0.477255 0.459319 0.558315 0.489961 0.447589 0.442586 0.42076 0.420285 0.529277 0.413184 0.406521 0.391278 0.388268 0.387888 0.386516 0.386022 0.385524 0.383961 0.382939 0.381514 0.38081 0.379913 0.375702 0.37557 0.374234 0.365809 0.362624 0.362529 0.3575 0.354859 0.349642 0.34715 0.339713 0.33647 0.334346 0.333335 0.331074 0.324856 0.319818 0.319313 0.317537 0.317015 0.310807 0.308006 0.307225 0.305304 0.298295 0.292782 0.285254 0.280606 0.279115 0.280618 0.271389 0.269187 0.268935 0.267529 0.266525 0.260893 0.257806 0.24883 0.245891 0.245253 0.238661 0.236852 0.236761 0.284858 0.232986 0.228037 0.225032 0.223171 0.222282 0.220442 0.220245 0.250695 0.218873 0.2108 0.205684 0.20046 0.197705 0.196835 0.196118 0.195323 0.193418 0.192029 0.18532 0.183921 0.171285 0.164018 0.156594 0.155305 0.153135 0.15082 0.257547 0.149087 0.145903 0.155709 0.137508 0.137336 0.133873 0.131187 0.127907 0.126737 0.123097 0.121454 0.120332 0.114071 0.111653 0.108759 0.104409 0.0993576 0.0963327 0.0959144 0.0932574 0.0889977 0.0870936 0.106317 0.0863563 0.0810054 0.0809321 0.0773243 0.0742626 0.0732723 0.0728926 0.0660777 0.0648892 0.0576624 0.0566746 0.0485511 0.0453551
threshold=1.0000000180025095e-35 23.225000000000005 -0.411401519229532 -0.411401519229532 1.0000000180025095e-35 48.605000000000011 1.039956282021937 60.915000000000006 -1.0131598561079593 0.18941112535659627 -0.411401519229532 0.18941112535659627 35.015000000000008 18.173333333333336 1.0000000180025095e-35 38.005000000000003 1.0000000180025095e-35 -0.8115614912327529 -0.411401519229532 -0.8115614912327529 42.615000000000002 70.055000000000021 41.615000000000002 1474.0000000000002 17.885000000000002 -0.71275555509588562 11.500000000000002 350.00000000000006 1.0000000180025095e-35 8.5000000000000018 12.500000000000002 1.0000000180025095e-35 8.5000000000000018 16919.000000000004 19.500000000000004 76.000000000000014 1.0000000180025095e-35 1.0000000180025095e-35 314.00000000000006 45.005000000000003 90.500000000000014 5.5000000000000009 5059.5000000000009 9.5000000000000018 1.0000000180025095e-35 11261.000000000002 40.005000000000003 2.1946510246663609 57.335000000000008 40.500000000000007 2668.0000000000005 1474.0000000000002 13.265000000000002 2987.5000000000005 5.5000000000000009 3.5000000000000004 288.00000000000006 14.500000000000002 11919.500000000002 1.0000000180025095e-35 37.507500000000007 4164.5000000000009 -1.0733517267765327 115.50000000000001 11261.000000000002 11261.000000000002 47.165000000000006 8.5000000000000018 41.615000000000002 1.0000000180025095e-35 1.0000000180025095e-35 -0.23534186443431446 2220.5000000000005 -0.8115614912327529 30.500000000000004 305.00000000000006 1998.0000000000002 1.0000000180025095e-35 49.635000000000012 13.500000000000002 77.500000000000014 55.975000000000001 224.50000000000003 423.00000000000006 42.615000000000002 36.945000000000007 1.0000000180025095e-35 30.605000000000004 86.715000000000018 704.00000000000011 15.500000000000002 844.50000000000011 -0.19109970431896869 0.14645980692288127 224.50000000000003 1844.5000000000002 2348.0000000000005 125.50000000000001 11.29166666666667 18.500000000000004 293.00000000000006 2.1946510246663609 9.5000000000000018 4.5000000000000009 16.375000000000004 -0.23534186443431446 1324.0000000000002 9.5000000000000018 33.435000000000009 1.0000000180025095e-35 18.500000000000004 1.0000000180025095e-35 1.5000000000000002 2443.5000000000005 89.500000000000014 7.5833333333333348 5.5000000000000009 247.58333333333334 16.500000000000004 1.0000000180025095e-35 10.500000000000002 1.0000000180025095e-35 14656.500000000002 1.0000000180025095e-35 5.5000000000000009 3.5000000000000004 8285.0000000000018 510.26785714285722 1.0000000180025095e-35 0.43873043604406065 17.125000000000004 1.0000000180025095e-35 14.708333333333334 37.500000000000007 3376.0000000000005 -1.0733517267765327 3.5000000000000004 13.500000000000002 241.00000000000003 -1.0733517267765327 96.500000000000014 53.045000000000009 -0.92380984718569514 11261.000000000002 164.50000000000003 45.545000000000009 14.500000000000002 83.500000000000014 1.0000000180025095e-35 1.0000000180025095e-35 1.0000000180025095e-35 1.0000000180025095e-35 58.500000000000007 9.4166666666666696 77.655000000000015 31.245000000000001 16.500000000000004 18.005000000000006 399.50000000000006 110.50000000000001 19.708333333333339 36.952500000000008 747.41666666666686 26.44166666666667 1.0000000180025095e-35 101.50000000000001 1.0000000180025095e-35 10.125000000000002 8.1250000000000018 1.0000000180025095e-35 -1.0733517267765327 2208.5000000000005 951.00000000000011 576.00000000000011 1.0000000180025095e-35 1.0000000180025095e-35 1.5000000000000002 11.500000000000002 1.039956282021937 11.708333333333334 72.500000000000014 -1.0131598561079593 11261.000000000002 2443.5000000000005 20.500000000000004 0.068346005894514408 1.0000000180025095e-35 21.833333333333339 2515.5000000000005 56.845000000000006 47.500000000000007 1.0000000180025095e-35 6.5000000000000009 41.035000000000004 4164.5000000000009 14.555000000000001 5167.5000000000009 9.5000000000000018 45.500000000000007 1.0000000180025095e-35 9.5833333333333339 1.0000000180025095e-35 18.500000000000004 1.0000000180025095e-35 1.0000000180025095e-35 -0.8115614912327529 44.500000000000007 482.55000000000007 1.0000000180025095e-35 1.039956282021937
decision_type=2 2 2 2 2 2 2 2 2 2 2 2 2 2 2 2 2 2 2 2 2 2 2 2 2 2 2 2 2 2 2 2 2 2 2 2 2 2 2 2 2 2 2 2 2 2 2 2 2 2 2 2 2 2 2 2 2 2 2 2 2 2 2 2 2 2 2 2 2 2 2 2 2 2 2 2 2 2 2 2 2 2 2 2 2 2 2 2 2 2 2 2 2 2 2 2 2 2 2 2 2 2 2 2 2 2 2 2 2 2 2 2 2 2 2 2 2 2 2 2 2 2 2 2 2 2 2 2 2 2 2 2 2 2 2 2 2 2 2 2 2 2 2 2 2 2 2 2 2 2 2 2 2 2 2 2 2 2 2 2 2 2 2 2 2 2 2 2 2 2 2 2 2 2 2 2 2 2 2 2 2 2 2 2 2 2 2 2 2 2 2 2 2 2 2 2 2 2 2 2 2 2 2 2 2 2 2 2 2 2
left_child=1 4 7 8 13 11 12 19 22 21 28 30 14 25 35 16 73 55 44 27 33 26 31 91 158 49 37 39 126 -25 38 152 68 36 52 87 127 95 46 53 93 114 86 65 64 69 134 80 63 175 -37 -39 201 181 82 62 163 81 118 137 77 99 111 101 142 -18 145 165 97 102 75 110 100 155 -75 -36 -61 -23 117 -48 -35 -44 84 112 108 -73 200 -5 89 116 -54 -16 159 105 144 -7 -49 186 123 -41 -34 113 -26 -99 205 -14 -85 -79 -13 122 -40 180 -84 -11 129 184 -50 -24 -33 156 153 -55 -47 -65 170 -57 157 -8 -126 -20 -45 132 -70 -66 -4 160 -113 -42 -69 -60 -38 169 -15 151 191 146 -29 -74 194 -63 162 -106 167 -58 -155 -10 -64 -6 195 -28 -80 206 -128 -19 -119 -51 -103 -3 -145 -22 -68 -100 173 193 -116 176 -1 -117 -71 -159 -9 -2 -150 -86 -43 -72 -21 -59 -149 -137 -62 -56 -122 -32 -46 -12 -197 -163 -111 -133 -17 -27 -171 -121 -95 -30 -96 -160 -154 -90
right_child=2 3 5 6 10 9 20 17 15 48 24 54 40 18 23 42 43 56 41 32 141 60 78 29 45 34 92 66 104 -31 172 58 72 47 70 50 140 51 71 61 59 115 57 130 148 109 79 96 88 67 -52 -53 90 121 94 125 120 187 139 76 190 149 119 98 133 -67 124 138 131 178 185 85 147 74 -76 -77 -78 107 135 -81 -82 -83 83 106 183 -87 -88 -89 209 -91 -92 -93 -94 204 161 -97 -98 103 171 -101 -102 166 -104 -105 143 -107 -108 -109 -110 198 -112 136 -114 -115 174 177 -118 164 -120 203 192 -123 -124 -125 128 -127 150 -129 -130 -131 -132 199 -134 -135 -136 189 -138 -139 -140 -141 -142 -143 -144 168 -146 -147 -148 188 182 -151 -152 -153 208 154 -156 -157 -158 179 207 -161 -162 197 -164 -165 -166 -167 -168 -169 -170 202 -172 -173 -174 -175 -176 -177 -178 -179 -180 -181 -182 -183 -184 -185 -186 -187 -188 -189 -190 -191 -192 -193 -194 -195 -196 196 -198 -199 -200 -201 -202 -203 -204 -205 -206 -207 -208 -209 -210 -211
leaf_value=-0.12589472535468724 -0.0043347900133978989 -0.040592023653700224 0.026037181187484097 -0.033352993282764469 -0.051696275782485285 0.013942867132339578 0.0145762890496219 -0.02806887026628645 -0.046720340747239797 0.073093226807187814 -0.04935948089937555 0.031083814001228394 0.020039717821347443 -0.05727240851808104 -0.04854360144111583 0.038112060770774885 0.0011405410207140088 0.078273222258922345 -0.051199339038925006 -0.01594777294529429 0.087286035226901815 0.031255314757772261 0.01307189503797886 0.014434465909365982 -0.0013016402637447894 -0.13764703725867078 0.016840004977111887 0.015510049860246471 -0.06819578960237159 -0.0051006435336722845 0.041783304256658188 -0.030756040186252866 0.039304183733799049 -0.010336939359949318 -0.063579295352277576 0.011890503376032917 0.03994555172058372 0.040120366762812741 0.067044765086456723 0.012232161850838851 0.02376639122958225 -0.0075719370603638805 0.0060440625305504701 -0.020152809463748478 -0.027039793496576828 -0.031638165745411659 0.031308451687696359 0.028502874646999431 0.082360350166010787 -0.070593695186816685 -0.011860421919042992 0.076087677937301312 -0.033086897509566671 -0.044094111388208353 0.031332483274653267 0.036955662922754026 0.076675509437364772 -0.0081573377686392987 -0.056434307983124155 0.070199480497136896 0.12048770531297562 -0.027543643105005886 0.028842567865338606 0.12014918620731795 -0.081907297565172177 -0.011972456451638618 -0.003005712709051677 -0.086114266924695398 0.027901676464510989 0.015725622253937172 -0.049309928895152198 -0.00028375540766136577 0.026405206835637362 -0.047493136901896917 -0.022554249675528104 -0.028193777311574946 0.039101788639917916 0.090972730715357955 -0.0053781258037460334 -0.013634911286069348 0.020600469640460851 0.034571907449735796 0.048814043550637246 0.11379768831721376 0.09650612058226643 0.038182312921708886 0.076814993818411323 -0.010499541011350748 0.11363723762031448 0.14335759004446308 -0.084387652200157509 -0.0025764315093596878 -0.011129707862154571 0.021152089700207093 0.0041557066821570135 0.049778358640207264 0.051203843055521975 0.006152345041852845 0.059168057078365283 -0.014522563821798475 -0.014263219589306916 0.067479502643933639 -0.024253231992357415 0.03375984974306441 -0.0028313828882276021 -0.0024366389490582856 0.069046510158265809 0.043776050707240256 0.060555108144914306 -0.0052868971052696199 0.026959245216047017 0.0010463931131632772 0.081729730726329788 0.029092513567184369 -0.03420724720839307 -0.026615978533981913 0.10613612479276713 -0.024546921042575134 -0.05286578073323054 0.036161354528334494 0.063205578685053249 -0.020283081020989299 -0.014603599163836786 0.092018717066266895 0.071889839292647986 0.093384110090625291 -0.053672807866090584 0.044743444010872206 0.031202146460673118 -0.024129866939158865 -0.045057915964506326 0.06382566609359816 0.0052490505480134227 -0.062384242049106038 -0.0016468114767703614 0.0013429240368630954 0.034943036623668274 0.059507223837838526 -0.045236912416902607 -0.038185552408175394 0.060161607795051295 0.10876821071136203 -0.037995042958678803 -0.015102200589106173 0.087979036730785914 -0.014663823568881958 -0.012769423164649513 0.074574483237714081 -0.028701144080262402 -0.0048308997928554502 -0.040733525581868692 -0.024165126258100394 -0.063342186923212557 0.043115587509718639 0.064908034144776222 -0.030302327965202866 0.00202943831337402 -0.010770280328361099 -0.0023886999010283958 0.044818623711725028 -0.034088837365806347 0.032773708373385148 -0.075975275181557042 0.12830129399148626 -0.048447770461143007 -0.053777252876980486 0.10977886151976375 -0.075575721855760419 -0.035056235075875415 0.040028289356566604 0.024394865710610159 0.089502300140508792 0.032671811559348445 0.073528317337715948 -0.0096357754394792907 -0.08002667906967427 -0.083729456321900902 -0.0054377882097991206 0.04933976093643324 -0.040247205035956211 0.001157546819124467 0.022832318132544868 -0.059072809134251336 0.071841078307819328 0.018013342968572633 -0.03581604139548588 0.0043361896182860758 -0.033192382807925185 0.051803280798118932 0.025553982103692582 0.083498340476073268 0.057195210732146777 0.10003066065425517 0.05715823445238763 -0.046628367560870645 -0.029022031714714444 -0.045574319107697582 0.058466260130301317 0.017389852380343528 0.035152869161246159 0.016326914023449338 -0.097832719976048449 0.068023762118608389 0.051637168560289888 0.043149357708091911 -0.039200193540928463 0.027976216416899617 -0.026019358543631393 -0.049374600743234909 0.15203926613716309
leaf_count=61 36 22 47 365 44 43 133 24 295 44 85 57 176 152 96 39 905 26 284 74 51 22 23 2545 1037 30 51 223 28 552 116 814 43 64 744 223 98 82 116 432 316 49 552 220 157 214 438 192 104 407 773 571 27 80 25 23 57 35 255 88 89 77 156 100 102 684 36 423 243 32 353 41 23 120 671 54 224 224 73 29 502 74 75 72 44 198 28 122 28 43 63 28 27 27 25 177 158 173 43 69 22 32 87 81 66 157 38 23 401 92 34 44 84 39 388 157 436 266 84 94 22 307 295 135 25 24 400 51 104 55 67 23 83 790 223 89 64 25 22 149 328 32 168 56 28 49 48 69 24 134 145 337 60 155 111 145 42 46 21 69 42 42 57 24 45 114 30 147 350 22 64 58 43 71 31 29 23 45 25 28 56 41 68 123 35 113 53 49 57 25 21 91 31 102 34 124 78 29 21 32 39 26 42 75 50 21 21 25 145 35
internal_value=0 -0.0529585 0.134205 -0.00556721 -0.126687 0.191182 0.0411207 0.055654 -0.0619357 0.245209 -0.0685589 0.13888 0.0202845 -0.169602 0.00579007 -0.0345632 -0.05169 0.131356 -0.137921 0.0268038 0.11289 0.202358 -0.109859 0.0269903 -0.0350738 -0.201851 0.175424 0.00206401 -0.113834 0.0326779 0.0983651 -0.129753 0.0704822 0.100359 -0.17698 -0.0402427 0.136871 0.192292 0.080989 -0.0191174 0.0843594 -0.0963482 0.0306319 -0.0233448 -0.166868 -0.0213652 0.057476 0.0759202 0.298176 -0.234158 -0.0195016 0.213753 -0.268668 -0.0578804 0.189894 0.0835274 0.198589 0.01671 -0.113889 0.110076 0.27419 0.00618932 0.0732978 0.26382 -0.179483 -0.0134506 0.0473889 -0.223826 0.0501267 -0.00424952 -0.166184 0.125274 0.14239 -0.0948327 -0.0787497 -0.182674 0.143427 0.245757 -0.0505093 0.0850188 0.0509919 0.0282451 0.203546 0.239335 0.187783 0.0943142 0.12285 -0.0825342 0.323309 0.313382 -0.207465 -0.114183 0.0746214 0.0432324 0.142533 0.127911 0.115971 0.0224719 0.288053 0.025438 0.0633473 0.206072 -0.00924432 0.0449192 -0.0846279 0.0282468 0.295693 0.258907 0.169963 -0.0538034 0.173649 0.0265653 0.198737 0.158176 -0.116198 -0.0435156 0.3035 -0.0754301 -0.0981078 0.0970989 0.182811 -0.0755082 -0.0650863 0.311647 0.0858806 0.200267 -0.148471 0.0690297 0.1181 -0.139913 -0.0778865 0.0776493 0.0661443 -0.193066 0.0096981 -0.0139905 0.0634661 0.0792288 -0.251229 -0.148635 0.165943 0.241411 -0.141137 -0.0792842 0.17755 0.0196604 0.0312462 0.176217 -0.112398 -0.0394177 -0.157731 -0.061725 -0.18453 0.169845 0.156405 -0.1235 0.0692054 -0.100294 -0.109011 0.0989595 -0.0479439 0.0982919 -0.168923 0.311313 -0.083992 -0.199983 0.266652 -0.212705 -0.0965181 0.215676 0.0435557 0.230632 0.156875 0.165344 -0.0967232 -0.319738 -0.344541 -0.0654889 0.0926981 -0.0665777 -0.0234159 0.0305445 -0.153797 0.235347 0.00947068 -0.137615 -0.0224208 -0.0685701 0.193238 0.0203775 0.340874 0.154969 0.257205 0.146818 -0.0917567 -0.118866 -0.106243 0.131095 -0.00285247 0.143435 0.0822491 -0.361651 0.176538 0.129177 0.106841 -0.169492 0.04594 -0.0462906 -0.160379 0.408828
internal_count=31212 22344 8868 13602 8742 5139 7440 3729 6162 2526 3714 2613 5767 5028 4704 3923 3107 1028 2539 2701 1673 1399 2239 3221 2136 2489 1020 1725 1578 3097 1458 1676 976 1526 1410 1483 610 873 1126 1176 1063 1044 816 1876 1495 1803 737 916 1127 1079 996 653 146 464 1155 602 426 710 1302 653 379 712 555 481 1212 1589 549 966 762 1181 1264 389 214 1231 791 798 312 269 563 467 566 626 894 269 625 239 106 487 646 583 90 124 147 410 261 220 350 381 336 501 65 145 1124 254 858 333 110 247 458 622 150 188 159 83 758 286 540 334 898 367 376 387 509 235 229 47 720 184 129 339 287 381 326 892 270 229 108 341 445 404 426 147 320 809 144 320 271 149 283 211 602 403 374 323 266 440 198 118 333 120 115 117 457 50 311 521 62 169 406 115 100 101 332 289 419 113 84 202 57 74 80 77 92 167 84 466 127 84 126 114 110 116 53 218 191 287 202 71 113 55 78 56 64 169 77 49 46 46 205 63
shrinkage=0.335151


Tree=4
num_leaves=206
num_cat=0
split_feature=4 18 30 30 36 30 30 22 98 61 30 30 30 30 5 30 2 95 29 98 93 82 2 88 2 98 30 61 30 95 30 21 30 21 29 11 96 82 95 47 2 29 35 5 2 98 29 93 96 95 29 30 2 95 96 3 66 94 29 2 3 29 30 3 14 71 11 47 57 93 95 88 88 29 57 11 10 30 11 10 30 11 29 88 95 6 30 93 98 29 25 30 2 5 11 11 26 11 2 96 98 93 66 22 30 95 29 98 69 29 2 11 88 95 29 11 29 2 11 95 26 30 57 30 11 29 24 14 95 10 29 24 25 71 6 30 11 100 3 11 11 11 11 93 34 54 11 97 94 29 5 2 29 98 31 35 93 19 94 95 26 94 96 94 95 94 25 25 30 41 69 10 94 100 96 93 95 30 2 29 3 57 54 96 94 14 30 29 94 29 26 94 10 97 2 29 29 2 94 2 94 30 96 94 25
split_gain=99.2207 35.5084 17.9046 12.6304 10.2052 5.88429 4.61309 4.34311 4.00105 3.19037 2.75319 2.41106 2.25197 2.14486 1.86816 1.85717 1.71289 1.61768 1.60551 1.57326 1.49975 1.37952 1.3657 1.35911 1.31461 1.26939 1.2146 1.15593 0.993262 1.15729 0.910456 0.892745 0.909499 0.883544 0.867035 0.838565 0.763039 0.75659 0.755252 0.737831 0.709856 0.696164 0.682744 0.660033 0.624495 0.617792 0.612186 0.592615 0.589481 0.585133 0.573551 0.570977 0.568106 0.56323 0.522546 0.517537 0.50931 0.508815 0.506031 0.496152 0.490497 0.485695 0.477857 0.45754 0.445839 0.440267 0.43816 0.433856 0.425003 0.419811 0.408447 0.403769 0.396245 0.395349 0.394484 0.3901 0.447131 0.38645 0.379113 0.378767 0.366903 0.366508 0.360573 0.349247 0.3485 0.34472 0.342528 0.334389 0.327572 0.315007 0.312129 0.309527 0.308018 0.30385 0.295114 0.294243 0.292107 0.287279 0.287107 0.284525 0.280948 0.262823 0.262588 0.258956 0.258828 0.256273 0.280404 0.255944 0.247269 0.24395 0.242577 0.241493 0.239749 0.230696 0.227153 0.224678 0.220325 0.212405 0.211712 0.207622 0.20338 0.218753 0.199283 0.19814 0.202699 0.197416 0.195791 0.190892 0.189345 0.18922 0.189014 0.188933 0.186904 0.181658 0.238377 0.181541 0.179294 0.178231 0.176113 0.175037 0.174564 0.174322 0.166402 0.164974 0.159843 0.158613 0.155944 0.153636 0.152141 0.150441 0.14984 0.149534 0.147981 0.147524 0.151145 0.145095 0.14356 0.140899 0.132016 0.127558 0.127109 0.125922 0.125351 0.117505 0.115828 0.115321 0.115144 0.110103 0.10938 0.108007 0.104987 0.099721 0.160434 0.124206 0.0984459 0.0944559 0.0927424 0.0915609 0.0878592 0.0864326 0.104739 0.0838959 0.0799968 0.0786163 0.0726559 0.0696842 0.0694414 0.0622195 0.0600457 0.0593721 0.0573877 0.0570229 0.0492529 0.0455895 0.0398899 0.0373834 0.0348042 0.0322042 0.0270439 0.0270183 0.0231044 0.0191201 0.0187308 0.00787186 0.00383397
threshold=1.0000000180025095e-35 1.0000000180025095e-35 1.0000000180025095e-35 -0.411401519229532 1.0000000180025095e-35 -0.8115614912327529 0.43873043604406065 1.0000000180025095e-35 7416.0000000000009 1.0000000180025095e-35 -1.0733517267765327 -0.8115614912327529 -0.8115614912327529 -0.8115614912327529 1.0000000180025095e-35 0.18941112535659627 12.500000000000002 576.00000000000011 33.63750000000001 9939.5000000000018 2443.5000000000005 1.0000000180025095e-35 2.5000000000000004 1.0000000180025095e-35 3.5000000000000004 7416.0000000000009 0.068346005894514408 1.0000000180025095e-35 0.43873043604406065 37.500000000000007 -1.0733517267765327 1.0000000180025095e-35 2.1946510246663609 1.0000000180025095e-35 45.055000000000007 8.5000000000000018 11261.000000000002 1.0000000180025095e-35 576.00000000000011 1.0000000180025095e-35 2.5000000000000004 45.055000000000007 1.0000000180025095e-35 1.0000000180025095e-35 15.500000000000002 9939.5000000000018 21.175000000000004 2545.5000000000005 754.50000000000011 162.50000000000003 31.167500000000004 0.14645980692288127 10.500000000000002 107.50000000000001 8285.0000000000018 1.5000000000000002 1.0000000180025095e-35 20.500000000000004 36.515000000000008 11.500000000000002 1.5000000000000002 16.787500000000005 0.43873043604406065 1.5000000000000002 1.5000000000000002 1.0000000180025095e-35 17.500000000000004 1.0000000180025095e-35 1.0000000180025095e-35 2545.5000000000005 951.00000000000011 1.0000000180025095e-35 1.0000000180025095e-35 26.595000000000002 1.0000000180025095e-35 23.500000000000004 1.5000000000000002 -0.23534186443431446 7.5000000000000009 3.5000000000000004 1.7113214997370925 6.5000000000000009 24.152500000000003 1.0000000180025095e-35 951.00000000000011 1.0000000180025095e-35 -1.0131598561079593 1474.0000000000002 1329.0000000000002 31.535000000000004 468.69047619047626 -1.0733517267765327 13.500000000000002 1.0000000180025095e-35 5.5000000000000009 10.500000000000002 156.50000000000003 15.500000000000002 8.5000000000000018 3376.0000000000005 288.00000000000006 5167.5000000000009 1.0000000180025095e-35 1.0000000180025095e-35 2.1946510246663609 51.500000000000007 58.985000000000007 7416.0000000000009 1.0000000180025095e-35 16.003333333333337 33.500000000000007 3.5000000000000004 1.0000000180025095e-35 576.00000000000011 31.355000000000004 6.5000000000000009 41.205000000000005 14.500000000000002 8.5000000000000018 36.500000000000007 354.50000000000006 2.1946510246663609 1.0000000180025095e-35 2.1946510246663609 5.5000000000000009 34.305000000000007 5.5000000000000009 1.5000000000000002 42.500000000000007 1.5000000000000002 23.585000000000004 5.5000000000000009 612.90000000000009 1.0000000180025095e-35 1.0000000180025095e-35 -1.0733517267765327 3.5000000000000004 7.5000000000000009 1.5000000000000002 5.5000000000000009 5.5000000000000009 12.500000000000002 9.5000000000000018 5167.5000000000009 1.0000000180025095e-35 1.0000000180025095e-35 5.5000000000000009 2208.5000000000005 33.500000000000007 36.166666666666671 1.0000000180025095e-35 2.5000000000000004 32.065000000000005 2023.5000000000002 1.0000000180025095e-35 1.0000000180025095e-35 2538.0000000000005 1.0000000180025095e-35 16.500000000000004 107.50000000000001 186.50000000000003 4.5000000000000009 2015.5000000000002 9.5000000000000018 119.50000000000001 34.500000000000007 262.58333333333343 453.08333333333343 1.5530018824139424 1.0000000180025095e-35 1.0000000180025095e-35 6.5000000000000009 12.500000000000002 26.500000000000004 2515.5000000000005 3171.0000000000005 99.500000000000014 0.11229472375554059 2.5000000000000004 30.222500000000004 1.5000000000000002 1.0000000180025095e-35 1.0000000180025095e-35 3376.0000000000005 17.500000000000004 1.0000000180025095e-35 0.18941112535659627 19.681666666666668 8.5000000000000018 40.985000000000007 199.07930530396928 18.500000000000004 5.5000000000000009 132.00000000000003 8.5000000000000018 40.655000000000008 19.995000000000001 17.500000000000004 9.5000000000000018 5.5000000000000009 13.500000000000002 -1.0733517267765327 2015.5000000000002 24.500000000000004 416.55000000000007
decision_type=2 2 2 2 2 2 2 2 2 2 2 2 2 2 2 2 2 2 2 2 2 2 2 2 2 2 2 2 2 2 2 2 2 2 2 2 2 2 2 2 2 2 2 2 2 2 2 2 2 2 2 2 2 2 2 2 2 2 2 2 2 2 2 2 2 2 2 2 2 2 2 2 2 2 2 2 2 2 2 2 2 2 2 2 2 2 2 2 2 2 2 2 2 2 2 2 2 2 2 2 2 2 2 2 2 2 2 2 2 2 2 2 2 2 2 2 2 2 2 2 2 2 2 2 2 2 2 2 2 2 2 2 2 2 2 2 2 2 2 2 2 2 2 2 2 2 2 2 2 2 2 2 2 2 2 2 2 2 2 2 2 2 2 2 2 2 2 2 2 2 2 2 2 2 2 2 2 2 2 2 2 2 2 2 2 2 2 2 2 2 2 2 2 2 2 2 2 2 2 2 2 2 2 2 2
left_child=1 4 5 10 7 21 14 11 27 15 75 78 103 66 16 26 20 52 31 23 51 30 63 68 73 49 119 37 29 42 67 32 46 45 38 48 120 47 58 44 -22 53 -13 62 -26 80 -14 112 193 72 104 -5 87 127 137 59 98 -45 142 144 123 -31 -24 74 150 -49 88 95 176 -60 184 -50 -17 97 -15 76 179 130 109 158 159 -70 145 128 125 -20 147 -16 -9 99 113 -90 -34 -65 -72 107 -52 -21 -11 -18 129 -102 191 146 -47 -43 -107 -2 -55 181 -79 -86 -7 143 185 156 -74 -91 166 -4 121 -35 187 161 204 -40 -104 -27 -81 -39 -29 -66 -97 134 -80 165 174 -25 162 -132 -122 163 -10 -36 169 -30 194 -57 -124 -138 -38 -137 -85 -88 -155 -149 168 -56 178 -8 -54 -58 -105 -37 201 -68 -100 -111 -62 -23 -158 173 -173 -92 -121 -75 -12 -117 -32 180 -3 -1 -160 -163 -19 -51 -87 -78 -146 195 -41 -33 -164 -28 199 -61 -140 -179 -168 -6 -82 -148 -191 -166 -125
right_child=2 3 9 6 12 8 33 13 34 56 19 28 18 22 17 25 89 70 85 24 40 55 43 54 39 41 35 77 82 61 79 102 92 36 90 141 64 100 84 190 -42 105 -44 57 -46 50 -48 65 71 114 96 -53 160 108 157 86 60 -59 69 189 115 -63 -64 93 131 -67 135 -69 81 -71 94 -73 116 175 -76 -77 122 110 133 83 200 -83 -84 152 111 186 153 -89 91 117 171 -93 -94 -95 -96 132 -98 -99 118 -101 101 -103 126 138 -106 106 -108 -109 -110 167 -112 -113 -114 -115 -116 177 -118 -119 -120 136 140 -123 148 124 -126 -127 -128 -129 -130 -131 139 -133 -134 -135 -136 151 149 -139 196 -141 -142 -143 -144 -145 188 -147 164 155 -150 -151 -152 -153 -154 154 -156 -157 170 -159 182 -161 -162 183 192 -165 203 -167 198 -169 -170 -171 -172 172 -174 -175 -176 -177 -178 197 -180 -181 -182 -183 -184 -185 -186 -187 -188 -189 -190 202 -192 -193 -194 -195 -196 -197 -198 -199 -200 -201 -202 -203 -204 -205 -206
leaf_value=-0.066421401579432174 0.007740944269147257 -0.042079533101937551 0.021720359472902989 -0.017817501930437865 -0.025887604136302783 -0.0076563616597936195 0.014368605873998018 -0.0014428003305435113 -0.0031975354382407263 0.12405859426566576 -0.034998086965093683 -0.082834065881981875 -0.016880985509644321 -0.044956997150419328 -0.020597266672911101 0.019801894718918505 0.018501934853205376 0.083127233101044321 0.069127210108883133 -0.025640735134288172 -0.016594142532607572 0.0079233211663984199 -0.017748071182902538 0.054045607943553127 -0.0095287412912025398 0.010325523480697861 0.068908132737708724 0.094625390345246155 -0.0089486346629832052 -0.039824274722123999 -0.008034853841479778 0.024609466148174004 0.007344575149222308 0.031963284355438527 0.025512542161107401 0.017555547460964476 -0.0027579647615816817 0.045425006341504988 0.022005675298817182 0.04507473004764468 0.0044540558287744546 0.024444059681572993 -0.04716314247677203 0.018673506640066978 0.024226284533375608 0.0070898699741364611 -0.0057095441344340624 0.029157843179581741 0.003232213552930417 0.057927337869889732 0.010292233888410905 0.003594436351909213 0.041965600447660657 0.036574280524081702 0.0020312406184001572 -0.0068223663674274026 0.065314707668543165 -0.0095416796747366042 -0.00034384744745850698 0.023004888642816197 0.082122393067468671 -0.02884516270723099 0.0073879945405255186 -0.024219446148987748 0.04712287067757636 0.074896295781468655 -0.044219875469894677 -0.046639671940704876 0.007107953324747584 0.017436275160527145 0.0054903282263328006 0.029968892406036656 0.053756377797393395 0.0010280363759187568 -0.0266797459253275 -0.060197750588882271 -0.050439146788502136 0.010986430326659928 -0.071106264025353597 -0.026580900793434867 0.045363074026728775 -0.010896635135644806 0.016384657454218018 0.027707960412145505 -0.0018981894399611168 0.010636691637277419 0.053186309976458325 0.0097376652454988204 -0.039008512258874382 0.016175647434356878 0.018657140389432843 -0.02880516213438877 0.044630516651542537 0.0027320645425718462 0.049781958955347469 -0.014284955179877837 0.046505823257555777 -0.053547758657099688 0.1046185020023833 0.0037973351468151046 0.036010017697316633 0.051514475136578981 0.0172297063429016 -0.0052119287322429401 0.019470188767225904 0.052544057364055631 0.075281920734248761 -0.012230685497660331 0.049540697392316882 -0.036483207924606 0.05382707904057462 0.023991739438834998 0.019958696316916439 0.062150241629754709 0.094568796254132045 0.042673953591872524 0.082413945978922501 0.04667978487689961 0.044884413551368248 0.088026656656609803 0.039360250838744372 0.047867893899073151 -0.015426780510631288 0.065466015953263956 0.039896364607065762 0.057694455533408025 -0.013983381672173336 0.039116301955432746 0.0042206942100362051 0.091022070348081879 0.088249115534751094 0.014873748695034992 -0.039504718698831716 -0.033862402660028545 -0.056175331654657143 -0.050221570716072354 0.065908068621029992 0.024243373802827952 -0.0010734232482201153 0.05680159734528889 0.07432064804324133 -0.022537415464797296 -0.025946889336942686 0.047037006962967427 0.020516890648875626 -0.028425110426842783 -0.067319509025768373 -0.0027236115580595737 -0.025425113735491469 0.041440419108072869 0.0225056866877551 -0.020878396235862209 0.012051661433099761 0.021139893988350492 0.041646989973032789 0.019265995482631793 0.06569327115208988 0.013661275670868101 -0.027487339817894033 0.036761057590225826 0.022488310017193397 0.048874087484857151 -0.018662024195329609 -0.0037886917465298092 -0.040598900375241415 -0.07856657132694192 0.080547675868927693 -0.054040741969193146 0.057446691661191096 -0.011303361954566087 0.10135777181377917 0.034178999708485737 0.0012966760584889952 -0.01067425750854205 0.054263315266600061 -0.015302943853780648 -0.013869951985419494 0.076996626197978535 0.0065776744384474358 -0.019831548037704552 -0.023451963438465194 -0.04842188669896811 -0.0047607693651305349 0.032920711867010295 0.052922584249477045 0.07680816269812013 0.032896546039222999 -0.028094654315965729 0.0033768773268305625 0.0423497810550909 0.020420174332962417 0.051211663422361685 -0.032639091477290674 0.048339714760384025 -0.015102481078761179 0.0056597365017371313 -0.017302810652903389 0.055779620141161425 0.057524664072953091 -0.041482171987171454 0.066788129208611421 -0.048457492364003471 0.025179636360743333 -0.027204671185937772 0.085012676158497572
leaf_count=77 135 209 23 709 39 67 59 37 172 21 70 80 1077 165 43 35 405 37 26 557 196 41 771 28 1690 97 31 24 83 938 89 21 151 335 133 60 99 26 30 24 2099 30 277 133 63 527 1132 342 74 63 36 174 58 407 250 34 38 154 240 48 58 912 95 101 53 25 23 38 190 394 26 459 212 48 737 37 30 29 213 24 21 380 35 114 51 29 30 586 631 49 43 760 29 87 49 169 87 45 32 234 441 183 77 25 298 300 86 153 309 212 31 194 73 36 71 35 40 57 22 30 39 147 431 30 27 48 31 35 221 22 26 35 41 32 383 70 47 126 36 192 34 26 45 61 33 112 30 38 294 99 35 30 174 137 60 289 21 221 39 59 123 102 39 55 22 37 66 57 54 155 58 61 23 25 26 234 38 33 95 34 46 79 32 70 23 78 38 37 74 21 24 22 199 51 21 21 25 37 21 29 33 31 22 23 35
internal_value=0 -0.0353016 0.0897097 0.00214294 -0.0777406 0.0533764 0.0304797 -0.0982221 0.0823626 0.145298 -0.0353994 -0.123753 -0.0301531 -0.074937 0.0141713 0.12932 0.00454998 0.0540649 -0.0182673 -0.0230922 -0.0055722 0.0155267 -0.0549832 0.00542117 -0.0369264 0.148766 0.0942556 0.119561 -0.106384 -0.112906 -0.00567043 -0.0230093 -0.0277289 0.0723001 0.0469034 0.0748788 0.0982374 0.105242 0.0333839 -0.0214007 0.00790682 0.131671 -0.165198 -0.0309461 -0.0247722 0.0542342 -0.0333027 0.0757974 0.0908068 0.191717 0.044139 -0.040575 0.0370645 0.114923 0.039033 0.0434859 0.202743 0.0106006 0.0177112 0.0163786 0.188449 -0.102731 -0.0447118 -0.0803575 0.0483646 0.0968793 -0.103069 -0.0374366 -0.0255747 0.0319723 0.155041 0.0783828 0.161021 -0.0684969 -0.089719 -0.0792399 -0.0756409 0.174927 -0.163812 0.0159568 0.109295 -0.0145994 -0.0435791 0.0311115 0.074493 0.110107 0.0625568 0.0227786 -0.097361 0.0476788 0.0882559 -0.0998312 0.0404774 -0.035203 0.103546 -0.0294102 0.107642 -0.0829849 0.254024 0.0391814 0.12731 0.121236 0.0513502 -0.0903006 0.0345519 0.165453 0.172436 -0.00857603 0.126008 -0.139804 0.100381 0.0555458 0.0202348 0.111533 0.232319 0.218056 0.174888 0.0980548 0.234236 0.15874 0.118063 0.110109 -0.0631981 0.158804 0.199153 0.132544 0.0245362 0.0542958 0.00330313 0.202175 0.192918 0.103265 -0.0578051 -0.179811 -0.183863 -0.153084 0.169061 0.0894428 -0.0725264 0.181826 0.168372 0.00525303 -0.023909 0.0969351 -0.00470503 -0.0603421 -0.11931 0.0432058 -0.0582152 0.14833 0.0118098 -0.124463 0.0546734 0.0930045 0.0822474 0.0498576 0.239799 0.0223954 -0.0157162 0.0769231 0.0863098 0.140264 -0.0837485 0.0220857 -0.145694 -0.197953 0.251506 -0.120515 0.21137 -0.0216652 0.276949 0.052532 0.0754825 0.0234931 0.219548 -0.0373833 -0.0828307 0.176608 -0.0014771 -0.109403 -0.115842 -0.172084 -0.0520794 0.127137 0.216647 0.205403 0.0703018 -0.115461 0.0262724 0.0729561 0.0997129 0.116599 -0.0908157 0.169639 -0.0866114 0.0533606 -0.0235669 0.1991 0.225897 -0.0985983 0.177341 -0.175065 0.102463 -0.102928 0.230115
internal_count=31212 22344 8868 11871 10473 5364 6765 7321 3037 3504 5106 3490 3152 3831 4868 2744 3923 945 2633 3988 3178 2327 2243 1303 2685 1763 981 1481 2437 2207 1324 2540 2389 1897 1556 756 777 1179 1174 1801 2295 1264 357 1153 1753 1120 2209 507 615 499 948 883 810 848 625 1003 760 287 851 415 598 1850 866 1090 222 367 1588 536 678 634 135 533 287 884 902 1118 1081 302 1053 788 172 570 230 533 323 93 588 629 1428 745 382 1391 180 188 75 498 123 602 162 639 672 624 151 519 825 416 386 288 716 425 60 245 140 230 212 296 252 106 141 225 555 482 792 302 92 78 108 132 245 48 242 88 210 628 596 160 202 154 324 218 73 141 217 194 303 195 195 361 725 146 134 100 288 227 197 327 191 471 255 118 181 210 263 115 106 60 119 269 112 196 79 152 84 68 56 282 108 105 184 289 255 156 71 172 60 141 67 67 107 112 48 43 238 82 89 69 61 70 87 68 54 61 43 45 65
shrinkage=0.335151


Tree=5
num_leaves=211
num_cat=0
split_feature=0 1 30 30 30 0 0 0 1 1 30 0 98 30 0 1 1 96 30 1 96 11 11 91 30 0 23 1 1 97 96 1 0 30 11 93 96 10 98 1 30 61 0 1 0 0 30 99 30 35 11 46 0 96 23 93 2 30 23 0 10 93 11 11 0 10 1 1 11 1 1 96 96 1 30 11 46 94 55 25 100 30 11 100 94 96 95 30 11 2 1 93 11 1 96 46 1 29 0 1 10 93 0 46 29 94 21 11 30 71 97 22 0 54 98 11 93 11 3 26 20 95 1 0 29 0 66 0 0 15 0 99 10 11 11 25 10 1 30 1 81 93 11 80 93 95 2 96 96 95 93 97 29 1 99 15 30 0 29 10 29 79 26 29 11 96 24 99 95 29 34 29 1 25 95 29 25 1 29 29 29 0 94 30 63 95 93 66 11 29 11 96 1 11 96 30 1 1 99 95 42 99 99 100 25 100 28 95 18 91
split_gain=48.5342 21.7944 13.3598 6.06298 4.24235 3.41438 2.89433 2.57408 2.16422 2.08301 1.85577 1.68104 1.59292 1.29685 1.23861 1.22492 1.18482 1.09594 1.04948 1.04577 0.906416 0.879416 0.867877 0.867659 0.794375 0.745914 0.727128 0.720879 0.837111 0.808406 0.71743 0.835773 0.685566 0.645012 0.589561 0.692636 0.58816 0.577264 0.5506 0.54762 0.525167 0.52186 0.502127 0.491506 0.468592 0.451601 0.446129 0.750608 0.481272 0.44533 0.436214 0.432934 0.427401 0.419876 0.417509 0.418252 0.425091 0.377853 0.374565 0.374417 0.371992 0.37146 0.370432 0.345583 0.340683 0.334321 0.330845 0.35835 0.310881 0.307426 0.306614 0.296206 0.293095 0.331551 0.276735 0.335169 0.262113 0.257607 0.253094 0.246452 0.244448 0.240354 0.239241 0.237709 0.234695 0.234257 0.231317 0.230709 0.228262 0.227984 0.226732 0.224708 0.31775 0.263163 0.223293 0.222695 0.221572 0.284639 0.221224 0.220788 0.220423 0.239661 0.220317 0.219314 0.213157 0.212113 0.205818 0.20565 0.204424 0.203292 0.202536 0.202318 0.201664 0.196453 0.196434 0.196048 0.213778 0.191618 0.190993 0.201506 0.190861 0.183122 0.179195 0.173226 0.169626 0.166381 0.166341 0.161404 0.160807 0.158873 0.158804 0.158056 0.15628 0.164455 0.153205 0.152162 0.15174 0.150293 0.146196 0.145686 0.145522 0.144556 0.154415 0.14016 0.137655 0.137459 0.135187 0.175966 0.131384 0.13115 0.130012 0.12985 0.126266 0.125693 0.120491 0.11929 0.118307 0.118097 0.118051 0.118467 0.116702 0.116039 0.107426 0.10576 0.110259 0.102263 0.10193 0.101456 0.101296 0.100857 0.0958314 0.0947103 0.0944217 0.0931466 0.0923787 0.0918383 0.0904207 0.082208 0.0804139 0.0866071 0.0780652 0.0769436 0.0751852 0.0720447 0.0710289 0.0687552 0.0612693 0.0601413 0.0570327 0.0554016 0.0884211 0.0536102 0.0858787 0.0511222 0.0459101 0.0443156 0.0416516 0.0365964 0.03459 0.0575742 0.0328719 0.0324553 0.0309582 0.0259728 0.0255547 0.0241565 0.0199901 0.0124257 0.010366 0.00318755
threshold=37.395000000000003 239.50000000000003 -0.8115614912327529 -0.411401519229532 0.43873043604406065 60.915000000000006 24.995000000000001 26.815000000000001 296.50000000000006 49.500000000000007 1.0000000180025095e-35 24.995000000000001 16919.000000000004 -0.8115614912327529 54.405000000000008 421.50000000000006 150.50000000000003 1659.5000000000002 -0.8115614912327529 166.50000000000003 2515.5000000000005 8.5000000000000018 12.500000000000002 1.0000000180025095e-35 -1.0131598561079593 77.655000000000015 1.0000000180025095e-35 47.500000000000007 1.0000000180025095e-35 2921.5000000000005 11261.000000000002 61.500000000000007 92.25500000000001 2.1946510246663609 11.500000000000002 5167.5000000000009 5059.5000000000009 6.5000000000000009 7416.0000000000009 43.500000000000007 -1.0733517267765327 1.0000000180025095e-35 12.815000000000003 16.500000000000004 13.810000000000002 11.260000000000002 1.5530018824139424 6136.0000000000009 1.7113214997370925 1.0000000180025095e-35 8.5000000000000018 1.0000000180025095e-35 57.965000000000011 14656.500000000002 1.0000000180025095e-35 2220.5000000000005 9.5000000000000018 -0.92380984718569514 1.0000000180025095e-35 53.935000000000009 1.5000000000000002 1474.0000000000002 14.500000000000002 11.500000000000002 80.740000000000023 1.5000000000000002 3.5000000000000004 10.500000000000002 4.5000000000000009 36.500000000000007 546.50000000000011 985.00000000000011 11261.000000000002 36.500000000000007 2.1946510246663609 5.5000000000000009 1.0000000180025095e-35 26.500000000000004 1.0000000180025095e-35 616.76190476190493 30.500000000000004 -1.0131598561079593 9.5000000000000018 388.00000000000006 61.500000000000007 11261.000000000002 117.50000000000001 0.43873043604406065 23.500000000000004 6.5000000000000009 506.50000000000006 2220.5000000000005 2.5000000000000004 174.50000000000003 14656.500000000002 1.0000000180025095e-35 363.50000000000006 25.072500000000002 35.590000000000011 16.500000000000004 6.5000000000000009 1998.0000000000002 12.815000000000003 1.0000000180025095e-35 25.001666666666669 37.500000000000007 1.0000000180025095e-35 9.5000000000000018 -0.8115614912327529 1.0000000180025095e-35 2921.5000000000005 1.0000000180025095e-35 80.740000000000023 1.0000000180025095e-35 288.00000000000006 2.5000000000000004 2516.0000000000005 11.500000000000002 2.5000000000000004 180.50000000000003 1.0000000180025095e-35 105.50000000000001 522.50000000000011 17.205000000000002 16.003333333333337 27.555000000000003 1.0000000180025095e-35 21.735000000000003 83.855000000000004 1.0000000180025095e-35 44.840000000000011 9014.5000000000018 4.5000000000000009 17.500000000000004 11.500000000000002 416.55000000000007 1.5000000000000002 54.500000000000007 -0.19109970431896869 1.5000000000000002 1.0000000180025095e-35 3334.0000000000005 16.500000000000004 1.0000000180025095e-35 2796.5000000000005 53.500000000000007 32.500000000000007 547.50000000000011 1659.5000000000002 94.500000000000014 3171.0000000000005 11919.500000000002 44.705000000000005 79.500000000000014 9014.5000000000018 1.0000000180025095e-35 1.7113214997370925 65.555000000000021 26.672500000000003 6.5000000000000009 27.321666666666669 1.0000000180025095e-35 224.50000000000003 45.055000000000007 7.5000000000000009 8285.0000000000018 6.5000000000000009 9014.5000000000018 119.50000000000001 23.585000000000004 1.0000000180025095e-35 39.57500000000001 329.50000000000006 599.22500000000014 76.000000000000014 28.872500000000006 809.30952380952397 210.50000000000003 49.020000000000003 44.705000000000005 20.205833333333334 33.005000000000003 9.5000000000000018 -1.0733517267765327 1.0000000180025095e-35 133.50000000000003 1959.5000000000002 1.0000000180025095e-35 9.5000000000000018 18.285000000000004 5.5000000000000009 14656.500000000002 49.500000000000007 4.5000000000000009 2015.5000000000002 -0.23534186443431446 256.50000000000006 190.50000000000003 7118.0000000000009 110.50000000000001 1.0000000180025095e-35 6136.0000000000009 9014.5000000000018 63.500000000000007 505.07142857142867 24.500000000000004 1.0000000180025095e-35 146.00000000000003 1.0000000180025095e-35 1.0000000180025095e-35
decision_type=2 2 2 2 2 2 2 2 2 2 2 2 2 2 2 2 2 2 2 2 2 2 2 2 2 2 2 2 2 2 2 2 2 2 2 2 2 2 2 2 2 2 2 2 2 2 2 2 2 2 2 2 2 2 2 2 2 2 2 2 2 2 2 2 2 2 2 2 2 2 2 2 2 2 2 2 2 2 2 2 2 2 2 2 2 2 2 2 2 2 2 2 2 2 2 2 2 2 2 2 2 2 2 2 2 2 2 2 2 2 2 2 2 2 2 2 2 2 2 2 2 2 2 2 2 2 2 2 2 2 2 2 2 2 2 2 2 2 2 2 2 2 2 2 2 2 2 2 2 2 2 2 2 2 2 2 2 2 2 2 2 2 2 2 2 2 2 2 2 2 2 2 2 2 2 2 2 2 2 2 2 2 2 2 2 2 2 2 2 2 2 2 2 2 2 2 2 2 2 2 2 2 2 2 2 2 2 2 2 2
left_child=1 3 8 11 5 9 30 10 25 38 15 24 27 76 16 22 46 91 43 41 50 52 44 95 62 36 39 28 144 -30 31 84 61 86 35 -19 81 114 77 -22 88 100 122 51 174 191 47 85 148 106 113 187 89 99 55 170 -57 -46 79 126 111 -21 102 112 78 196 80 -68 -63 127 98 -53 73 -47 115 140 90 82 146 -33 -40 178 -4 -50 87 -6 -29 -5 121 118 172 93 -93 -11 -74 150 97 151 -62 139 153 -102 161 136 -45 169 135 -49 176 -56 -28 160 -43 -14 -34 130 -117 -113 119 -10 -67 -38 -12 -71 -105 -52 145 -55 198 156 -18 -97 133 -128 -106 -15 -25 -131 -36 -32 -76 200 168 -101 -8 208 147 -16 -48 -39 -17 -44 -77 -7 -120 -110 -80 -144 -27 -160 -51 -1 165 164 197 181 -72 -107 -143 -98 -20 -148 -9 207 -3 -174 -24 -104 179 -2 -147 -78 202 -134 -167 -35 -99 -13 194 204 -191 206 -193 -184 -83 -79 -42 -66 -54 -200 -61 -60 -91 -90 -164 -86 -26 -64 -23 -92
right_child=2 7 4 6 14 19 12 13 21 17 42 18 20 49 64 23 74 34 54 32 26 59 108 103 45 158 110 33 29 -31 53 58 37 185 138 -37 40 149 66 -41 65 63 96 104 57 72 48 107 83 60 125 71 128 69 109 56 -58 -59 201 141 70 68 173 -65 163 120 67 -69 -70 123 166 -73 94 -75 75 152 162 195 129 -81 -82 188 -84 -85 205 -87 -88 -89 203 182 209 92 -94 -95 -96 131 105 186 -100 143 101 -103 177 124 134 167 -108 -109 155 -111 -112 117 -114 -115 -116 116 -118 -119 154 -121 -122 -123 -124 -125 -126 -127 132 -129 -130 137 -132 -133 183 -135 -136 -137 -138 -139 -140 -141 -142 142 157 -145 -146 180 171 -149 -150 -151 -152 -153 -154 -155 -156 -157 -158 -159 159 -161 -162 -163 189 -165 -166 184 -168 -169 -170 -171 -172 -173 175 -175 -176 -177 -178 -179 -180 -181 -182 -183 193 -185 -186 -187 -188 -189 -190 190 -192 192 -194 -195 -196 -197 -198 -199 199 -201 -202 -203 -204 -205 -206 -207 -208 -209 -210 -211
leaf_value=-0.060099334582247005 0.013705421053485219 -0.031671062941322506 0.049377319632908673 0.0066958350355097781 0.10210916080875501 0.033533210545285207 0.010927358197273184 -0.0088922183856579087 0.00068928358667898865 0.026643039161755065 -0.028542825619538918 0.034683032175794076 0.0035335983546686176 -0.0043199083179554067 0.074320815258099318 -0.052541804067216369 0.018878275354501057 0.0077256294304699777 -0.01392719135192903 -0.018164795905632618 0.0055788229233912556 -0.03654356392357562 -0.045361637783197822 -0.054732298508367479 -0.044544373178546377 0.021672465408892158 0.055631437840561501 0.0007460077806611782 0.042208822730834379 0.018734619657972865 -0.013519593793885136 -0.0024527993116210014 0.042829214099229011 0.041454725353404109 -0.0015286537493866717 0.022892199695544017 -0.010697974173194597 0.053134783522853002 0.025769914240199032 -0.0048162029881334825 -0.00080861211981502834 0.05597228697523382 -0.015211839656901583 0.013111649317791215 -0.031308622216568771 0.0081465494688058478 0.037339959545764551 0.047445474990286174 0.052054691292140368 -0.02037402397070304 -0.015299169054587523 0.023781534401320293 0.022653331882256732 0.00043473769147531579 0.0057383428630706232 0.001736583032425144 0.02544058895568458 -0.022279533558109455 0.013168830674722789 -0.013104293408807961 -0.0033169811056608278 0.038950421308670512 -0.046687127827156026 0.022218779765654603 0.079556715496356456 0.0053851102992873148 0.040993643808619425 0.021837389607460678 0.02022877543050678 -0.027117037177186033 -0.022463490490686265 -0.0082202431840639519 -0.01949062152528561 -0.0097595329574107024 0.056127817499859935 0.024219160592768706 -0.016211859482806186 0.016309549231051379 0.019291537475630529 -0.014223901363575903 0.0076216600905300597 0.050457758725814726 0.023503544051261326 0.028977475100830225 0.045291413053109478 0.055200880931338334 0.012007550842521355 0.029727187429045017 -0.031987280644579577 0.007326475330417778 -0.060918206974952059 0.059021938954463254 0.027845697935825146 -0.0047189280744129878 -0.0095482403675446244 -0.029477816209916949 -0.011033374069298763 0.026361337286799146 0.011441453929331321 -0.017318553539648774 0.015538416668450192 0.053992409198099459 -0.019997151327547976 -0.043135907705732168 -0.014164180006348719 -0.0314779799455292 -0.054783722481031076 0.015681020909376814 -0.02489091486117187 0.048804348745937122 0.018323737552729341 -0.0082174805752036166 0.079902761773099254 0.019698358852446998 0.0043146450220692256 0.018873358911942351 0.00080608322639998933 -0.038808445443899504 0.027292324280192889 -0.018523071590341049 0.016759193721250724 0.002148798037819095 -0.068028861991740547 -0.0066628348964216828 -0.026824643269344715 0.014262569839368203 -0.0060617632359025496 0.022672766936561745 0.043493139088493421 0.066640383238161072 0.050694225054634029 -0.056125705155702262 -0.03643152788394359 -0.030952236581952997 -0.025459917355935783 -0.038578876896999868 -0.035342194173235551 0.039263575235767283 -0.021114028429516766 0.010098567757329294 0.025859198801427889 -0.0026020482691633284 -0.031747468920189405 -0.031525609102621435 -0.0091724407505737477 -0.016809952018414686 0.049268052813387336 0.051054107018542294 0.023724432475331944 0.087348614307466779 -0.073750690789736006 -0.00076673082820883308 -0.0051287739118552004 0.0096715224225185584 -0.0020738552227894721 -0.042898866761262151 0.044447208178201157 -0.00030509744723160521 0.032354586440719042 0.06728227022968053 -0.05692565947221729 -0.027608785356867182 -0.01083420339527672 0.087704662447094656 0.039499149235635155 -0.016539411234061163 0.0016082773191312572 -0.017301380220905969 0.01608208233968824 -0.028268086602025701 0.0048770720514266681 0.021901085799697753 -0.027261955686813132 -0.065451050342800132 -0.047968472383171111 -0.048884738712940225 -0.065861359063683469 -0.03909226759521791 0.029214961924593885 -0.0031361571960837704 -0.031474009097651773 0.010445646165688723 0.022611634400744152 -0.018812870234271969 -0.027887912191316835 0.025421513146395128 0.0037457946564135843 0.012469057882808986 0.021379405736898675 -0.017652306593149921 -0.044782976392598761 -0.0073117962383643991 -0.035785822305627657 0.0045728190253690329 0.029388779368412526 0.033021765881346796 -0.013650514710735754 0.053573865949773647 -0.0015838241264019657 0.016035145087891629 -0.029880490741495506 0.029934358141097708 -0.0092635836583658641 -0.015361946266770567 -0.027057389640384531 0.027210803473476753 -0.029307210029111852 -0.032806654473362118 -0.052395949961669852 -0.046164880718308855
leaf_count=25 234 72 214 253 38 115 89 25 89 127 31 30 99 34 48 69 54 1705 219 23 1147 27 240 94 41 30 30 326 311 356 81 976 33 58 273 422 184 32 144 1130 184 153 347 28 756 151 124 94 220 21 69 34 25 111 21 1000 92 1755 27 35 716 132 23 27 28 277 177 302 428 52 110 468 530 496 57 55 24 54 72 251 200 25 53 71 22 24 554 60 29 22 23 51 142 39 495 47 287 22 135 299 23 111 562 98 752 162 27 32 101 30 38 136 66 604 27 177 126 27 21 197 419 384 25 401 315 30 160 54 21 30 27 66 48 36 167 25 108 135 50 45 30 85 27 109 66 89 31 298 257 34 105 88 23 33 55 79 31 26 27 23 21 30 21 27 27 210 24 95 52 44 35 31 127 23 123 29 33 27 31 40 84 23 41 67 94 81 34 28 40 22 45 22 27 32 35 30 33 23 37 47 24 31 28 22 29 26 26 40 22 36
