tree
version=v2
num_class=1
num_tree_per_iteration=1
label_index=0
max_feature_idx=101
objective=regression
feature_names=area_num age_month max_floor room_num L D K R S north structure_orderd min_time avg_time bicycle_parking car_parking bike_parking toilet bath sm_doku kanso onsui oidaki b_t_split teiki_syakuya e_num dis_ave dis_min school univ area_par_room 23ku_mean_std facilities_0 facilities_1 facilities_2 facilities_3 facilities_4 facilities_5 facilities_6 facilities_7 facilities_8 facilities_9 facilities_10 facilities_11 facilities_12 facilities_13 facilities_14 facilities_15 facilities_16 facilities_17 facilities_18 facilities_19 facilities_20 facilities_21 facilities_22 facilities_23 facilities_24 facilities_25 facilities_26 facilities_27 facilities_28 facilities_29 facilities_30 facilities_31 facilities_32 facilities_33 facilities_34 facilities_35 facilities_36 bc_0 bc_1 bc_2 bc_3 bc_4 bc_5 bc_6 bc_7 kitchen_0 kitchen_1 kitchen_2 kitchen_3 kitchen_4 kitchen_5 kitchen_6 kitchen_7 kitchen_8 kitchen_9 kitchen_10 kitchen_11 kitchen_12 kitchen_13 kitchen_14 kitchen_15 kitchen_16 23ku_countall area_num_countall age_countall floor_countall max_floor_countall layout_countall direction_countall facilities_countall contract_period_countall
feature_infos=[20.530000000000001:341.30000000000001] [0:578] [2:58] [1:6] none none none none [0:1] [0:1] [1:8] [1:20] [2:39.666666666666657] [0:2] [0:2] [0:1] none none [0:1] [0:1] [0:1] [0:1] [0:1] [0:1] [0:10] [37.5:1422.333333333333] [1:889] [0:1] none [20.082000000000001:144.34999999999999] [-0.68655320968588784:2.6514876487406509] [0:1] [0:1] [0:1] [0:1] [0:1] [0:1] [0:1] none none none [0:1] [0:1] [0:1] none [0:1] [0:1] none none [0:1] none [0:1] none none [0:1] [0:1] none [0:1] none none none [0:1] none [0:1] [0:1] none [0:1] none [0:1] [0:1] [0:1] [0:1] [0:1] [0:1] none [0:1] [0:1] [0:1] [0:1] [0:1] none [0:1] [0:1] [0:1] none none none none none none [0:1] [0:1] none [867:5971] [1:18] [14:1885] [2:17201] [12:12311] [7:23661] [2667:17695] [1:3063] none
tree_sizes=541 645 569 650 651 648 721 728 651 579 727 660 583 635 513 662 432 664 518 656 593 665 658 506 431 597 507 672 436 435 509 495 663 522 511 435 439 589 746 514 518 515 508 749 514 515 513 665 588 511 750 670 512 591 518 435 595 595 496 752 520 515 675 603 673 594 517 513 667 766 437 594 597 440 527 685 439 760 499 436 678 522 678 594 519 763 525 516 600 600 677 685 279 680 276 522 276 679 516 445

Tree=0
num_leaves=6
num_cat=0
split_feature=0 0 30 30 12
split_gain=5.78221 1.99016 2.14904 1.02149 0.173258
threshold=156.28500000000003 84.835000000000008 1.7113214997370925 1.039956282021937 5.416666666666667
decision_type=2 2 2 2 2
left_child=1 4 -3 -2 -1
right_child=3 2 -4 -5 -6
leaf_value=13.208862516584892 13.267864005679213 13.201493940229328 13.258302264224985 13.364788080839158 13.17455366627474
leaf_count=13 14 81 71 15 60
internal_value=0 -0.0552764 0.0103332 0.40586 -0.188751
internal_count=254 225 152 29 73
shrinkage=1


Tree=1
num_leaves=7
num_cat=0
split_feature=0 23 0 1 30 98
split_gain=3.85868 2.33354 0.617808 1.34887 0.589458 0.0972158
threshold=118.69000000000001 1.0000000180025095e-35 84.835000000000008 66.000000000000014 1.039956282021937 7416.0000000000009
decision_type=2 2 2 2 2 2
left_child=2 4 5 -4 -2 -1
right_child=1 -3 3 -5 -6 -7
leaf_value=-0.039129078154711908 -0.015499163335973329 0.10098343186252291 0.032505830718740122 -0.023846580746893435 0.03952387918349963 -0.013149961697167978
leaf_count=60 22 27 34 78 20 13
internal_value=0 0.199573 -0.074465 -0.0268212 0.0466313 -0.144952
internal_count=254 69 185 112 42 73
shrinkage=0.241263


Tree=2
num_leaves=6
num_cat=0
split_feature=0 23 97 0 30
split_gain=2.5012 0.959945 0.606026 0.530527 0.450746
threshold=156.28500000000003 1.0000000180025095e-35 33.000000000000007 88.830000000000013 1.039956282021937
decision_type=2 2 2 2 2
left_child=1 2 -1 -3 -2
right_child=4 3 -4 -5 -6
leaf_value=0.02288130074821627 0.027740500565005065 -0.015382098654519148 -0.023468850967109735 0.030647637856415839 0.09215067848683739
leaf_count=17 14 20 144 44 15
internal_value=0 -0.035081 -0.0760856 0.0672085 0.26826
internal_count=254 225 161 64 29
shrinkage=0.241263


Tree=3
num_leaves=7
num_cat=0
split_feature=29 98 100 30 23 29
split_gain=1.44088 1.18043 0.60273 0.527984 0.349299 0.33784
threshold=52.107500000000009 7416.0000000000009 4.5000000000000009 1.7113214997370925 1.0000000180025095e-35 39.818750000000009
decision_type=2 2 2 2 2 2
left_child=3 2 -2 4 -1 -5
right_child=1 -3 -4 5 -6 -7
leaf_value=-0.028616048371262706 0.076255830919498571 -0.017566612683551041 0.020125571617752819 -0.010783019689735281 0.0077123356979171814 0.018919546977100798
leaf_count=83 24 20 23 45 18 41
internal_value=0 0.125825 0.210005 -0.0431999 -0.0916271 0.0143655
internal_count=254 67 47 187 101 86
shrinkage=0.241263


Tree=4
num_leaves=7
num_cat=0
split_feature=0 1 0 93 97 21
split_gain=1.35384 0.572012 0.687565 0.543143 0.478381 0.297857
threshold=104.00000000000001 192.00000000000003 182.93000000000004 2538.0000000000005 35.000000000000007 1.0000000180025095e-35
decision_type=2 2 2 2 2 2
left_child=4 3 -3 -2 -1 -6
right_child=1 2 -4 -5 5 -7
leaf_value=0.017930046981417154 0.017865032085321877 -0.013228115223299643 0.048761137801880315 0.067617747529215511 0.0086472340813891317 -0.024894349459693363
leaf_count=21 36 40 12 20 17 108
internal_value=0 0.0861047 0.0094077 0.154581 -0.0605115 -0.0839798
internal_count=254 108 52 56 146 125
shrinkage=0.241263


Tree=5
num_leaves=7
num_cat=0
split_feature=0 23 0 97 94 25
split_gain=0.84448 0.732255 0.226341 0.282953 0.250426 0.192412
threshold=138.83000000000001 1.0000000180025095e-35 104.00000000000001 35.000000000000007 1.5000000000000002 432.58333333333343
decision_type=2 2 2 2 2 2
left_child=2 5 3 -1 -4 -2
right_child=1 -3 4 -5 -6 -7
leaf_value=0.01396366180188203 0.02133124681498582 0.06515862369292269 -0.012294761193886065 -0.015429286622890852 0.017820629259193879 -0.017700233069095701
leaf_count=21 14 18 25 125 39 12
internal_value=0 0.125512 -0.0242305 -0.0458732 0.0249598 0.0136444
internal_count=254 44 210 146 64 26
shrinkage=0.241263


Tree=6
num_leaves=8
num_cat=0
split_feature=0 29 1 0 1 99 97
split_gain=0.524597 0.403163 0.34247 0.505964 0.212104 0.168879 0.0917864
threshold=118.69000000000001 51.24633333333334 64.000000000000014 72.100000000000009 196.50000000000003 3254.5000000000005 8846.5000000000018
decision_type=2 2 2 2 2 2 2
left_child=2 4 3 -1 -2 -4 -3
right_child=1 6 5 -5 -6 -7 -8
leaf_value=-0.024808619971020903 0.021148847122143311 0.043801312036278982 0.010190454763717641 0.018562745192611051 -0.016296784367903622 -0.017962319494757125 0.014485793709621617
leaf_count=20 13 24 13 54 20 98 12
internal_value=0 0.0757333 -0.0254365 0.0269233 -0.00480651 -0.0602558 0.146237
internal_count=254 69 185 74 33 111 36
shrinkage=0.241263


Tree=7
num_leaves=8
num_cat=0
split_feature=29 100 95 99 30 94 30
split_gain=0.396218 0.34767 0.181818 0.152026 0.163579 0.138308 0.136063
threshold=41.740000000000002 4.5000000000000009 79.500000000000014 6136.0000000000009 1.039956282021937 2.5000000000000004 2.1946510246663609
decision_type=2 2 2 2 2 2 2
left_child=3 2 -2 5 -5 -1 -3
right_child=1 6 -4 4 -6 -7 -8
leaf_value=-0.012875612333562847 0.0023439328754235656 -0.0092353403490256711 0.03252033126315558 -0.035381590086795596 -0.0091253559649358829 0.014025749777041253 0.011215715868839935
leaf_count=18 17 46 39 17 63 24 30
internal_value=0 0.0399679 0.098482 -0.0386487 -0.063885 0.00998419 -0.00443167
internal_count=254 132 56 122 80 42 76
shrinkage=0.241263


Tree=8
num_leaves=7
num_cat=0
split_feature=0 2 1 0 12 9
split_gain=0.348872 0.385995 0.322005 0.387615 0.162874 0.121508
threshold=138.83000000000001 7.5000000000000009 64.000000000000014 72.100000000000009 9.1666666666666696 1.0000000180025095e-35
decision_type=2 2 2 2 2 2
left_child=2 4 3 -1 -2 -4
right_child=1 -3 5 -5 -6 -7
leaf_value=-0.019849441853897573 0.019832642885362003 0.053170844364063663 -0.014446373885577676 0.017574041897335232 -0.012961029767416123 0.0052719552139579833
leaf_count=20 17 12 108 61 15 21
internal_value=0 0.0808202 -0.0155497 0.0334678 0.0188917 -0.0464081
internal_count=254 44 210 81 32 129
shrinkage=0.241263


Tree=9
num_leaves=6
num_cat=0
split_feature=23 0 1 26 94
split_gain=0.245467 0.256521 0.138475 0.129066 0.14803
threshold=1.0000000180025095e-35 138.83000000000001 64.000000000000014 68.500000000000014 4.5000000000000009
decision_type=2 2 2 2 2
left_child=3 2 -2 -1 -5
right_child=1 -3 -4 4 -6
leaf_value=0.017874228904726595 0.019128223514432413 0.035306449473494428 -0.0046000294019983975 -0.0026356471392034978 -0.020311588509896259
leaf_count=12 20 18 41 129 34
internal_value=0 0.0473553 0.0145176 -0.0193475 -0.0270342
internal_count=254 79 61 175 163
shrinkage=0.241263


Tree=10
num_leaves=8
num_cat=0
split_feature=0 1 11 29 1 97 99
split_gain=0.189522 0.196144 0.233822 0.202923 0.0972822 0.157132 0.0808433
threshold=104.00000000000001 116.50000000000001 5.5000000000000009 69.415000000000006 108.50000000000001 38.000000000000007 5839.5000000000009
decision_type=2 2 2 2 2 2 2
left_child=4 2 -2 -3 5 -1 -6
right_child=1 3 -4 -5 6 -7 -8
leaf_value=0.020491131471688188 0.003594889279530064 -0.0039021242533377161 0.047772521311637138 0.02644958435973898 0.0043233274401018257 -0.0050408262658680663 -0.01650114273811485
leaf_count=16 15 67 12 14 13 66 51
internal_value=0 0.0331131 0.104147 0.00752314 -0.0219337 0.00114995 -0.0507698
internal_count=254 108 27 81 146 82 64
shrinkage=0.241263


Tree=11
num_leaves=7
num_cat=0
split_feature=30 68 0 95 0 98
split_gain=0.138008 0.240119 0.149757 0.117463 0.101179 0.0910249
threshold=2.1946510246663609 1.0000000180025095e-35 83.180000000000021 97.500000000000014 182.93000000000004 406.50000000000006
decision_type=2 2 2 2 2 2
left_child=4 3 -3 -2 5 -1
right_child=1 2 -4 -5 -6 -7
leaf_value=-0.017641397809562694 0.00089430182987233851 -0.019157738268943247 0.0060814566059160724 0.029594638586209351 0.015845177229376801 -0.0026835018639080493
leaf_count=29 12 19 39 28 12 115
internal_value=0 0.0309917 -0.0104077 0.0888948 -0.0167625 -0.0244361
internal_count=254 98 58 40 156 144
shrinkage=0.241263


Tree=12
num_leaves=6
num_cat=0
split_feature=41 12 1 29 95
split_gain=0.126376 0.152477 0.116993 0.302404 0.139103
threshold=1.0000000180025095e-35 7.8333333333333348 108.50000000000001 37.323333333333345 163.50000000000003
decision_type=2 2 2 2 2
left_child=1 -1 3 -2 -4
right_child=2 -3 4 -5 -6
leaf_value=0.024590345571489692 -0.0088356039762390211 -0.0056960111971535278 -0.012922334508673477 0.018088365726851803 0.0039076449463615551
leaf_count=23 48 15 78 46 44
internal_value=0 0.0534743 -0.00810898 0.0183368 -0.0284971
internal_count=254 38 216 94 122
shrinkage=0.241263


Tree=13
num_leaves=7
num_cat=0
split_feature=0 79 1 26 96 94
split_gain=0.116836 0.1092 0.141285 0.0920679 0.0903088 0.104963
threshold=99.500000000000014 1.0000000180025095e-35 196.50000000000003 206.50000000000003 22.500000000000004 6.5000000000000009
decision_type=2 2 2 2 2 2
left_child=4 3 -3 -2 -1 -6
right_child=1 2 -4 -5 5 -7
leaf_value=0.014225708770392389 -0.013435292344141989 0.020227366412927453 0 0.010631607845345947 -0.0092875978785647365 0.010416116149247265
leaf_count=12 24 42 38 13 108 17
internal_value=0 0.0243807 0.0449883 -0.02006 -0.0186043 -0.0268656
internal_count=254 117 80 37 137 125
shrinkage=0.241263


Tree=14
num_leaves=5
num_cat=0
split_feature=49 41 12 26
split_gain=0.112923 0.0905414 0.105581 0.0746927
threshold=1.0000000180025095e-35 1.0000000180025095e-35 7.8333333333333348 108.00000000000001
decision_type=2 2 2 2
left_child=1 2 -1 -3
right_child=-2 3 -4 -5
leaf_value=0.019412121586795086 0.021577267823623843 0.010904944911253248 -0.0062412202021702307 -0.0044697970263513484
leaf_count=23 12 19 14 186
internal_value=0 -0.00384877 0.0407928 -0.012233
internal_count=254 242 37 205
shrinkage=0.241263


Tree=15
num_leaves=7
num_cat=0
split_feature=0 30 96 24 99 96
split_gain=0.0933164 0.113114 0.0710283 0.0706283 0.0881547 0.051386
threshold=138.83000000000001 2.1946510246663609 8285.0000000000018 2.5000000000000004 6136.0000000000009 226.50000000000003
decision_type=2 2 2 2 2 2
left_child=3 2 -2 5 -5 -1
right_child=1 -3 -4 4 -6 -7
leaf_value=-0.00050247511322129568 0.013875862461922092 0.02680399904407731 -0.0086387591812969195 0.0085947554704900193 -0.0034099891808520477 -0.01550104619916969
leaf_count=24 13 14 17 54 101 31
internal_value=0 0.0424176 0.00548308 -0.00772166 0.00338885 -0.0381932
internal_count=254 44 30 210 155 55
shrinkage=0.241263


Tree=16
num_leaves=4
num_cat=0
split_feature=11 18 0
split_gain=0.0688802 0.106178 0.123076
threshold=9.5000000000000018 1.0000000180025095e-35 142.58000000000001
decision_type=2 2 2
left_child=1 -1 -3
right_child=-2 2 -4
leaf_value=0.020648111282388342 -0.012828252653089621 -0.0021076821084010894 0.014868257270771953
leaf_count=14 20 193 27
internal_value=0 0.00610243 0.000329784
internal_count=254 234 220
shrinkage=0.241263


Tree=17
num_leaves=7
num_cat=0
split_feature=30 68 1 1 14 12
split_gain=0.066391 0.118373 0.104914 0.0952083 0.0556312 0.0568015
threshold=1.039956282021937 1.0000000180025095e-35 19.500000000000004 22.000000000000004 1.0000000180025095e-35 9.5000000000000018
decision_type=2 2 2 2 2 2
left_child=4 2 -2 -3 -1 -6
right_child=1 3 -4 -5 5 -7
leaf_value=-0.016168332604278312 -0.0046334167055042423 0.012078368709295484 0.014536521492667999 -0.0061558973753003876 0.0065627583841512205 -0.01035285028375562
leaf_count=21 22 19 60 88 24 20
internal_value=0 0.0105705 0.0389183 -0.0114053 -0.0264583 -0.00500897
internal_count=254 189 82 107 65 44
shrinkage=0.241263


Tree=18
num_leaves=5
num_cat=0
split_feature=49 12 100 69
split_gain=0.0613683 0.0601099 0.0637086 0.0583269
threshold=1.0000000180025095e-35 5.166666666666667 73.500000000000014 1.0000000180025095e-35
decision_type=2 2 2 2
left_child=1 3 -3 -1
right_child=-2 2 -4 -5
leaf_value=-0.0016936233387648656 0.015952365837429202 -0.00023507976350323607 -0.011500123856428231 0.02039934219055459
leaf_count=13 12 182 34 13
internal_value=0 -0.00303576 -0.00870072 0.0412186
internal_count=254 242 216 26
shrinkage=0.241263


Tree=19
num_leaves=7
num_cat=0
split_feature=96 96 2 97 95 93
split_gain=0.0508323 0.123093 0.120404 0.100568 0.0683368 0.0603079
threshold=547.50000000000011 2515.5000000000005 18.500000000000004 2150.5000000000005 98.500000000000014 2545.5000000000005
decision_type=2 2 2 2 2 2
left_child=2 3 -1 -2 -4 -3
right_child=1 5 4 -5 -6 -7
leaf_value=-0.02443292244047425 0.024801983318297527 -0.0058633201172146642 0.0132348572507984 0.0020389227370310363 -0.0042074841064838539 0.0051609355893287448
leaf_count=13 21 71 15 24 62 48
internal_value=0 0.0112987 -0.018459 0.0549797 -0.00230446 -0.00578058
internal_count=254 164 90 45 77 119
shrinkage=0.241263


Tree=20
num_leaves=6
num_cat=0
split_feature=1 100 29 100 19
split_gain=0.0454886 0.0489604 0.0936172 0.0572856 0.022526
threshold=281.50000000000006 73.500000000000014 39.818750000000009 249.50000000000003 1.0000000180025095e-35
decision_type=2 2 2 2 2
left_child=1 2 -1 -3 -2
right_child=4 3 -4 -5 -6
leaf_value=-0.0030857367074420589 -0.012271016888349199 -0.013719584815025563 0.0079994835541937186 0.0062030287492954106 -0.00046130380145558239
leaf_count=78 22 22 102 12 18
internal_value=0 0.00655834 0.0132916 -0.0277541 -0.0300493
internal_count=254 214 180 34 40
shrinkage=0.241263


Tree=21
num_leaves=7
num_cat=0
split_feature=30 96 2 96 29 70
split_gain=0.0357289 0.116509 0.141051 0.0824644 0.0367904 0.0282169
threshold=1.7113214997370925 754.50000000000011 25.500000000000004 2515.5000000000005 72.100000000000009 1.0000000180025095e-35
decision_type=2 2 2 2 2 2
left_child=4 2 -2 -3 5 -1
right_child=1 3 -4 -5 -6 -7
leaf_value=-0.0068645290088056223 -0.015711397096055242 0.024999864233556497 0.0075160392216226217 0.0048247999439530011 0.0093919260158309304 0.00082082480378142472
leaf_count=76 30 15 28 47 12 46
internal_value=0 0.0130336 -0.0190417 0.0427967 -0.0110493 -0.0165307
internal_count=254 120 58 62 134 122
shrinkage=0.241263


Tree=22
num_leaves=7
num_cat=0
split_feature=0 1 93 24 12 51
split_gain=0.0419605 0.0765311 0.155524 0.0864115 0.0490589 0.071408
threshold=88.40000000000002 64.000000000000014 2538.0000000000005 1.5000000000000002 5.166666666666667 1.0000000180025095e-35
decision_type=2 2 2 2 2 2
left_child=4 2 -2 -3 -1 -6
right_child=1 3 -4 -5 5 -7
leaf_value=0.0092153033098563517 -0.0001337674327839973 0.01021987798688149 0.0325560455334305 -0.0041361621966155655 -0.020846636370820865 -0.0026120116773832103
leaf_count=13 22 32 12 91 14 70
internal_value=0 0.0107041 0.0517362 -0.00121073 -0.016009 -0.0251206
internal_count=254 157 34 123 97 84
shrinkage=0.241263


Tree=23
num_leaves=5
num_cat=0
split_feature=26 0 1 1
split_gain=0.0369958 0.0737441 0.0690926 0.0371366
threshold=50.500000000000007 74.185000000000016 64.000000000000014 6.5000000000000009
decision_type=2 2 2 2
left_child=-1 3 -3 -2
right_child=1 2 -4 -5
leaf_value=0.012033881649353267 -0.0010590517005645457 0.008099366957876367 -0.001689730635637523 -0.019060295545052539
leaf_count=13 12 57 156 16
internal_value=0 -0.00250823 0.00403049 -0.0495189
internal_count=254 241 213 28
shrinkage=0.241263


Tree=24
num_leaves=4
num_cat=0
split_feature=11 29 1
split_gain=0.0322162 0.0441491 0.0383063
threshold=9.5000000000000018 72.100000000000009 250.50000000000003
decision_type=2 2 2
left_child=1 2 -1
right_child=-2 -3 -4
leaf_value=0.0013874379618843734 -0.00896928042871235 0.011173077487670874 -0.0070525512191720457
leaf_count=175 20 21 38
internal_value=0 0.00386406 -0.000668997
internal_count=254 234 213
shrinkage=0.241263


Tree=25
num_leaves=6
num_cat=0
split_feature=95 100 31 41 76
split_gain=0.0309296 0.0610744 0.0799429 0.0505729 0.0574296
threshold=115.50000000000001 1.5000000000000002 1.0000000180025095e-35 1.0000000180025095e-35 1.0000000180025095e-35
decision_type=2 2 2 2 2
left_child=3 -2 -3 -1 -5
right_child=1 2 -4 4 -6
leaf_value=0.014647291795815682 0.0098104641090373066 -0.011671888575123633 0.0003285859252802707 0.0047158945393151516 -0.010611811760661097
leaf_count=18 21 48 96 53 18
internal_value=0 -0.00802188 -0.0155962 0.015468 0.00263902
internal_count=254 165 144 89 71
shrinkage=0.241263


Tree=26
num_leaves=5
num_cat=0
split_feature=11 99 26 26
split_gain=0.0313151 0.0397135 0.102473 0.0901758
threshold=1.5000000000000002 3254.5000000000005 206.50000000000003 159.50000000000003
decision_type=2 2 2 2
left_child=-1 2 -2 -3
right_child=1 3 -4 -5
leaf_value=-0.010559835022244562 0.022726227733273603 -0.009397546617415509 -0.0043484942853577379 0.002334295721074655
leaf_count=14 14 49 16 161
internal_value=0 0.00315574 0.0366733 -0.00189362
internal_count=254 240 30 210
shrinkage=0.241263


Tree=27
num_leaves=7
num_cat=0
split_feature=0 21 19 26 99 96
split_gain=0.0295863 0.0538537 0.0507234 0.0634642 0.0506269 0.0467438
threshold=99.500000000000014 1.0000000180025095e-35 1.0000000180025095e-35 159.50000000000003 7118.0000000000009 22.500000000000004
decision_type=2 2 2 2 2 2
left_child=1 -1 4 -4 -2 -3
right_child=2 5 3 -5 -6 -7
leaf_value=0.010166099833680589 0.0031837202935011137 0.0093012330455015391 -0.0051644457310699061 0.0098914944689869611 -0.015252157822853987 -0.005842533950936213
leaf_count=16 19 12 21 63 14 109
internal_value=0 -0.00996801 0.0120754 0.0252067 -0.0207482 -0.0174473
internal_count=254 137 117 84 33 121
shrinkage=0.241263


Tree=28
num_leaves=4
num_cat=0
split_feature=11 18 0
split_gain=0.0240524 0.0334514 0.0491125
threshold=9.5000000000000018 1.0000000180025095e-35 105.56000000000002
decision_type=2 2 2
left_child=1 -1 -3
right_child=-2 2 -4
leaf_value=0.011710935590148306 -0.0078405273111281596 -0.0027662431233647779 0.0047690752998611665
leaf_count=14 20 140 80
internal_value=0 0.00323828 -1.2049e-05
internal_count=254 234 220
shrinkage=0.241263


Tree=29
num_leaves=4
num_cat=0
split_feature=94 0 79
split_gain=0.0224387 0.0479479 0.0345397
threshold=6.5000000000000009 72.100000000000009 1.0000000180025095e-35
decision_type=2 2 2
left_child=1 -1 -3
right_child=-2 2 -4
leaf_value=-0.012176474378745019 0.0076840354746413224 -0.004330578890117104 0.0024150335779114245
leaf_count=18 20 64 152
internal_value=0 -0.00274215 0.00161666
internal_count=254 234 216
shrinkage=0.241263


Tree=30
num_leaves=5
num_cat=0
split_feature=26 1 11 1
split_gain=0.0277292 0.0308399 0.0616938 0.0466406
threshold=50.500000000000007 140.50000000000003 2.5000000000000004 150.50000000000003
decision_type=2 2 2 2
left_child=-1 2 -2 -3
right_child=1 3 -4 -5
leaf_value=0.010403622067497091 -0.0068236756133458311 -0.016462602395655827 0.0049694333725918954 -0.0016357416799883835
leaf_count=13 34 13 99 95
internal_value=0 -0.00253749 0.00783935 -0.0152795
internal_count=254 241 133 108
shrinkage=0.241263


Tree=31
num_leaves=5
num_cat=0
split_feature=1 18 0 19
split_gain=0.024319 0.0525358 0.0291017 0.0219219
threshold=349.00000000000006 1.0000000180025095e-35 138.83000000000001 1.0000000180025095e-35
decision_type=2 2 2 2
left_child=1 -1 -3 -2
right_child=3 2 -4 -5
leaf_value=0.015428014653588847 -0.013957054186600424 -0.0012032560020344162 0.0072261398021234591 0
leaf_count=12 12 189 27 14
internal_value=0 0.0034913 -0.000371976 -0.0287487
internal_count=254 228 216 26
shrinkage=0.241263


Tree=32
num_leaves=7
num_cat=0
split_feature=30 12 3 11 0 78
split_gain=0.0193359 0.025835 0.0492318 0.0251792 0.0941471 0.0434449
threshold=1.039956282021937 6.166666666666667 2.5000000000000004 6.5000000000000009 116.77500000000002 1.0000000180025095e-35
decision_type=2 2 2 2 2 2
left_child=1 -1 -3 5 -5 -2
right_child=3 2 -4 4 -6 -7
leaf_value=0.0056260967744803762 0.0025201616922144545 0.0039335126700981056 -0.011396021895737921 -0.001219532003872887 0.020275805024160116 -0.0066786498167724986
leaf_count=13 93 18 34 36 16 44
internal_value=0 -0.0151435 -0.0253423 0.00538642 0.0242592 -0.00197268
internal_count=254 65 52 189 52 137
shrinkage=0.241263


Tree=33
num_leaves=5
num_cat=0
split_feature=49 31 24 27
split_gain=0.0219541 0.0257404 0.0496831 0.0400586
threshold=1.0000000180025095e-35 1.0000000180025095e-35 2.5000000000000004 1.0000000180025095e-35
decision_type=2 2 2 2
left_child=1 3 -3 -1
right_child=-2 2 -4 -5
leaf_value=-0.0013112826208048032 0.0096825761205976916 -0.007059544193834622 0.004028299028040987 -0.01445380446324458
leaf_count=87 12 29 111 15
internal_value=0 -0.00213339 0.00687446 -0.0144481
internal_count=254 242 140 102
shrinkage=0.241263


Tree=34
num_leaves=5
num_cat=0
split_feature=94 26 99 2
split_gain=0.0169967 0.0258292 0.0518439 0.0283265
threshold=6.5000000000000009 159.50000000000003 13819.000000000002 41.500000000000007
decision_type=2 2 2 2
left_child=1 2 -1 -3
right_child=-2 3 -4 -5
leaf_value=-0.00042005743071851516 0.0067240080974704268 -3.8084235771859315e-05 -0.016588558026155702 0.011596077647814642
leaf_count=41 20 166 15 12
internal_value=0 -0.00254564 -0.0214542 0.0035374
internal_count=254 234 56 178
shrinkage=0.241263


Tree=35
num_leaves=4
num_cat=0
split_feature=26 98 100
split_gain=0.0199427 0.0315807 0.033326
threshold=102.00000000000001 7416.0000000000009 73.500000000000014
decision_type=2 2 2
left_child=-1 2 -2
right_child=1 -3 -4
leaf_value=0.0067440278235744071 0.0015947833520010433 -0.0094263382886680142 -0.0067408515016207701
leaf_count=23 177 21 33
internal_value=0 -0.00295171 0.000953424
internal_count=254 231 210
shrinkage=0.241263


Tree=36
num_leaves=4
num_cat=0
split_feature=81 98 29
split_gain=0.0206554 0.0201628 0.0607042
threshold=1.0000000180025095e-35 7416.0000000000009 69.415000000000006
decision_type=2 2 2
left_child=1 2 -1
right_child=-2 -3 -4
leaf_value=-0.00091165568862323248 0.0087239440177655173 -0.0080141714482855706 0.015754922032180901
leaf_count=209 14 19 12
internal_value=0 -0.00241164 0.000473839
internal_count=254 240 221
shrinkage=0.241263


Tree=37
num_leaves=6
num_cat=0
split_feature=12 98 54 95 1
split_gain=0.0183995 0.0245805 0.027133 0.0210014 0.0147352
threshold=5.166666666666667 406.50000000000006 1.0000000180025095e-35 115.50000000000001 92.000000000000014
decision_type=2 2 2 2 2
left_child=4 2 -2 -3 -1
right_child=1 3 -4 -5 -6
leaf_value=0.00018562538114652409 -0.011654421265920792 0.0042923032203476029 0.00020854504846597746 -0.0013143881569498759 0.011963019483250341
leaf_count=14 22 61 23 122 12
internal_value=0 -0.00297385 -0.024045 0.00237281 0.0253368
internal_count=254 228 45 183 26
shrinkage=0.241263


Tree=38
num_leaves=8
num_cat=0
split_feature=1 34 11 26 1 12 25
split_gain=0.016623 0.0504658 0.0323749 0.0293596 0.0237141 0.0231708 0.0208579
threshold=138.50000000000003 1.0000000180025095e-35 2.5000000000000004 159.50000000000003 27.500000000000004 9.5000000000000018 398.20833333333343
decision_type=2 2 2 2 2 2 2
left_child=2 6 4 -4 -1 -3 -2
right_child=1 5 3 -5 -6 -7 -8
leaf_value=0.0027925186046800182 0.0091563619647026216 -0.0020035288061532341 -0.0041028612341869426 0.006384221880744014 -0.0098520042887186368 -0.010874343761201399 -0.00096072007128160581
leaf_count=15 23 43 19 78 19 32 25
internal_value=0 -0.00855347 0.00824364 0.0177299 -0.0181763 -0.0247889 0.0166851
internal_count=254 123 131 97 34 75 48
shrinkage=0.241263


Tree=39
num_leaves=5
num_cat=0
split_feature=100 100 0 99
split_gain=0.0138907 0.0269014 0.0166782 0.00114687
threshold=249.50000000000003 73.500000000000014 72.100000000000009 7118.0000000000009
decision_type=2 2 2 2
left_child=1 2 -1 -3
right_child=-2 3 -4 -5
leaf_value=-0.0060284505469878659 0.0070477270268857672 -0.0042187278930088182 0.0011612978512821153 -0.010687712552066062
leaf_count=21 15 12 194 12
internal_value=0 -0.00204931 0.00168428 -0.0333689
internal_count=254 239 215 24
shrinkage=0.241263


Tree=40
num_leaves=5
num_cat=0
split_feature=1 18 26 51
split_gain=0.014331 0.0296227 0.0185896 0.0156247
threshold=349.00000000000006 1.0000000180025095e-35 448.50000000000006 1.0000000180025095e-35
decision_type=2 2 2 2
left_child=1 -1 -3 -2
right_child=3 2 -4 -5
leaf_value=0.011708727520782145 -0.011468170460205662 0.00069248826912999455 -0.0070160082616605619 0.00036806202017487197
leaf_count=12 12 196 20 14
internal_value=0 0.0026351 -0.000291725 -0.0226232
internal_count=254 228 216 26
shrinkage=0.241263


Tree=41
num_leaves=5
num_cat=0
split_feature=11 54 97 97
split_gain=0.0123519 0.0196266 0.0355134 0.0276724
threshold=9.5000000000000018 1.0000000180025095e-35 53.500000000000007 33.000000000000007
decision_type=2 2 2 2
left_child=1 2 -1 -3
right_child=-2 3 -4 -5
leaf_value=-0.010294363208406224 -0.0058400267708760018 0.012470946086351083 0.00055487827907773149 0.0011475973585507834
leaf_count=23 20 13 68 130
internal_value=0 0.00212502 -0.00964945 0.00968313
internal_count=254 234 91 143
shrinkage=0.241263


Tree=42
num_leaves=5
num_cat=0
split_feature=94 79 12 0
split_gain=0.0127952 0.0163773 0.0281077 0.0267812
threshold=6.5000000000000009 1.0000000180025095e-35 6.166666666666667 99.355000000000018
decision_type=2 2 2 2
left_child=1 2 -1 -3
right_child=-2 3 -4 -5
leaf_value=0.0061777429011871787 0.0058822198993596624 -0.0022976043484790251 -0.0063624054022165611 0.0038795284072318877
leaf_count=12 20 86 53 83
internal_value=0 -0.002367 -0.01624 0.0030589
internal_count=254 234 65 169
shrinkage=0.241263


Tree=43
num_leaves=8
num_cat=0
split_feature=1 34 100 11 96 96 100
split_gain=0.0113328 0.0315255 0.0337005 0.0292951 0.0393598 0.0257439 0.0246594
threshold=138.50000000000003 1.0000000180025095e-35 39.000000000000007 6.5000000000000009 5059.5000000000009 547.50000000000011 32.500000000000007
decision_type=2 2 2 2 2 2 2
left_child=3 5 -3 6 -5 -2 -1
right_child=1 2 -4 4 -6 -7 -8
leaf_value=0.0021794220563609201 -0.0053416372969767615 -0.0081765854677911028 0.0030089637082799333 0.015802062610086886 0.00046728652687361415 0.0067005184790744406 -0.0061869535820575682
leaf_count=59 14 53 22 16 24 34 32
internal_value=0 -0.00730341 -0.0202494 0.00683867 0.0293088 0.0128183 -0.0033788
internal_count=254 123 75 131 40 48 91
shrinkage=0.241263


Tree=44
num_leaves=5
num_cat=0
split_feature=81 1 0 96
split_gain=0.0112924 0.0126906 0.0289618 0.0262487
threshold=1.0000000180025095e-35 140.50000000000003 87.245000000000019 11261.000000000002
decision_type=2 2 2 2
left_child=1 3 -3 -1
right_child=-2 2 -4 -5
leaf_value=0.002751467139032376 0.0066548702895937156 -0.01075567144712134 -0.00048357463147816714 -0.0066320640472758039
leaf_count=112 14 19 89 20
internal_value=0 -0.00174669 -0.0101856 0.00516457
internal_count=254 240 108 132
shrinkage=0.241263


Tree=45
num_leaves=5
num_cat=0
split_feature=26 26 29 23
split_gain=0.0112311 0.0180986 0.0262722 0.0239233
threshold=102.00000000000001 159.50000000000003 38.359166666666674 1.0000000180025095e-35
decision_type=2 2 2 2
left_child=-1 2 -2 -3
right_child=1 3 -4 -5
leaf_value=0.0051891871598946969 0.0019295882101003884 -0.0013579523368256639 -0.010926078169624079 0.0046272091378576708
leaf_count=23 16 137 21 57
internal_value=0 -0.00232194 -0.0228433 0.00174852
internal_count=254 231 37 194
shrinkage=0.241263


Tree=46
num_leaves=5
num_cat=0
split_feature=33 12 11 11
split_gain=0.00969831 0.0123228 0.04896 0.012598
threshold=1.0000000180025095e-35 12.500000000000002 8.5000000000000018 8.5000000000000018
decision_type=2 2 2 2
left_child=1 2 -1 -3
right_child=-2 3 -4 -5
leaf_value=0.00020318438741653952 -0.005667555587893917 4.3488333359252509e-05 0.015283000879160484 -0.0092551754656845196
leaf_count=188 17 23 12 14
internal_value=0 0.00184348 0.00518067 -0.0154288
internal_count=254 237 200 37
shrinkage=0.241263


Tree=47
num_leaves=7
num_cat=0
split_feature=96 26 96 95 95 95
split_gain=0.0106619 0.0276965 0.0240906 0.0438564 0.0333762 0.0238569
threshold=547.50000000000011 302.00000000000006 2515.5000000000005 117.50000000000001 117.50000000000001 98.500000000000014
decision_type=2 2 2 2 2 2
left_child=1 5 3 -2 -4 -1
right_child=2 -3 4 -5 -6 -7
leaf_value=0.008958042827708599 -0.001775195903329763 -0.010416195254388066 0.0040466996707673271 0.013086835931030655 -0.0041674762446371715 -0.0021543881537112067
leaf_count=13 22 18 51 23 68 59
internal_value=0 -0.0092465 0.00512023 0.0249364 -0.00260359 5.62857e-05
internal_count=254 90 164 45 119 72
shrinkage=0.241263


Tree=48
num_leaves=6
num_cat=0
split_feature=99 2 25 12 25
split_gain=0.00885879 0.0225002 0.0166157 0.0172529 0.0136414
threshold=3254.5000000000005 14.500000000000002 503.81666666666666 12.500000000000002 414.40000000000003
decision_type=2 2 2 2 2
left_child=1 -1 4 -4 -2
right_child=2 -3 3 -5 -6
leaf_value=-0.0018405447745749382 -0.0006556704756629859 0.010471121300902976 0.0052970340777951019 -0.0035530235329672231 -0.0062245537517443888
leaf_count=19 120 15 46 18 36
internal_value=0 0.0158427 -0.00250521 0.01143 -0.00832497
internal_count=254 34 220 64 156
shrinkage=0.241263


Tree=49
num_leaves=5
num_cat=0
split_feature=11 99 26 26
split_gain=0.011819 0.0157759 0.0366327 0.0164727
threshold=1.5000000000000002 3254.5000000000005 206.50000000000003 159.50000000000003
decision_type=2 2 2 2
left_child=-1 2 -2 -3
right_child=1 3 -4 -5
leaf_value=-0.0067616413108165336 0.014104172251342018 -0.0042926555268338138 -0.0023010921560998941 0.00090586974228233218
leaf_count=14 14 49 16 161
internal_value=0 0.00189974 0.0236212 -0.00136236
internal_count=254 240 30 210
shrinkage=0.241263


Tree=50
num_leaves=8
num_cat=0
split_feature=31 24 0 95 95 95 0
split_gain=0.00970822 0.0234487 0.0178312 0.0178108 0.0356055 0.0240631 0.00551472
threshold=1.0000000180025095e-35 3.5000000000000004 105.56000000000002 117.50000000000001 186.50000000000003 109.00000000000001 95.855000000000018
decision_type=2 2 2 2 2 2 2
left_child=3 6 -3 5 -5 -1 -2
right_child=1 2 -4 4 -6 -7 -8
leaf_value=-0.0017978588400219869 -0.0072553955234602608 0.001100774817127865 0.0081280808671876769 -0.010574879916905443 0.0023564391236099891 0.0094665622959274262 -0.00060968548999753376
leaf_count=43 17 79 31 29 21 14 20
internal_value=0 0.00569802 0.0132523 -0.00767736 -0.0216842 0.00482214 -0.0161727
internal_count=254 147 110 107 50 57 37
shrinkage=0.241263


Tree=51
num_leaves=7
num_cat=0
split_feature=96 26 26 99 97 99
split_gain=0.00829537 0.0432898 0.0175447 0.0157089 0.0113783 0.0108868
threshold=754.50000000000011 102.00000000000001 316.00000000000006 7118.0000000000009 42.500000000000007 3254.5000000000005
decision_type=2 2 2 2 2 2
left_child=3 -2 -3 5 -5 -1
right_child=1 2 -4 4 -6 -7
leaf_value=0.0011817328676788561 0.014302484251964486 -0.001545241917881347 0.0051445670690784383 0.006760995372920596 -0.0013419183939006743 -0.0066876714795764082
leaf_count=15 12 110 30 16 30 41
internal_value=0 0.00511865 -0.000219013 -0.00747663 0.00665737 -0.0190163
internal_count=254 152 140 102 46 56
shrinkage=0.241263


Tree=52
num_leaves=5
num_cat=0
split_feature=0 100 1 26
split_gain=0.0079635 0.0130909 0.0128181 0.00724888
threshold=67.38000000000001 73.500000000000014 140.50000000000003 236.50000000000003
decision_type=2 2 2 2
left_child=-1 2 -2 -3
right_child=1 3 -4 -5
leaf_value=0.0055716552882812799 0.0023887735761969871 -0.0076706271152139419 -0.0016451111824278717 -0.0001903366367687456
leaf_count=15 106 21 96 16
internal_value=0 -0.00143986 0.00193932 -0.0192182
internal_count=254 239 202 37
shrinkage=0.241263


Tree=53
num_leaves=6
num_cat=0
split_feature=78 25 11 12 0
split_gain=0.00669951 0.0247821 0.0179492 0.0178295 0.0190375
threshold=1.0000000180025095e-35 341.29166666666669 7.5000000000000009 5.166666666666667 88.40000000000002
decision_type=2 2 2 2 2
left_child=3 -2 -3 -1 -5
right_child=1 2 -4 4 -6
leaf_value=0.0078472379836104673 0.0072292741128453701 -0.0060055890627351309 0.0039166538161570378 -0.0036075931785283901 0.0020885732675024475
leaf_count=19 13 53 13 56 100
internal_value=0 -0.00825011 -0.0164849 0.00393563 6.956e-05
internal_count=254 79 66 175 156
shrinkage=0.241263


Tree=54
num_leaves=5
num_cat=0
split_feature=1 29 29 78
split_gain=0.00823702 0.0113478 0.00921294 0.0147345
threshold=349.00000000000006 48.195000000000007 72.100000000000009 1.0000000180025095e-35
decision_type=2 2 2 2
left_child=2 -2 3 -1
right_child=1 -3 -4 -5
leaf_value=0.0015572374674861144 0.00076246975017673789 -0.0094387806711315105 0.0056470311393873821 -0.0028946036670043805
leaf_count=137 14 12 20 71
internal_value=0 -0.0175004 0.00232512 7.87543e-05
internal_count=254 26 228 208
shrinkage=0.241263


Tree=55
num_leaves=4
num_cat=0
split_feature=94 98 29
split_gain=0.00815649 0.0135573 0.028787
threshold=6.5000000000000009 7416.0000000000009 69.415000000000006
decision_type=2 2 2
left_child=1 2 -1
right_child=-2 -3 -4
leaf_value=-0.00057774035528770625 0.0048831046895315014 -0.0067856719733199152 0.011064299638547477
leaf_count=204 20 18 12
internal_value=0 -0.00176028 0.000638742
internal_count=254 234 216
shrinkage=0.241263


Tree=56
num_leaves=6
num_cat=0
split_feature=51 26 12 97 0
split_gain=0.00741302 0.0277607 0.0217433 0.0158604 0.0138973
threshold=1.0000000180025095e-35 159.50000000000003 8.1666666666666696 33.000000000000007 68.620000000000019
decision_type=2 2 2 2 2
left_child=1 -1 -3 -2 -5
right_child=3 2 -4 4 -6
leaf_value=-0.010420724365307376 0.0082295566161533374 0.0063860362943374393 -0.0044909730114259892 0.0078574431899324712 -0.00050434291969269989
leaf_count=17 15 21 21 12 168
internal_value=0 -0.0104523 0.00397574 0.00342404 0.000507293
internal_count=254 59 42 195 180
shrinkage=0.241263


Tree=57
num_leaves=6
num_cat=0
split_feature=96 26 26 95 96
split_gain=0.00760181 0.0271067 0.015105 0.0214927 0.0115156
threshold=754.50000000000011 102.00000000000001 302.00000000000006 98.500000000000014 2515.5000000000005
decision_type=2 2 2 2 2
left_child=2 -2 3 -1 -3
right_child=1 4 -4 -5 -6
leaf_value=0.0081290986061698968 0.011667556004270994 0.0048624292333211989 -0.0077968711266418267 -0.0020299221668473814 -0.00095024976682111866
leaf_count=14 12 26 19 69 114
internal_value=0 0.00505659 -0.00708587 -0.000652116 0.000708302
internal_count=254 152 102 83 140
shrinkage=0.241263


Tree=58
num_leaves=5
num_cat=0
split_feature=49 29 12 97
split_gain=0.00663149 0.0124872 0.012374 0.0110363
threshold=1.0000000180025095e-35 66.737500000000026 7.8333333333333348 2987.5000000000005
decision_type=2 2 2 2
left_child=1 3 -3 -1
right_child=-2 2 -4 -5
leaf_value=-0.00070827219723632224 0.0057446455348518239 0 -0.010391490528610671 0.0034177912593492351
leaf_count=157 12 15 13 57
internal_value=0 -0.00111836 -0.0214264 0.00167944
internal_count=254 242 28 214
shrinkage=0.241263


Tree=59
num_leaves=8
num_cat=0
split_feature=51 29 73 29 12 100 29
split_gain=0.00582971 0.0316259 0.0368174 0.0111684 0.0258358 0.0156604 0.00182386
threshold=1.0000000180025095e-35 44.752500000000005 1.0000000180025095e-35 42.677500000000009 7.166666666666667 5.5000000000000009 39.818750000000009
decision_type=2 2 2 2 2 2 2
left_child=1 6 -3 5 -5 -2 -1
right_child=3 2 -4 4 -6 -7 -8
leaf_value=-0.01097167724442105 -0.0015719638828784641 -0.0036181211622364176 0.012769394548749712 -0.0080253376017364909 0.0013174774863092896 0.0046104679705107569 -0.004500170024426365
leaf_count=13 39 19 12 24 60 72 15
internal_value=0 -0.00945755 0.0126745 0.00313254 -0.00603297 0.0101008 -0.033387
internal_count=254 59 31 195 84 111 28
shrinkage=0.241263


Tree=60
num_leaves=5
num_cat=0
split_feature=100 100 29 95
split_gain=0.00472869 0.00968895 0.0117795 0.000936949
threshold=249.50000000000003 73.500000000000014 25.925000000000004 221.00000000000003
decision_type=2 2 2 2
left_child=1 2 -1 -3
right_child=-2 3 -4 -5
leaf_value=-0.0069641328294732458 0.0045017496999755907 -0.0073580652065786878 0.00075136240788341573 -0.0019689005089098314
leaf_count=12 15 12 203 12
internal_value=0 -0.00127034 0.00106709 -0.0209563
internal_count=254 239 215 24
shrinkage=0.241263


Tree=61
num_leaves=5
num_cat=0
split_feature=94 26 29 29
split_gain=0.00356564 0.00970124 0.0152184 0.00961891
threshold=6.5000000000000009 159.50000000000003 38.359166666666674 33.070000000000007
decision_type=2 2 2 2
left_child=1 2 -1 -3
right_child=-2 3 -4 -5
leaf_value=0.0017945398135084431 0.0035109161404449393 -0.0034979485790353894 -0.0064999725957880479 0.0014690437199155787
leaf_count=22 20 30 34 148
internal_value=0 -0.00141554 -0.0135422 0.00247275
internal_count=254 234 56 178
shrinkage=0.241263


Tree=62
num_leaves=7
num_cat=0
split_feature=32 0 95 95 29 95
split_gain=0.00387611 0.0116598 0.0094843 0.0251494 0.0113148 0.00669607
threshold=1.0000000180025095e-35 99.500000000000014 186.50000000000003 125.00000000000001 43.827500000000008 267.50000000000006
decision_type=2 2 2 2 2 2
left_child=2 5 3 -1 -4 -2
right_child=1 -3 4 -5 -6 -7
leaf_value=0.00032159846722177557 0.0032392101507625324 0.0062289494455187418 0.0040004466683672291 -0.0071085280376865252 -0.0028121709320294641 -0.0044966427074093806
leaf_count=94 12 23 48 38 22 17
internal_value=0 0.00885479 -0.0024211 -0.00778557 0.00755863 -0.00518716
internal_count=254 52 202 132 70 29
shrinkage=0.241263


Tree=63
num_leaves=6
num_cat=0
split_feature=93 41 96 97 97
split_gain=0.00409564 0.0215409 0.0193514 0.0123413 0.00717669
threshold=2538.0000000000005 1.0000000180025095e-35 11261.000000000002 6032.5000000000009 42.500000000000007
decision_type=2 2 2 2 2
left_child=2 -2 4 -3 -1
right_child=1 3 -4 -5 -6
leaf_value=-0.0053843503819218045 0.0091838291982719866 -0.0014934525572770482 -0.0087614644012120567 0.0055621019286899295 0.00084455008526360489
leaf_count=13 16 86 16 18 105
internal_value=0 0.00489089 -0.00447773 -0.000754754 0.000302465
internal_count=254 120 134 104 118
shrinkage=0.241263


Tree=64
num_leaves=7
num_cat=0
split_feature=27 29 29 98 98 0
split_gain=0.00505775 0.0208736 0.0105953 0.0246063 0.0244288 0.00858777
threshold=1.0000000180025095e-35 55.334166666666668 55.334166666666668 3685.0000000000005 1363.5000000000002 88.40000000000002
decision_type=2 2 2 2 2 2
left_child=2 5 4 -4 -1 -2
right_child=1 -3 3 -5 -6 -7
leaf_value=-0.0064345253410863536 -0.0024015945675290029 -0.0099888312056616631 0.012888954474749924 3.9039831975428265e-05 0.0012899350633461843 0.0043775294561806174
leaf_count=30 29 14 12 28 121 20
internal_value=0 -0.00876121 0.00289881 0.0179685 -0.00123215 0.00165897
internal_count=254 63 191 40 151 49
shrinkage=0.241263


Tree=65
num_leaves=6
num_cat=0
split_feature=8 93 99 96 26
split_gain=0.00486857 0.0334873 0.0113613 0.0199684 0.0156552
threshold=1.0000000180025095e-35 2516.0000000000005 13819.000000000002 1325.0000000000002 115.00000000000001
decision_type=2 2 2 2 2
left_child=2 -2 4 -4 -1
right_child=1 -3 3 -5 -6
leaf_value=0.0069757529304659118 -0.0030679824577646872 0.012452720575855048 0.0016133744635404557 -0.0085243603850448761 -0.00038319660511989764
leaf_count=19 20 12 21 25 157
internal_value=0 0.0127932 -0.00196532 -0.0165342 0.00194852
internal_count=254 32 222 46 176
shrinkage=0.241263


Tree=66
num_leaves=5
num_cat=0
split_feature=37 95 96 95
split_gain=0.0039251 0.00713946 0.0209183 0.0191157
threshold=1.0000000180025095e-35 79.500000000000014 8285.0000000000018 115.50000000000001
decision_type=2 2 2 2
left_child=1 2 -1 -3
right_child=-2 3 -4 -5
leaf_value=-0.0074168106511983203 -0.0044747989030655966 0.0057351745806300224 0.0032427222536550292 -0.00028140928034989362
leaf_count=24 13 40 19 158
internal_value=0 0.0011893 -0.0113578 0.00402314
internal_count=254 241 43 198
shrinkage=0.241263


Tree=67
num_leaves=5
num_cat=0
split_feature=1 26 0 29
split_gain=0.00332913 0.00697221 0.00657304 0.006346
threshold=349.00000000000006 448.50000000000006 142.58000000000001 48.195000000000007
decision_type=2 2 2 2
left_child=1 2 -1 -2
right_child=3 -3 -4 -5
leaf_value=0.00026879662616883929 0.00084504206674149618 -0.0041541019645755317 0.0048445511122699163 -0.0070989011479660252
leaf_count=184 14 20 24 12
internal_value=0 0.00152291 0.00349021 -0.0124729
internal_count=254 228 208 26
shrinkage=0.241263


Tree=68
num_leaves=7
num_cat=0
split_feature=27 29 26 26 11 0
split_gain=0.0030133 0.0150017 0.00998469 0.0137522 0.00806132 0.00586723
threshold=1.0000000180025095e-35 42.155833333333341 115.00000000000001 159.50000000000003 6.5000000000000009 109.52000000000002
decision_type=2 2 2 2 2 2
left_child=2 4 -1 -4 -2 -3
right_child=1 5 3 -5 -6 -7
leaf_value=0.0066004107279411172 -0.0018189735201345472 -0.0018842649559582237 -0.0059713984264748669 0.00083238746881423133 0.0056429109808252536 -0.010217660569772776
leaf_count=15 21 14 20 156 16 12
internal_value=0 -0.00727705 0.00241106 0 0.00618745 -0.0257449
internal_count=254 63 191 176 37 26
shrinkage=0.241263


Tree=69
num_leaves=8
num_cat=0
split_feature=69 14 99 100 72 95 79
split_gain=0.00278834 0.00809463 0.0223608 0.00753587 0.0157144 0.0125343 0.00690818
threshold=1.0000000180025095e-35 1.5000000000000002 6136.0000000000009 12.000000000000002 1.0000000180025095e-35 221.00000000000003 1.0000000180025095e-35
decision_type=2 2 2 2 2 2 2
left_child=3 2 -2 4 -1 -5 -3
right_child=1 6 -4 5 -6 -7 -8
leaf_value=-0.0026749260211380663 0.0083576528094756672 -0.005267612187132442 -0.00048229157772783555 -0.0064283354445146823 0.0056195931474247434 0.00067389649276487795 0.00058401223503763006
leaf_count=30 26 19 48 32 25 30 44
internal_value=0 0.00371639 0.0113499 -0.00450742 0.00470224 -0.0126577 -0.00523739
internal_count=254 137 74 117 55 62 63
shrinkage=0.241263


Tree=70
num_leaves=4
num_cat=0
split_feature=100 0 1
split_gain=0.00247178 0.00554116 0.00846353
threshold=249.50000000000003 72.100000000000009 140.50000000000003
decision_type=2 2 2
left_child=1 -1 -3
right_child=-2 2 -4
leaf_value=-0.0041216442820704961 0.0035816562913359835 0.001774015903132363 -0.0014814524663177085
leaf_count=23 15 110 106
internal_value=0 -0.00110077 0.000710901
internal_count=254 239 216
shrinkage=0.241263


Tree=71
num_leaves=6
num_cat=0
split_feature=8 29 29 0 97
split_gain=0.00259183 0.035251 0.00895074 0.0108191 0.00132292
threshold=1.0000000180025095e-35 57.317500000000003 66.737500000000026 168.78500000000005 2348.0000000000005
decision_type=2 2 2 2 2
left_child=2 -2 3 -1 -4
right_child=1 -3 4 -5 -6
leaf_value=0.00075934134335183348 -0.0041603779898618763 0.01154774872758306 -0.0017424543762411422 -0.0062474610865001622 -0.007397945891070146
leaf_count=184 19 13 12 14 12
internal_value=0 0.0102502 -0.00160244 0.000840113 -0.0205412
internal_count=254 32 222 198 24
shrinkage=0.241263


Tree=72
num_leaves=6
num_cat=0
split_feature=30 0 12 11 29
split_gain=0.00233533 0.00550602 0.0102946 0.00320626 0.00682935
threshold=1.7113214997370925 149.00000000000003 8.1666666666666696 9.5000000000000018 57.317500000000003
decision_type=2 2 2 2 2
left_child=3 2 -2 4 -1
right_child=1 -3 -4 -5 -6
leaf_value=-0.0012350083580865087 0.0024452250865841709 0.0058864663246524663 -0.0025868801108166321 -0.0047028718204972942 0.0041675520955634865
leaf_count=101 61 13 46 15 18
internal_value=0 0.00399922 0.00108857 -0.00377061 -0.00146891
internal_count=254 120 107 134 119
shrinkage=0.241263


Tree=73
num_leaves=4
num_cat=0
split_feature=99 99 95
split_gain=0.00248256 0.00542409 0.00432611
threshold=2704.5000000000005 3254.5000000000005 704.00000000000011
decision_type=2 2 2
left_child=-1 -2 -3
right_child=1 2 -4
leaf_value=-0.0038603029603550367 0.0042335347191029367 0.00020797367865684461 -0.0040360199149589316
leaf_count=13 21 201 19
internal_value=0 0.000934999 -0.000763514
internal_count=254 241 220
shrinkage=0.241263


Tree=74
num_leaves=5
num_cat=0
split_feature=37 11 19 19
split_gain=0.00168541 0.00270191 0.039635 0.00730337
threshold=1.0000000180025095e-35 6.5000000000000009 1.0000000180025095e-35 1.0000000180025095e-35
decision_type=2 2 2 2
left_child=1 3 -3 -1
right_child=-2 2 -4 -5
leaf_value=0.0033095806797212445 -0.0034618204407736658 -0.0080571052081284435 0.0049432954633290387 -0.001250711681571355
leaf_count=28 13 17 55 141
internal_value=0 0.000817859 0.00716164 -0.00190316
internal_count=254 241 72 169
shrinkage=0.241263


Tree=75
num_leaves=7
num_cat=0
split_feature=69 2 30 11 27 100
split_gain=0.00190962 0.00793671 0.00765303 0.0117254 0.00750038 0.00595116
threshold=1.0000000180025095e-35 4.5000000000000009 1.7113214997370925 3.5000000000000004 1.0000000180025095e-35 12.000000000000002
decision_type=2 2 2 2 2 2
left_child=2 -2 5 -4 -3 -1
right_child=1 4 3 -5 -6 -7
leaf_value=-0.00040894701730680779 0.0054046718438173248 0.0011602921324674797 -0.0035193942043681222 0.0041266450662814126 -0.003623822437170745 -0.0056331073459861478
leaf_count=35 20 88 19 34 29 29
internal_value=0 0.00330345 -0.00403914 0.00553385 -0.000222497 -0.0119788
internal_count=254 137 117 53 117 64
shrinkage=0.241263


Tree=76
num_leaves=4
num_cat=0
split_feature=100 100 29
split_gain=0.00293429 0.00308598 0.00445937
threshold=249.50000000000003 73.500000000000014 25.925000000000004
decision_type=2 2 2
left_child=1 2 -1
right_child=-2 -3 -4
leaf_value=-0.0047719230299990987 0.0037753485024538268 -0.003335948350195796 0.00040783302227742402
leaf_count=12 15 24 203
internal_value=0 -0.00119046 0.00030441
internal_count=254 239 215
shrinkage=0.241263


Tree=77
num_leaves=8
num_cat=0
split_feature=31 24 11 78 95 93 11
split_gain=0.00202882 0.00881492 0.00938311 0.00456884 0.00571516 0.00358546 0.0010484
threshold=1.0000000180025095e-35 1.5000000000000002 4.5000000000000009 1.0000000180025095e-35 198.00000000000003 2545.5000000000005 5.5000000000000009
decision_type=2 2 2 2 2 2 2
left_child=1 2 -1 5 -5 -2 -3
right_child=3 6 -4 4 -6 -7 -8
leaf_value=-0.002772178261835968 0.00031919145098586966 -0.0013315628804578161 0.005725423992026679 0.0017863007915966866 -0.0033473919318986424 0.0040676267876343661 -0.0043423848452926878
leaf_count=13 48 44 20 27 34 38 30
internal_value=0 -0.00444766 0.0098327 0.00308919 -0.00443201 0.00846533 -0.0109733
internal_count=254 107 33 147 61 86 74
shrinkage=0.241263


Tree=78
num_leaves=5
num_cat=0
split_feature=100 1 95 29
split_gain=0.00151621 0.00171131 0.00633922 0.00167962
threshold=249.50000000000003 349.00000000000006 125.00000000000001 48.195000000000007
decision_type=2 2 2 2
left_child=1 2 -1 -3
right_child=-2 3 -4 -5
leaf_value=0.0018402534696466352 0.0031211168391079907 -0 -0.0011178289354399553 -0.0052945337114749923
leaf_count=86 15 13 128 12
internal_value=0 -0.000983644 0.000293026 -0.0113585
internal_count=254 239 214 25
shrinkage=0.241263


Tree=79
num_leaves=4
num_cat=0
split_feature=0 0 1
split_gain=0.00159978 0.00404338 0.00603782
threshold=67.38000000000001 74.185000000000016 66.000000000000014
decision_type=2 2 2
left_child=-1 -2 -3
right_child=1 2 -4
leaf_value=0.0031651412518930262 -0.0046109124338044698 0.0022997178740380392 -0.00079546379942501029
leaf_count=15 14 62 163
internal_value=0 -0.000990064 0.000264759
internal_count=254 239 225
shrinkage=0.241263


Tree=80
num_leaves=7
num_cat=0
split_feature=32 97 96 68 0 95
split_gain=0.00121148 0.00598663 0.0125792 0.00949743 0.00415344 0.000405981
threshold=1.0000000180025095e-35 2150.5000000000005 1325.0000000000002 1.0000000180025095e-35 93.545000000000016 135.50000000000003
decision_type=2 2 2 2 2 2
left_child=1 3 -3 -1 -2 -6
right_child=4 2 -4 -5 5 -7
leaf_value=0.0041026174258537614 -0.0012239320365343546 -0.0085410138028902041 -0.0006419528105455442 -0.000898849595630073 0.0057491202644560811 0.0015005744613108805
leaf_count=39 23 14 82 67 13 16
internal_value=0 -0.00173 -0.00808548 0.00401741 0.00631039 0.0152682
internal_count=254 202 96 106 52 29
shrinkage=0.241263


Tree=81
num_leaves=5
num_cat=0
split_feature=81 0 95 95
split_gain=0.00114682 0.00314021 0.0032418 0.00271066
threshold=1.0000000180025095e-35 72.100000000000009 499.00000000000006 499.00000000000006
decision_type=2 2 2 2
left_child=1 2 -1 -3
right_child=-2 3 -4 -5
leaf_value=-0.0063285866273153123 0.0030302720406300021 0.00045157030633433777 0.00012742679668816361 -0.0036432533344134118
leaf_count=12 14 202 12 14
internal_value=0 -0.000870219 -0.0135891 0.000624782
internal_count=254 240 24 216
shrinkage=0.241263


Tree=82
num_leaves=7
num_cat=0
split_feature=29 26 26 25 78 25
split_gain=0.00200827 0.00732301 0.00454751 0.00942103 0.0038615 0.00370433
threshold=37.977500000000006 152.00000000000003 159.50000000000003 395.75000000000006 1.0000000180025095e-35 406.90000000000003
decision_type=2 2 2 2 2 2
left_child=1 -1 3 -2 -3 -4
right_child=2 4 5 -5 -6 -7
leaf_value=0.0050781066461598572 -0.0062020960264359427 0.0018071506177616741 0.0017811898497982306 0.0022776845343106143 -0.0024375805608752824 -0.0012658611098446521
leaf_count=23 24 34 58 12 32 71
internal_value=0 0.00495641 -0.00281324 -0.013964 -0.00100523 0.000415507
internal_count=254 89 165 36 66 129
shrinkage=0.241263


Tree=83
num_leaves=6
num_cat=0
split_feature=12 96 29 25 96
split_gain=0.00119155 0.00804532 0.0024411 0.0065662 0.00517776
threshold=12.500000000000002 5059.5000000000009 38.359166666666674 444.33333333333331 11261.000000000002
decision_type=2 2 2 2 2
left_child=2 -2 4 -4 -1
right_child=1 -3 3 -5 -6
leaf_value=0.0027088613303888737 0.0015007521747992583 -0.0055154864749094026 -0.0019084377793712325 0.0018944243332112488 -0.0029650759457482832
leaf_count=65 23 19 83 51 13
internal_value=0 -0.00723425 0.00143275 -0.00184578 0.00704188
internal_count=254 42 212 134 78
shrinkage=0.241263


Tree=84
num_leaves=5
num_cat=0
split_feature=12 69 2 0
split_gain=0.000869552 0.0106106 0.00237635 0.0033177
threshold=5.166666666666667 1.0000000180025095e-35 2.5000000000000004 88.40000000000002
decision_type=2 2 2 2
left_child=1 -1 -2 -4
right_child=2 -3 3 -5
leaf_value=-0.0028690339887595278 -0.0042005474592634491 0.0068942365913273766 -0.0014362502277078121 0.00088926908643735558
leaf_count=13 12 13 84 132
internal_value=0 0.00871914 -0.00113047 -5.72826e-05
internal_count=254 26 228 216
shrinkage=0.241263


Tree=85
num_leaves=8
num_cat=0
split_feature=79 95 68 96 25 0 26
split_gain=0.000847821 0.00559216 0.00585672 0.00410539 0.00321073 0.00688991 0.00679162
threshold=1.0000000180025095e-35 146.00000000000003 1.0000000180025095e-35 2515.5000000000005 555.66666666666686 99.355000000000018 338.50000000000006
decision_type=2 2 2 2 2 2 2
left_child=1 2 -1 -3 5 -2 -6
right_child=4 3 -4 -5 6 -7 -8
leaf_value=0.0036610991386123318 -0.00049264951815317863 -5.9942516870312375e-05 -0.0024903442369832397 -0.006557944736158978 -0.004429820738912558 0.0032574258232573078 0.0020899913779487125
leaf_count=23 78 14 19 17 25 60 18
internal_value=0 -0.00481943 0.0035711 -0.0158989 0.00189021 0.00476957 -0.00704185
internal_count=254 73 42 31 181 138 43
shrinkage=0.241263


Tree=86
num_leaves=5
num_cat=0
split_feature=81 0 95 35
split_gain=0.0012438 0.000671355 0.00140099 0.00110691
threshold=1.0000000180025095e-35 72.100000000000009 499.00000000000006 1.0000000180025095e-35
decision_type=2 2 2 2
left_child=1 2 -1 -3
right_child=-2 3 -4 -5
leaf_value=-0.0047336845212617379 0.00307214176446139 -0.0029732606831020521 0.00029046729917490499 0.0002608497666830428
leaf_count=12 14 14 12 202
internal_value=0 -0.000935199 -0.00967822 8.77378e-05
internal_count=254 240 24 216
shrinkage=0.241263


Tree=87
num_leaves=5
num_cat=0
split_feature=0 1 8 1
split_gain=0.00158726 0.00109143 0.00728064 0.00528636
threshold=67.38000000000001 66.000000000000014 1.0000000180025095e-35 8.0000000000000018
decision_type=2 2 2 2
left_child=-1 3 -3 -2
right_child=1 2 -4 -5
leaf_value=0.0031514144739561109 -0.0027847194337598537 -0.0014814290560131395 0.0035156878933488502 0.0023228043660432139
leaf_count=15 19 144 22 54
internal_value=0 -0.00101814 -0.00322936 0.00389298
internal_count=254 239 166 73
shrinkage=0.241263


Tree=88
num_leaves=6
num_cat=0
split_feature=98 93 100 100 0
split_gain=0.000968162 0.00748867 0.00104834 0.00272147 0.0010108
threshold=406.50000000000006 2516.0000000000005 249.50000000000003 73.500000000000014 168.78500000000005
decision_type=2 2 2 2 2
left_child=1 -1 3 -2 -3
right_child=2 4 -4 -5 -6
leaf_value=-0.0044918227129368479 0.00055041610275974664 0.0040151210641439271 0.0034393465106401784 -0.0028888767597116814 -0.00063001292717712945
leaf_count=26 169 12 13 22 12
internal_value=0 -0.00625062 0.00153536 0.000509735 0.00732425
internal_count=254 50 204 191 24
shrinkage=0.241263


Tree=89
num_leaves=6
num_cat=0
split_feature=96 26 26 95 26
split_gain=0.000913572 0.00722404 0.00605921 0.00619108 0.0035872
threshold=754.50000000000011 102.00000000000001 302.00000000000006 98.500000000000014 197.57930530396928
decision_type=2 2 2 2 2
left_child=2 -2 3 -1 -3
right_child=1 4 -4 -5 -6
leaf_value=0.0049258297402731575 0.0063856500868379002 -0.0023350401708679973 -0.005026936584813289 -0.00096024342429254918 0.00090908281272470152
leaf_count=14 12 37 19 69 103
internal_value=0 0.00251288 -0.00378279 0.000437473 9.44627e-05
internal_count=254 152 102 83 140
shrinkage=0.241263


Tree=90
num_leaves=7
num_cat=0
split_feature=95 95 95 0 95 0
split_gain=0.000583185 0.00685043 0.00370813 0.00275417 0.00238511 0.00111247
threshold=163.50000000000003 125.00000000000001 198.00000000000003 68.620000000000019 79.500000000000014 116.77500000000002
decision_type=2 2 2 2 2 2
left_child=1 4 -2 -4 -1 -3
right_child=2 5 3 -5 -6 -7
leaf_value=-0.0011900736836975591 0.0047269069823102057 -0.005079392925394664 0.0040075018313619508 -0.00058329352759363829 0.0016506763926491324 -0.00051527716100923477
leaf_count=47 15 24 12 79 65 12
internal_value=0 -0.00242743 0.00339672 0.000322826 0.00185389 -0.0153125
internal_count=254 148 106 91 112 36
shrinkage=0.241263


Tree=91
num_leaves=7
num_cat=0
split_feature=30 78 95 95 95 95
split_gain=0.000688189 0.00371429 0.00217636 0.000928244 0.000510463 0.000762817
threshold=1.7113214997370925 1.0000000180025095e-35 293.00000000000006 122.00000000000001 56.000000000000007 163.50000000000003
decision_type=2 2 2 2 2 2
left_child=4 3 -3 -2 -1 -6
right_child=1 2 -4 -5 5 -7
leaf_value=0.0017359252536917967 0.0033496551378685954 -0.0038084259384315133 0.0010172334182909585 0.00066188344624338875 -0.001984815929383509 0.00011754395879406017
leaf_count=16 33 19 15 53 64 54
internal_value=0 0.00313254 -0.00705633 0.00728714 -0.00276237 -0.00424995
internal_count=254 120 34 86 134 118
shrinkage=0.241263


Tree=92
num_leaves=2
num_cat=0
split_feature=71
split_gain=0.000538108
threshold=1.0000000180025095e-35
decision_type=2
left_child=-1
right_child=-2
leaf_value=-0.000193554968177113 0.0023187507131041097
leaf_count=235 19
internal_value=0
internal_count=254
shrinkage=0.241263


Tree=93
num_leaves=7
num_cat=0
split_feature=96 96 96 96 61 1
split_gain=0.000316901 0.00591051 0.00696875 0.00467655 0.00478488 0.00158559
threshold=754.50000000000011 226.50000000000003 108.00000000000001 2515.5000000000005 1.0000000180025095e-35 108.50000000000001
decision_type=2 2 2 2 2 2
left_child=1 2 -1 4 -2 -5
right_child=3 -3 -4 5 -6 -7
leaf_value=-0.00083754362934866633 0.005893350889525654 -0.0044224681593031286 0.0053686378272141191 -0.0017738261035979113 -0.00065885480945778341 0.00071069067444909904
leaf_count=65 20 23 14 47 13 72
internal_value=0 -0.00322281 0.00143723 0.00225551 0.0140096 -0.001129
internal_count=254 102 79 152 33 119
shrinkage=0.241263


Tree=94
num_leaves=2
num_cat=0
split_feature=1
split_gain=0.000648803
threshold=349.00000000000006
decision_type=2
left_child=-1
right_child=-2
leaf_value=0.00026028694116495032 -0.0020048148806963641
leaf_count=228 26
internal_value=0
internal_count=254
shrinkage=0.241263


Tree=95
num_leaves=5
num_cat=0
split_feature=51 97 97 95
split_gain=0.000292719 0.00917069 0.00494246 0.00163938
threshold=1.0000000180025095e-35 53.500000000000007 33.000000000000007 141.00000000000003
decision_type=2 2 2 2
left_child=1 -1 -2 -3
right_child=2 3 -4 -5
leaf_value=-0.0065454880894472009 0.0048865950100047432 0.0019870657599869038 -5.0162413153378207e-05 -0.0022343470359144644
leaf_count=14 15 32 180 13
internal_value=0 -0.00476568 0.00151948 0.00289659
internal_count=254 59 195 45
shrinkage=0.241263


Tree=96
num_leaves=2
num_cat=0
split_feature=1
split_gain=0.000123981
threshold=349.00000000000006
decision_type=2
left_child=-1
right_child=-2
leaf_value=0.00021551902832281838 -0.0017604035742172593
leaf_count=228 26
internal_value=0
internal_count=254
shrinkage=0.241263


Tree=97
num_leaves=7
num_cat=0
split_feature=95 2 68 96 95 97
split_gain=0.000142686 0.00808286 0.00278982 0.00790526 0.00193241 2.08451e-05
threshold=79.500000000000014 4.5000000000000009 1.0000000180025095e-35 5059.5000000000009 115.50000000000001 2348.0000000000005
decision_type=2 2 2 2 2 2
left_child=1 -1 3 -2 -4 -3
right_child=2 5 4 -5 -6 -7
leaf_value=0.0041549691554951633 0.0038940543272896755 -0.0017908587791250366 0.0021073674366188688 -0.001008885465329879 -0.0012391106441433878 -0.0054401446984352463
leaf_count=12 46 23 20 42 99 12
internal_value=0 -0.0052944 0.00123176 0.00649844 -0.00265966 -0.0136493
internal_count=254 47 207 88 119 35
shrinkage=0.241263


Tree=98
num_leaves=5
num_cat=0
split_feature=96 96 98 96
split_gain=0.000299226 0.00482703 0.00263 0.00117906
threshold=547.50000000000011 135.00000000000003 3685.0000000000005 2515.5000000000005
decision_type=2 2 2 2
left_child=1 2 -1 -2
right_child=3 -3 -4 -5
leaf_value=-0.0022667768014244813 0.0020381504439159468 -0.0052604770256000832 0.0013632011984266153 -0.00012251829413415422
leaf_count=27 45 14 49 119
internal_value=0 -0.00359829 0.000137434 0.00198599
internal_count=254 90 76 164
shrinkage=0.241263


Tree=99
num_leaves=4
num_cat=0
split_feature=71 98 98
split_gain=0.000139529 0.00468385 0.00023808
threshold=1.0000000180025095e-35 7416.0000000000009 406.50000000000006
decision_type=2 2 2
left_child=1 2 -1
right_child=-2 -3 -4
leaf_value=-0.0011171521282083746 0.0020663722219840747 -0.0048070063567148304 0.00050393264551653238
leaf_count=49 19 14 172
internal_value=0 -0.000799183 0.000548135
internal_count=254 235 221
shrinkage=0.241263


end of trees

feature importances:
area_num=54
age_countall=40
age_month=37
dis_min=34
area_par_room=33
floor_countall=32
facilities_countall=23
min_time=20
avg_time=20
max_floor_countall=18
direction_countall=16
23ku_mean_std=15
layout_countall=13
dis_ave=9
area_num_countall=9
max_floor=8
23ku_countall=7
teiki_syakuya=6
kitchen_2=6
kanso=5
e_num=5
facilities_20=5
bc_0=5
kitchen_3=5
sm_doku=4
school=4
facilities_0=4
facilities_10=4
facilities_18=4
bc_1=4
kitchen_5=4
S=3
car_parking=2
oidaki=2
facilities_1=2
facilities_3=2
facilities_6=2
facilities_23=2
bc_3=2
room_num=1
north=1
facilities_2=1
facilities_4=1
facilities_30=1
bc_2=1
bc_4=1
bc_5=1
kitchen_0=1

parameters:
[boosting: gbdt]
[objective: regression]
[metric: ]
[tree_learner: serial]
[device_type: cpu]
[data: ]
[valid: ]
[num_iterations: 100]
[learning_rate: 0.241263]
[num_leaves: 23]
[num_threads: 0]
[max_depth: 3]
[min_data_in_leaf: 12]
[min_sum_hessian_in_leaf: 7]
[bagging_fraction: 1]
[bagging_freq: 0]
[bagging_seed: 3]
[feature_fraction: 0.73036]
[feature_fraction_seed: 2]
[early_stopping_round: 0]
[max_delta_step: 0]
[lambda_l1: 0.0053513]
[lambda_l2: 1.90324]
[min_gain_to_split: 0.00154506]
[drop_rate: 0.288686]
[max_drop: 50]
[skip_drop: 0.5]
[xgboost_dart_mode: 0]
[uniform_drop: 0]
[drop_seed: 4]
[top_rate: 0.2]
[other_rate: 0.1]
[min_data_per_group: 100]
[max_cat_threshold: 32]
[cat_l2: 10]
[cat_smooth: 10]
[max_cat_to_onehot: 4]
[top_k: 20]
[monotone_constraints: ]
[feature_contri: ]
[forcedsplits_filename: ]
[refit_decay_rate: 0.9]
[verbosity: 1]
[max_bin: 255]
[min_data_in_bin: 3]
[bin_construct_sample_cnt: 200000]
[histogram_pool_size: -1]
[data_random_seed: 1]
[output_model: LightGBM_model.txt]
[snapshot_freq: -1]
[input_model: ]
[output_result: LightGBM_predict_result.txt]
[initscore_filename: ]
[valid_data_initscores: ]
[pre_partition: 0]
[enable_bundle: 1]
[max_conflict_rate: 0]
[is_enable_sparse: 1]
[sparse_threshold: 0.8]
[use_missing: 1]
[zero_as_missing: 0]
[two_round: 0]
[save_binary: 0]
[enable_load_from_binary_file: 1]
[header: 0]
[label_column: ]
[weight_column: ]
[group_column: ]
[ignore_column: ]
[categorical_feature: ]
[predict_raw_score: 0]
[predict_leaf_index: 0]
[predict_contrib: 0]
[num_iteration_predict: -1]
[pred_early_stop: 0]
[pred_early_stop_freq: 10]
[pred_early_stop_margin: 10]
[convert_model_language: ]
[convert_model: gbdt_prediction.cpp]
[num_class: 1]
[is_unbalance: 0]
[scale_pos_weight: 1]
[sigmoid: 1]
[boost_from_average: 1]
[reg_sqrt: 0]
[alpha: 0.9]
[fair_c: 1]
[poisson_max_delta_step: 0.7]
[tweedie_variance_power: 1.5]
[max_position: 20]
[label_gain: ]
[metric_freq: 1]
[is_provide_training_metric: 0]
[eval_at: ]
[num_machines: 1]
[local_listen_port: 12400]
[time_out: 120]
[machine_list_filename: ]
[machines: ]
[gpu_platform_id: -1]
[gpu_device_id: -1]
[gpu_use_dp: 0]

end of parameters

pandas_categorical:[]
